w_t _bias_ip1[500] = {
	-0.0015999082
	  ,0.0021313585
	,0.0030751412
	,-0.004369847
	,-0.0054791151
	,0.0033198469
	,0.0025996934
	,0.0046888106
	,-0.00011407133
	,0.0010841698
	,0.00556345
	,0.0018182315
	,-0.0039029836
	,-0.0046218219
	,-0.0051818644
	,-0.0013182953
	,0.00034514311
	,-0.0035003363
	,-0.0043610698
	,-0.0023144451
	,0.0041921772
	,0.0024560017
	,-0.0015908855
	,-0.00192176
	,0.0046203095
	,-0.0022025476
	,0.0016528791
	,-0.0019841255
	,-0.0014512909
	,0.0031466987
	,0.0033923704
	,0.0079284627
	,-0.0042543425
	,-0.00036925316
	,0.0021659147
	,-0.011962845
	,0.00017572766
	,-0.00027690575
	,0.0033919276
	,-0.0049165897
	,-7.5635216e-05
	,-0.005177835
	,-0.0014668851
	,0.0030132423
	,0.0077798031
	,-0.004410767
	,-0.00375288
	,-0.0012885779
	,-0.0013856157
	,-0.0066929283
	,0.0033806833
	,-0.0029635967
	,-0.0037017707
	,-0.0029567776
	,0.000574744
	,-0.0072766948
	,-0.0028350619
	,-0.00029637438
	,-0.0021990929
	,-0.0095582185
	,-0.006212397
	,-0.00683238
	,0.001511175
	,0.0007999721
	,0.0020618313
	,-0.0047020023
	,-0.0055952459
	,-0.0053513716
	,-0.0013333644
	,0.0019312218
	,-0.0054309168
	,-0.0019904429
	,-0.006029922
	,0.0059138206
	,-0.0016290388
	,-0.0032642484
	,-0.0018880594
	,0.0062973886
	,-0.00077399606
	,0.0014856213
	,-0.0023202724
	,-0.01043155
	,0.00075839012
	,0.00042293404
	,0.0010592581
	,-0.0046957969
	,0.0081311287
	,0.0013670637
	,-0.0065280478
	,0.0030181077
	,-0.00016034664
	,-0.0059001553
	,-0.0071695358
	,0.0043853074
	,-0.0025313031
	,-0.0025614211
	,0.0093895
	,0.0073663485
	,0.0028052418
	,-0.003245879
	,-0.0039450731
	,-0.0040922225
	,-0.0033084254
	,-0.0051944167
	,-0.00031603643
	,-0.0024035021
	,0.0096993847
	,-0.0027361186
	,-0.0015187224
	,0.00069437845
	,-0.0036605361
	,-0.0035755471
	,0.0068879379
	,0.0060278014
	,0.0015263854
	,0.0041914484
	,-0.0011077313
	,-0.003932518
	,0.0094608711
	,0.0021884269
	,0.0029226996
	,-0.0022250658
	,-0.00022274273
	,-0.0070805163
	,0.00037071691
	,0.0026583257
	,0.0022226842
	,0.0035970218
	,-0.006601593
	,-0.0004902113
	,-0.0011119328
	,-0.006272662
	,0.00012647208
	,-0.0045772796
	,0.0050423676
	,-0.0074450434
	,0.0079422351
	,-0.0036731153
	,0.004050422
	,-0.0032677879
	,0.00059744535
	,-0.0040782867
	,-0.0020600883
	,0.007071259
	,0.0046656169
	,0.012911699
	,0.0043266905
	,-0.0033415372
	,-0.0063700322
	,-0.0024777311
	,-0.0021050056
	,-0.0039930861
	,-0.0024069471
	,-0.0051123225
	,-0.0059639271
	,-0.0015060555
	,-0.0038544666
	,-0.0052830977
	,-0.0058751642
	,-0.0080907112
	,0.0065845773
	,-0.00476381
	,0.0033129873
	,0.0028946369
	,-0.001218298
	,-0.000978061
	,-7.1965966e-05
	,-0.0057301791
	,-0.0032789398
	,0.0050826953
	,-0.0038688332
	,0.0052660778
	,0.0050969631
	,-0.0020855665
	,0.0014950322
	,0.0031020218
	,0.00514399
	,0.00091178494
	,0.00070521148
	,0.0011003984
	,-0.005359259
	,0.0017131495
	,-0.00099927606
	,-0.0014121484
	,0.0046074982
	,-0.0033060596
	,0.0041375528
	,-0.0012885387
	,-0.0040625911
	,0.0021748748
	,0.013772746
	,0.0015207164
	,-0.0062088165
	,-0.0062463763
	,0.0016471767
	,-0.0027675389
	,0.00455971
	,-0.0063494127
	,0.00019641679
	,-0.0033816288
	,-0.005640706
	,0.0011081585
	,-0.00090897211
	,0.007597046
	,-0.00059164909
	,0.0063370266
	,-0.00382372
	,-0.0022820404
	,0.0033999344
	,-0.0055442257
	,0.0086265719
	,-0.0073930733
	,-8.7536217e-05
	,-0.0026371116
	,0.0023201641
	,0.0082249455
	,-0.0040485356
	,-0.0015143346
	,-0.0017358417
	,-0.00078787038
	,0.00062924961
	,-0.0032543805
	,-0.00055433577
	,-0.003288589
	,-0.00325662
	,-0.00073220616
	,0.0056735128
	,0.00013342309
	,-0.002057638
	,0.0011627753
	,0.0077171326
	,0.010340259
	,-0.00079226453
	,-0.0012328627
	,-0.001802736
	,0.003742368
	,0.00027406425
	,0.0020080775
	,0.0011306801
	,0.0079049952
	,-0.0044076876
	,0.008497485
	,0.0033615853
	,0.00037259489
	,-0.00661742
	,-0.0023360648
	,-0.0016645005
	,0.0010438755
	,-0.0021645115
	,-0.001920609
	,0.0025924356
	,-0.0022716746
	,-0.0056185913
	,-0.0030254852
	,-0.0015833672
	,-0.0019125915
	,-0.0046717245
	,0.0039458806
	,-2.8798226e-05
	,-0.0021121672
	,0.0031374323
	,0.0019204944
	,-0.00069938728
	,0.0022327532
	,-0.0037321039
	,-0.00046377376
	,-0.0067686816
	,-0.0057728621
	,0.005470878
	,0.0063274824
	,-0.003503371
	,0.0043881377
	,0.0015734117
	,-0.00072319218
	,0.0020693236
	,-0.0065386491
	,0.0055443216
	,0.0019397059
	,-0.0031112933
	,-0.001742495
	,-0.0018090407
	,-0.0015547737
	,-0.002080213
	,-0.0042194095
	,-0.0031576857
	,0.0040721805
	,0.00033606467
	,0.0042903009
	,0.00086700526
	,0.0032613189
	,-0.0013670938
	,0.0015327244
	,-0.0027438283
	,0.012851548
	,0.0030019172
	,-0.00086046039
	,-0.00907103
	,0.0058288025
	,0.00033869731
	,-0.0011798975
	,-0.0026330126
	,0.00051105965
	,0.0063287378
	,-0.010974912
	,-0.00016588914
	,0.003996782
	,-0.0022894391
	,0.002748329
	,-0.0056297379
	,-0.006204397
	,-0.0093997959
	,-0.004802152
	,0.0043135877
	,0.0034815418
	,0.0041525876
	,0.00045690656
	,0.0019114504
	,0.007608891
	,-0.0036988808
	,-0.0037838549
	,0.0030672594
	,-0.00011007603
	,0.010928112
	,-0.001170476
	,0.0044179023
	,-0.0029196115
	,0.0031886564
	,-0.0010517765
	,-0.0056077228
	,-0.0031043387
	,0.0049866973
	,-0.0023949423
	,-0.0022417826
	,-0.0012729007
	,0.0041592717
	,0.0013979347
	,0.0033269573
	,-0.0055052433
	,-0.00089719909
	,-0.00013689885
	,0.0032149297
	,-0.0055611725
	,0.0034154889
	,-0.0044733519
	,-0.00044696775
	,-0.001415321
	,0.0075403117
	,-0.00067923008
	,0.0020117497
	,0.00010189455
	,-0.0019069941
	,0.0015994023
	,0.0014791245
	,0.0054286178
	,0.00036845607
	,-0.00091584527
	,-0.00082463177
	,0.004042217
	,-0.0034220179
	,0.0036017725
	,-0.0021188711
	,-0.0044514053
	,0.0022224355
	,-0.0063666622
	,-0.0027849525
	,-0.0072046197
	,-0.00018343404
	,-0.0011763239
	,0.002027761
	,0.0042535355
	,-0.0014980242
	,-0.00050062948
	,0.00048722417
	,0.00862623
	,-0.0055130874
	,-0.0019081583
	,0.00033483669
	,-0.0043159444
	,0.0049158973
	,0.0018224693
	,0.0056196325
	,0.013308789
	,-0.0013967822
	,-0.0057700435
	,-0.0035477595
	,-0.0064690686
	,0.0022046815
	,-0.00030137351
	,0.0003420916
	,-0.0079737259
	,0.00037506246
	,-0.0021827233
	,0.0028332463
	,0.010166975
	,-0.0022640147
	,-0.0075299535
	,-0.0082969405
	,0.0046041934
	,0.00033950267
	,-0.0026524477
	,-0.0029824916
	,0.0021911389
	,-0.0048928834
	,0.0083334772
	,-0.0024394556
	,-0.0061900425
	,0.0019714115
	,-0.0048036985
	,-0.0030113293
	,-0.0094293989
	,0.0054761353
	,0.0013300031
	,-0.0058945427
	,0.004594055
	,-0.0014098679
	,-0.00085248594
	,-0.001440902
	,-0.0085091786
	,-0.0040077614
	,0.0021462901
	,-0.0083002392
	,0.0059057665
	,0.0037886288
	,-0.0021413749
	,0.0047842967
	,-0.0020716658
	,-0.002502545
	,-0.0037864547
	,-0.0011729279
	,-0.006419369
	,1.5763151e-05
	,0.0047067786
	,-0.002105678
	,-0.0061742077
	,0.0016026421
	,0.0021774615
	,0.002219937
	,-0.0020066183
	,-0.0044020843
	,0.0021004605
	,-0.0054138848
	,-0.00015011916
	,0.0019483112
	,0.00034508843
	,-0.0022283646
	,0.0028447674
	,-0.00018160448
	,0.0037886102
	,0.00098051317
	,0.0013430568
	,0.00071223249
	,0.011683662
	,0.0014252613
	,-0.0041626231
	,0.00057237805
	,0.00025234383
	,-0.0038773844
	,0.00095451489
	,0.0026620477
	,-0.0041068355
	,0.0060531353
	,-0.013750212
	,-0.0026968056
	,0.0016864643
	,-0.0038883511
	,-0.0004994311
	,0.0046473574
	,-0.0010684868
	,0.0015764952
	,-0.0044815657
	,0.0012120936
	,-0.0049070846
	,-0.0021401362
	,-0.0031166947
	,0.00074358936
	,0.0069006481
	,-0.00018558545
	,0.0018259707
	,-0.0036949005
	,-0.0013691976
	,-0.00086352247
	,-0.0081573883
	,0.00091098319
	,-0.0005879965
	,-0.010466327
	,0.0017371917
	,0.0010732224
	,-0.0026096592
	,0.0010628715
	,0.00080724532
	,-0.00030826469
	,0.0047047245
	,-0.0024640376
	,0.002210143
	,0.00040336922
	,0.0062627089
	,-0.0037355733
	,-0.002557162
	,0.0020793581
	,1.6018996e-05
};
