w_t _weights_ip2[400] = {
	-0.11660678
	,-0.481361
	,-0.16046706
	,-0.61048764
	,-0.11003652
	,0.47026464
	,0.3388581
	,-0.26011911
	,-0.24089041
	,0.29354528
	,-0.31925541
	,-0.695733
	,-0.32025671
	,-0.47843677
	,-0.49697006
	,-0.17415792
	,-0.22881211
	,-0.33342797
	,0.415709
	,-0.14317194
	,-0.33758405
	,-0.091733754
	,0.3084287
	,-0.06067368
	,-0.10433126
	,0.413719
	,-0.046679873
	,0.28554764
	,-0.049666665
	,-0.23121651
	,0.47067949
	,0.066940449
	,-0.33002454
	,-0.60823077
	,0.399144
	,-0.027907118
	,-0.22167009
	,0.12537447
	,-0.23607527
	,-0.53901476
	,-0.30678833
	,0.42944393
	,-0.38098431
	,-0.35642934
	,0.28936231
	,0.49271932
	,-0.48265183
	,0.037175883
	,0.63110793
	,0.030311812
	,0.14058906
	,0.44239703
	,0.14752819
	,0.28666574
	,0.085725673
	,0.13821903
	,0.26961789
	,0.034134012
	,-0.4521713
	,-0.46094951
	,-0.6552102
	,0.13414453
	,0.29692665
	,0.13372461
	,-0.1917825
	,0.18491594
	,-0.0070091928
	,0.30355814
	,-0.0077094971
	,-0.69600773
	,-0.52719188
	,0.45547116
	,0.3202059
	,0.27389488
	,-0.27162626
	,-0.14420442
	,-0.22452559
	,-0.82435822
	,0.50807452
	,-0.32825017
	,0.20054494
	,-0.10312008
	,0.31942675
	,-0.36232996
	,0.62666166
	,0.61985242
	,-0.45158538
	,0.50827563
	,0.039094307
	,0.17625189
	,0.32503739
	,-0.58534104
	,-0.87304741
	,0.38592678
	,0.262734
	,-0.39891219
	,0.24108234
	,-0.23115818
	,-0.084696718
	,-0.035269495
	,-0.31624818
	,0.22057946
	,0.54832613
	,-0.11383966
	,0.51754117
	,-0.3405523
	,0.33922577
	,-0.20103416
	,-0.036223941
	,-0.23251717
	,0.35893521
	,-0.040025085
	,-0.54668134
	,0.25408262
	,-0.42494908
	,-0.14060014
	,0.53293139
	,0.53192514
	,-0.17399633
	,0.50998616
	,-0.016763579
	,0.2560145
	,-0.15573807
	,0.42071122
	,0.45256719
	,0.082177036
	,0.36866289
	,-0.061572712
	,-0.53626716
	,0.47039127
	,0.092446923
	,-0.54886532
	,0.34790653
	,-0.33567828
	,0.28562355
	,-0.39951482
	,-0.092766568
	,0.53770465
	,-0.0045179212
	,-0.32035708
	,0.53511357
	,-0.25687805
	,0.13882419
	,0.14419076
	,0.65369081
	,0.093318008
	,-0.1380205
	,-0.31119266
	,-0.203585
	,0.75922352
	,-0.85452789
	,-0.026119919
	,0.52722245
	,0.041731566
	,-0.025621304
	,-0.52497357
	,0.20441435
	,-0.3867462
	,-0.44410592
	,0.3051213
	,0.22881646
	,-0.30690894
	,0.65487993
	,-0.10964259
	,0.33569872
	,-0.15913171
	,0.30968964
	,-0.30497605
	,0.5174135
	,-0.57725394
	,0.69463843
	,0.24883017
	,0.096385688
	,-0.44879213
	,0.44360846
	,-0.071264111
	,0.051499803
	,-0.23559345
	,-0.30660826
	,0.44038346
	,-0.30759209
	,0.11934263
	,-0.38263905
	,-0.57113928
	,-0.74877095
	,-0.19845288
	,-0.27755871
	,0.16785553
	,-0.012159411
	,0.17585956
	,0.0021285724
	,0.66584122
	,-0.12367319
	,-0.55780363
	,-0.53716415
	,-0.023611763
	,0.28605831
	,-0.072427876
	,0.15938888
	,0.077242285
	,-0.70775181
	,-0.036309473
	,-0.18217975
	,0.29702309
	,-0.77047014
	,-0.13775335
	,0.18728703
	,0.53785241
	,-0.24337485
	,0.21049479
	,0.43721566
	,0.56447774
	,-0.23097013
	,0.11918125
	,-0.74859095
	,0.024670159
	,-0.77135921
	,0.64325362
	,-0.19184533
	,0.23141745
	,0.49142352
	,-0.1453781
	,-0.28249255
	,-0.28273222
	,0.20449056
	,-0.067464136
	,-0.36682495
	,-0.37812373
	,-0.54799545
	,-0.31498593
	,0.22845925
	,-0.03034557
	,0.45871639
	,-0.24448104
	,0.14306015
	,0.31406763
	,-0.76326925
	,0.22068748
	,-0.32634485
	,0.020927424
	,0.35575032
	,-0.44509706
	,0.44048825
	,0.28985822
	,-0.56641537
	,0.050200053
	,0.15941644
	,-0.52692068
	,0.29621464
	,-0.02843382
	,0.11011851
	,0.40382791
	,-0.32646757
	,-0.31843528
	,-0.33512673
	,0.073536426
	,-0.58119571
	,-0.45153713
	,0.28910878
	,0.33013609
	,0.0030275639
	,0.5454725
	,0.27082056
	,0.36084953
	,-0.01603305
	,-0.49509549
	,0.59778279
	,0.10417617
	,-0.0019867569
	,-0.49672192
	,-0.20667128
	,0.55689144
	,-0.36519343
	,0.5942353
	,0.041276228
	,0.39899933
	,-0.019048821
	,0.11593127
	,0.020311758
	,-0.43676236
	,-0.08348234
	,0.28005815
	,-0.22379492
	,0.19483513
	,0.11828279
	,-0.59672028
	,-0.56786
	,-0.48679191
	,0.10644868
	,0.12786819
	,-0.11460192
	,-0.015376368
	,0.19970679
	,0.38202497
	,0.21653314
	,-0.26748765
	,0.31587821
	,-0.10262927
	,0.4584274
	,-0.38961235
	,-0.53250444
	,-0.59136313
	,-0.15110508
	,-0.67923349
	,0.1701813
	,0.43245369
	,-0.27257606
	,0.27281383
	,-0.14892924
	,0.16683531
	,0.42418009
	,-0.16955397
	,-0.152885
	,0.30862761
	,0.23444574
	,-0.62953472
	,-0.17537242
	,0.43162897
	,0.85734552
	,0.50950646
	,0.72000885
	,0.34802848
	,0.11602775
	,0.25869727
	,-0.51360208
	,-0.24461302
	,0.16195747
	,0.22403868
	,-0.0067159929
	,0.19888943
	,-0.13182695
	,0.063569546
	,0.56054765
	,0.23767047
	,-0.38092187
	,0.64619768
	,0.49001971
	,-0.53921467
	,0.087865174
	,0.12544492
	,0.521351
	,-0.41092327
	,0.56080437
	,0.55292493
	,-0.25122318
	,-0.16532086
	,-0.23213792
	,-0.21606164
	,0.15824117
	,0.24323994
	,0.13119093
	,-0.46536931
	,-0.080910511
	,-0.10957245
	,-0.36833689
	,0.46033716
	,0.70063174
	,0.39359754
	,-0.78519869
	,-0.22466515
	,0.30659977
	,-0.36747941
	,-0.75314128
	,0.069827072
	,0.38093317
	,-0.12046744
	,0.3472105
	,0.4824211
	,-0.58726966
	,-0.59990782
	,-0.67433548
	,0.19832252
	,0.30130306
	,-0.57114458
	,0.21961987
	,0.13578898
	,-0.028634738
	,0.4676882
	,-0.44378921
	,0.48581117
	,-0.094270371
	,0.098934807
	,-0.55658579
	,-0.0985083
	,-0.033381537
	,-0.038217992
	,-0.14717387
	,0.22633037
	,0.54310709
	,0.59212923
	,0.41846365
	,-0.70114821
	,0.31772822
	,-0.11408526
	,0.72353512
	,0.56477821
	,-0.071574382
	,-0.27005649
	,-0.024115931
	,0.20532571
};
