w_t _weights_conv2[625] = {
	0.22153893
	,0.1103545
	,-0.024920519
	,0.018512983
	,-0.15639903
	,0.024791289
	,0.22839139
	,0.032563269
	,-0.058408327
	,-0.45376188
	,0.093208365
	,0.21067627
	,0.13819911
	,0.062430553
	,-0.15194345
	,0.22655892
	,0.3086192
	,0.059749238
	,-0.012233114
	,-0.08591827
	,0.088691965
	,0.17240998
	,0.15290982
	,-0.058342986
	,-0.11248055
	,0.21084081
	,0.05877557
	,0.080443352
	,-0.080004036
	,-0.09798789
	,0.19748729
	,0.38689458
	,0.41150308
	,0.42336383
	,-0.025348563
	,0.086006448
	,0.00087256572
	,0.12519698
	,0.17634062
	,0.23723558
	,0.0349866
	,0.0079737995
	,-0.05070927
	,-0.10597763
	,-0.0626857
	,0.00026903156
	,0.034092739
	,-0.11951777
	,-0.16131747
	,-0.17624886
	,-0.11793701
	,-0.13682368
	,-0.12292434
	,0.066221789
	,0.075532854
	,0.0085405018
	,-0.15200408
	,-0.33777082
	,-0.38310182
	,-0.32486749
	,-0.066773914
	,0.10678818
	,0.20502305
	,-0.083213247
	,-0.2013669
	,-0.017188847
	,0.15369073
	,0.40333217
	,0.56061214
	,0.10257843
	,0.16684192
	,0.18394627
	,0.33678889
	,0.31768441
	,0.17937227
	,0.11630493
	,0.055617314
	,0.15991838
	,0.070401527
	,-0.11611383
	,0.15607595
	,-0.0097388634
	,0.2486577
	,0.39056876
	,0.39758357
	,0.10522829
	,0.09324795
	,-0.024080466
	,0.14126891
	,0.17670943
	,0.055216823
	,-0.057162151
	,-0.056352448
	,-0.12529615
	,-0.0043206871
	,0.099346466
	,0.14365919
	,0.0382738
	,-0.1041607
	,-0.18132888
	,-0.071988285
	,-0.083677962
	,-0.20765319
	,-0.16701671
	,-0.30435964
	,-0.076095857
	,-0.061226889
	,0.031119565
	,0.13376611
	,0.037555464
	,-0.029957522
	,0.05100549
	,0.039583903
	,-0.0020184864
	,-0.044633493
	,0.14203838
	,0.067639016
	,0.30462047
	,0.21762022
	,0.10559051
	,0.033876851
	,0.20332889
	,0.25263059
	,0.2661593
	,0.15503886
	,0.25725821
	,0.26720506
	,0.25618964
	,0.30849257
	,0.31517172
	,-0.20960416
	,-0.10198686
	,-0.15240189
	,0.090248428
	,-0.02777222
	,-0.19738379
	,-0.19372481
	,-0.07894168
	,-0.0438568
	,-0.18242277
	,-0.097986817
	,0.031361736
	,0.041145325
	,0.17242083
	,0.2525346
	,-0.024610367
	,0.11422746
	,0.1943956
	,0.2007145
	,-0.090543292
	,-0.12025727
	,0.10333925
	,0.13094956
	,0.15171286
	,0.13877873
	,-0.25995952
	,-0.074357718
	,0.046623465
	,-0.0025011688
	,-0.2349119
	,0.0798515
	,0.097146064
	,0.027649485
	,-0.042006992
	,-0.0559558
	,-0.11223093
	,-0.10596422
	,-0.024474585
	,0.033612683
	,-0.11221446
	,-0.1067166
	,0.01207866
	,0.15671162
	,0.090898231
	,0.025147704
	,-0.075067937
	,0.0727495
	,0.17582966
	,0.21880256
	,0.13453713
	,-0.21293065
	,-0.0090602227
	,-0.060437795
	,-0.13961449
	,-0.063305207
	,-0.16884717
	,-0.27711913
	,-0.40924802
	,-0.42914271
	,-0.32384062
	,-0.22461833
	,-0.24519497
	,-0.23271038
	,-0.10384084
	,-0.024788765
	,-0.10854879
	,0.11240366
	,0.12403222
	,0.087551333
	,-0.057048544
	,0.076128274
	,-0.10684597
	,-0.11225703
	,-0.21030648
	,-0.126505
	,0.15918785
	,0.091384679
	,0.1180002
	,-0.078797951
	,-0.23291807
	,0.27215895
	,0.35702303
	,0.50232333
	,0.28673309
	,0.089017935
	,0.20245665
	,0.2932508
	,0.24699628
	,0.083882138
	,-0.050742347
	,0.027671121
	,0.13796847
	,0.10086473
	,-0.11205484
	,-0.034983713
	,-0.14424849
	,-0.043463834
	,-0.19109802
	,-0.1554891
	,-0.23476014
	,-0.23812494
	,-0.14534709
	,-0.30769753
	,-0.14752966
	,-0.15789069
	,-0.014053534
	,-0.11676893
	,-0.087349527
	,-0.2497849
	,-0.22785807
	,0.081388466
	,0.089710295
	,-0.16441847
	,-0.15829769
	,0.0026405263
	,0.037471306
	,-0.11489997
	,0.038129035
	,0.0029530257
	,-0.056074761
	,0.088830046
	,-0.021424279
	,0.12251996
	,0.11970931
	,0.097418606
	,0.18121527
	,0.035276718
	,-0.019023458
	,0.10541522
	,0.091100208
	,0.072757855
	,0.27227154
	,0.078232989
	,0.23098658
	,0.28605825
	,-0.16306472
	,0.070274383
	,0.40537655
	,0.33051586
	,0.48167491
	,-0.24943562
	,-0.10045119
	,0.21042781
	,0.46034396
	,0.35046381
	,-0.083219171
	,-0.041710272
	,0.074026905
	,-0.016714452
	,-0.0083859656
	,0.20058678
	,0.075755589
	,-0.043505967
	,0.10125271
	,0.052009
	,0.13366699
	,0.27360582
	,0.30646878
	,0.14350313
	,0.24823576
	,-0.10297473
	,0.24556987
	,0.49754524
	,0.19388871
	,0.046222065
	,-0.24622642
	,-0.292155
	,0.16783787
	,0.16463168
	,-0.086592026
	,-0.031399261
	,-0.075665593
	,0.051354282
	,0.15778869
	,0.065996028
	,-0.087244622
	,-0.21188746
	,-0.026384842
	,-0.072380356
	,-0.22554331
	,-0.092924967
	,-0.18688284
	,-0.35915232
	,0.0072655631
	,-0.074141458
	,0.088184476
	,0.051868759
	,-0.15284994
	,0.059038542
	,-0.080651507
	,-0.084361464
	,0.08607959
	,-0.18525918
	,-0.21622428
	,-0.30430681
	,0.07815627
	,0.05729
	,0.063300967
	,0.13387482
	,0.099647872
	,0.080517717
	,0.11607534
	,0.087821886
	,0.18215872
	,0.13984236
	,-0.10256996
	,-0.17626408
	,-0.043804731
	,-0.022781679
	,0.019088103
	,-0.11258435
	,-0.20662323
	,-0.12959529
	,-0.13399573
	,-0.1547779
	,-0.05668154
	,-0.046958502
	,0.065164626
	,-0.022859605
	,0.032606721
	,0.043634504
	,0.078634247
	,0.052745119
	,-0.038537119
	,-0.10710888
	,0.09865056
	,0.1203052
	,0.039399639
	,-0.016277196
	,0.039556488
	,-0.10668869
	,0.060693186
	,0.016092474
	,0.020667579
	,-0.0034086779
	,-0.23973139
	,-0.27900469
	,-0.06136097
	,0.0086919023
	,-0.088485315
	,-0.033331137
	,-0.21388441
	,-0.30083382
	,-0.20502222
	,-0.14004101
	,-0.028911792
	,0.13380684
	,0.013596853
	,-0.20926
	,-0.296365
	,0.12120865
	,0.12026013
	,-0.078448668
	,-0.13701318
	,-0.20425247
	,0.14630282
	,-0.012849504
	,-0.29516143
	,-0.33623224
	,-0.083015583
	,0.081429213
	,-0.0948544
	,-0.26438227
	,-0.28230092
	,-0.022118833
	,0.13668096
	,-0.1009667
	,-0.080429874
	,-0.016825709
	,0.10811339
	,-0.047163516
	,-0.057341661
	,-0.088961154
	,-0.14958198
	,-0.15114149
	,0.080373377
	,0.0061408458
	,-0.17382924
	,-0.10158281
	,-0.14024551
	,-0.067531765
	,-0.12802662
	,0.040343411
	,-0.18519008
	,-0.14726001
	,-0.054207966
	,-0.20146124
	,-0.1218726
	,-0.098756216
	,0.027368791
	,-0.013778564
	,-0.090091661
	,-0.11961422
	,0.085559867
	,-0.06630405
	,0.019491075
	,-0.19092777
	,-0.23449565
	,-0.21083918
	,0.078597583
	,0.11407923
	,0.041480929
	,-0.14946131
	,-0.11328696
	,-0.013179776
	,0.2942768
	,0.291783
	,0.041636802
	,-0.059777744
	,0.15944183
	,0.2603454
	,0.28637
	,0.17030486
	,0.12889424
	,0.18326509
	,-0.020808602
	,0.22228117
	,0.0051940512
	,0.18677647
	,0.3961364
	,0.25507748
	,0.25236693
	,0.19788882
	,0.20839563
	,0.22729295
	,0.17579618
	,0.1000483
	,-0.072244443
	,0.13955413
	,0.31139037
	,-0.18557152
	,0.010304231
	,-0.0676123
	,0.10074329
	,-0.028638812
	,-0.16022207
	,-0.059681505
	,-0.038564585
	,0.01277367
	,0.13904864
	,-0.16437191
	,-0.19857939
	,-0.10583079
	,0.11902115
	,-0.12672585
	,0.11421714
	,0.11974137
	,0.1036936
	,0.23392342
	,-0.016360156
	,0.079657927
	,0.19063334
	,0.015642677
	,0.1472488
	,0.041365862
	,0.12919143
	,0.18694863
	,0.17401171
	,0.085599825
	,0.01476219
	,0.17305155
	,0.293159
	,0.20761436
	,0.14595585
	,-0.036587227
	,-0.0012603914
	,0.10985281
	,0.082954481
	,0.27311772
	,0.12656768
	,0.0367975
	,-0.04453199
	,-0.040244319
	,-0.0098431557
	,0.096970595
	,-0.080302149
	,0.017769789
	,0.0086130407
	,0.097154796
	,0.34463203
	,-0.039187584
	,-0.012682898
	,0.044306297
	,0.17329583
	,0.11199334
	,0.04071483
	,0.10955417
	,-0.10337924
	,-0.064388879
	,-0.12695831
	,0.043275408
	,0.016371038
	,-0.28263786
	,-0.21996492
	,-0.041271247
	,0.016612435
	,0.012133948
	,-0.14615828
	,-0.11805516
	,0.044818077
	,0.081947379
	,-0.13342516
	,-0.19842225
	,-0.10841045
	,0.044573713
	,-0.0057766596
	,-0.14757811
	,-0.27973551
	,-0.20183477
	,-0.075161621
	,-0.11872389
	,-0.12452929
	,-0.24818338
	,-0.0052350075
	,0.222348
	,-0.2131293
	,-0.21887825
	,-0.15482679
	,0.032036897
	,0.16548346
	,-0.082063742
	,-0.052846029
	,-0.16937762
	,0.0017332331
	,0.027959188
	,0.0170588
	,-0.28105974
	,0.0605768
	,0.12050292
	,0.0022945767
	,0.11048175
	,-0.10148515
	,0.23957461
	,0.056463361
	,-0.075859152
	,-0.010601057
	,0.32519335
	,0.28078562
	,0.26420513
	,-0.2747691
	,-0.008459229
	,0.30503559
	,0.50848442
	,0.14085558
	,-0.20381726
	,0.31033385
	,0.26651323
	,-0.027737049
	,0.16789955
	,0.035019487
	,0.34824118
	,0.22260259
	,0.021734955
	,0.099292755
	,-0.051052082
	,0.26975149
	,-0.004026995
	,0.029379223
	,-0.039891314
	,-0.0072540953
	,0.15656191
	,-0.041676391
	,-0.22740659
	,-0.26652953
	,-0.024513863
	,0.11310679
	,-0.13060421
	,-0.19277255
	,-0.16864775
	,0.026438368
	,0.1249091
	,0.0860754
	,-0.099477619
	,-0.050190527
	,-0.047369227
	,0.15931359
	,-0.16926061
	,0.088429227
	,-0.010600274
	,-0.031056793
	,0.12046657
	,-0.15183328
	,0.031636171
	,0.0765049
	,0.17930019
	,-0.072732866
	,0.068738468
	,0.23074235
	,-0.029301014
	,0.15363629
	,-0.18050112
	,0.20434661
	,0.35130954
	,-0.050492719
	,0.23952048
};
