w_t _weights_ip2[5000] = {
	-0.047044192
	  ,-0.12197373
	,0.036426894
	,-0.097242162
	,0.062309206
	,-0.024848329
	,0.032169025
	,0.059096947
	,-0.033153053
	,-0.077985972
	,0.034188952
	,0.08469487
	,-0.098533154
	,-0.069683038
	,0.11697329
	,-0.031292982
	,0.060412508
	,0.023441335
	,0.061392818
	,0.019238694
	,0.046587132
	,-0.054427955
	,-0.0511813
	,0.085403591
	,-0.05245617
	,0.011828405
	,-0.067915834
	,-0.04419497
	,0.010864751
	,-0.10807207
	,0.15146779
	,-0.054291636
	,0.1288173
	,-0.078050636
	,0.051034234
	,0.023030616
	,0.08615461
	,-0.086407967
	,-0.036174826
	,0.14102815
	,-0.037605338
	,-0.037586492
	,-0.012214493
	,-0.0965347
	,-0.025909079
	,-0.029345287
	,0.012358214
	,0.022218827
	,0.075421818
	,-0.0075414013
	,0.056956794
	,-0.065126143
	,0.069845937
	,-0.07704144
	,-0.067247957
	,0.080601521
	,-0.1120643
	,0.096333459
	,-0.00094870996
	,-0.040941685
	,-0.10638141
	,0.027315725
	,0.090028509
	,-0.013417045
	,-0.07164453
	,-0.030331675
	,-0.0679645
	,-0.028241763
	,-0.051953856
	,-0.022999221
	,-0.034037612
	,-0.065651648
	,-0.0052416539
	,-0.070148721
	,-0.0542343
	,-0.013720895
	,0.00092440232
	,-0.085373163
	,-0.018672993
	,-0.048095923
	,-0.046878312
	,-0.0018780702
	,-0.01297056
	,-0.021643763
	,-0.047726534
	,-0.018974403
	,0.042560771
	,0.065064453
	,0.013021242
	,-0.089629419
	,-0.078312993
	,0.0046668528
	,-0.030670516
	,0.010887648
	,-0.014927352
	,-0.003599789
	,-0.081972465
	,-0.095821485
	,-0.023681737
	,-0.055258311
	,-0.096784569
	,-0.013707631
	,-0.06963034
	,-0.055276863
	,-0.0087161092
	,-0.0049896939
	,-0.016400458
	,0.026519936
	,0.0079232724
	,0.023469476
	,-0.07635802
	,-0.034566861
	,-0.09336254
	,-0.013430313
	,-0.052664973
	,-0.085215271
	,0.024388345
	,-0.0070958654
	,-0.058015544
	,0.014266829
	,0.053089608
	,0.11824839
	,-0.060712565
	,0.031696346
	,-0.087033533
	,-0.06797234
	,0.12639706
	,-0.0051045343
	,-0.0003049027
	,-0.044245481
	,0.026492242
	,0.022736192
	,-0.083445147
	,-0.038817976
	,-0.022724692
	,-0.015619163
	,-0.14266832
	,0.062278409
	,-0.0015850217
	,-0.069911368
	,0.062355544
	,-0.097773217
	,0.072721384
	,-0.11825348
	,-0.052645918
	,-0.13481188
	,0.028937064
	,0.061023869
	,0.0447007
	,-0.058818057
	,0.033716746
	,0.11780971
	,0.0058340123
	,0.10401168
	,0.0054831915
	,-0.0045047929
	,-0.064705
	,0.076189414
	,0.032676812
	,0.055102497
	,-0.076065674
	,-0.0036411092
	,0.089063637
	,0.059946779
	,-0.1359162
	,0.030317267
	,-0.031828962
	,-0.048766337
	,0.044623617
	,0.086273611
	,0.024657685
	,-0.095250651
	,-0.00077656895
	,-0.021263316
	,-0.030566081
	,0.1533982
	,-0.036652151
	,-0.040103432
	,0.028708456
	,0.066559345
	,0.066850938
	,-0.020898266
	,-0.09257026
	,0.1256104
	,-0.013877847
	,0.0056688557
	,0.10649291
	,-0.083067566
	,0.073721044
	,0.09292461
	,-0.089153521
	,0.047661938
	,0.060649771
	,0.10742344
	,-0.050446637
	,-0.095383935
	,-0.0057542035
	,0.018560037
	,0.067287132
	,0.053826656
	,0.0842114
	,-0.080341049
	,0.0033871552
	,0.078548357
	,0.040398836
	,-0.042795233
	,0.048818972
	,0.026339984
	,-0.10175621
	,-0.033818882
	,0.056070689
	,-0.0049119061
	,0.10016786
	,0.024707125
	,0.061842877
	,-0.13894428
	,0.14586462
	,0.053322215
	,-0.049190827
	,-0.020978021
	,0.011276906
	,-0.018234363
	,-0.046616048
	,0.0081734257
	,-0.012114223
	,-0.011314759
	,-0.058214579
	,-0.0040252577
	,0.095133938
	,0.14192021
	,0.010205986
	,-0.0044954456
	,-0.04617944
	,-0.035245288
	,-0.093323328
	,-0.13755883
	,-0.049084969
	,0.083376959
	,-0.075544775
	,0.059702966
	,-0.033440672
	,0.040489722
	,0.036027312
	,0.064305767
	,0.0371641
	,0.016183319
	,-0.074624017
	,0.032516863
	,0.13939236
	,0.021655004
	,0.069717743
	,-0.074449316
	,-0.13687518
	,0.043207388
	,0.00073683058
	,0.033984013
	,0.068838514
	,-0.021674855
	,-0.013652548
	,-0.034647971
	,-0.066279873
	,-0.050061949
	,0.044409622
	,0.11674537
	,0.063111916
	,0.054863159
	,-0.028609792
	,-0.044638727
	,0.063258804
	,-0.0045899148
	,0.030889474
	,-0.04432065
	,0.015281541
	,-0.10444925
	,0.046448119
	,0.014520259
	,0.018045839
	,0.041695744
	,-0.093721442
	,0.0032140403
	,-0.085022882
	,0.0837591
	,-0.040300343
	,0.044120263
	,-0.051407956
	,-0.1088566
	,0.08728876
	,0.0659421
	,0.05231604
	,-0.011646406
	,0.069035016
	,-0.04259124
	,-0.032897148
	,-0.095375963
	,0.02326989
	,0.011140382
	,0.013002372
	,0.084652342
	,-0.023735449
	,0.023949152
	,0.01343227
	,0.0673971
	,0.0093655847
	,0.10896061
	,-0.1255701
	,-0.075318441
	,-0.057300285
	,-0.045130674
	,-0.0024580862
	,-0.039477456
	,-0.01111145
	,-0.014208216
	,-0.033997521
	,-0.033924591
	,-0.023882575
	,0.0014428253
	,0.038487509
	,-0.025283577
	,-0.0345845
	,0.044301026
	,-0.058183562
	,0.047790974
	,0.051470928
	,-0.051134065
	,-0.066972166
	,-0.012322245
	,-0.032099076
	,-0.026113441
	,-0.086530991
	,0.038524956
	,-0.032986149
	,0.036536891
	,0.029636066
	,-0.044214405
	,0.12354498
	,0.037502613
	,0.039009988
	,-0.016199736
	,-0.00039390838
	,-0.05675222
	,0.0024064369
	,0.054176278
	,0.065275304
	,-0.086615533
	,0.010349636
	,0.078120053
	,-0.11397265
	,0.026020637
	,-0.0028063294
	,0.0064878534
	,-0.038043022
	,-0.074908145
	,0.10480859
	,0.023465829
	,-0.0029864055
	,-0.029933799
	,-0.039851427
	,0.010182086
	,-0.037641119
	,-0.094046704
	,-0.092835143
	,-0.050611667
	,-0.065008521
	,-0.027141117
	,0.036280464
	,-0.056842525
	,-0.0080915
	,0.031994767
	,0.0056822537
	,-0.024442909
	,0.022318361
	,-0.07294172
	,0.097696014
	,-0.0026097696
	,-0.069980375
	,0.0062062121
	,-0.060790908
	,-0.033891805
	,-0.0079943445
	,0.016060326
	,0.062511064
	,-0.071504295
	,0.056522947
	,-0.083525
	,-0.086337924
	,0.11106071
	,-0.029128721
	,0.067066826
	,0.016472487
	,0.1676541
	,0.037701469
	,-0.12221002
	,-0.010563774
	,-0.066528313
	,-0.0075777052
	,-0.045587126
	,0.02966412
	,-0.10472896
	,-0.10961684
	,0.11461765
	,-0.055696413
	,-0.026508866
	,0.084710687
	,0.13156839
	,-0.04569691
	,0.025000645
	,-0.042224906
	,0.0049235942
	,-0.035455864
	,-0.043288283
	,0.03017405
	,0.03636748
	,-0.053690728
	,-0.049513936
	,0.031433504
	,-0.019015659
	,-0.061533857
	,0.043796394
	,-0.0041799303
	,0.010245411
	,-0.032679196
	,0.011842719
	,0.09743277
	,0.051375337
	,0.14228825
	,-0.022903109
	,-0.039155323
	,0.06140586
	,-0.05668715
	,0.11029623
	,0.0845128
	,-0.083309121
	,0.019584617
	,0.031675391
	,-0.027870771
	,0.0480604
	,-0.02251965
	,-0.065214716
	,0.044366285
	,-0.02922314
	,0.080891907
	,-0.039195675
	,0.01553134
	,-0.00902957
	,0.087100737
	,0.093679406
	,0.010245083
	,-0.1651549
	,0.051719528
	,-0.0086956732
	,-0.088191308
	,-0.011781267
	,-0.00518937
	,-0.00097310985
	,-0.020636687
	,0.019961165
	,-0.12859729
	,0.027491363
	,0.032845989
	,0.051576536
	,-0.044115279
	,-0.059404958
	,-0.019823933
	,-0.012092834
	,-0.0057590627
	,0.0061013624
	,0.1258156
	,0.091294527
	,-0.084807992
	,0.031175038
	,-0.095423765
	,0.052655332
	,0.05930363
	,0.041399918
	,-0.041638795
	,-0.01040479
	,0.071163796
	,-0.0024309389
	,0.032056846
	,-0.068369791
	,-0.049039368
	,0.017276606
	,-0.035641234
	,0.067384169
	,0.09418641
	,0.046964291
	,-0.031804744
	,0.032422058
	,-0.056399278
	,0.071504153
	,-0.035740729
	,0.23378114
	,0.032965
	,-0.015509097
	,0.014536548
	,-0.057390176
	,-0.059150506
	,-0.0064438237
	,0.11728635
	,-0.026847038
	,0.012206014
	,0.023153521
	,-0.0046549346
	,-0.0341979
	,-0.068191081
	,0.089011982
	,-0.062764078
	,0.024709674
	,0.051296167
	,0.076683611
	,0.038187761
	,-0.084466778
	,0.07870324
	,0.0019562494
	,-0.060351223
	,0.021403424
	,-0.087633274
	,-0.036226515
	,-0.018676564
	,-0.0088274628
	,-0.098983735
	,-0.014457125
	,0.015501969
	,-0.01848066
	,-0.074681081
	,0.03660496
	,-0.06778495
	,-0.054196827
	,0.02644323
	,-0.038362052
	,-0.0024021221
	,-0.044007603
	,-0.016998088
	,0.061252762
	,-0.076216862
	,0.037939295
	,0.0086279269
	,-0.096773386
	,-0.11382292
	,-0.10133399
	,0.015136814
	,-0.01415068
	,0.057526808
	,0.17915843
	,0.062578626
	,-0.065562226
	,-0.027638983
	,0.17380887
	,0.0516031
	,-0.015728768
	,-0.010660927
	,-0.058240186
	,-0.040809352
	,-0.0032434652
	,0.10957435
	,0.011878495
	,-0.018669326
	,-0.036181379
	,0.01391395
	,0.12517332
	,-0.0094726849
	,0.072776176
	,-0.017984277
	,-0.021548063
	,-0.02888298
	,0.010956374
	,0.0085210837
	,0.032190982
	,0.010327986
	,0.064014263
	,-0.03460807
	,-0.071955182
	,0.041369103
	,-0.094544962
	,0.045899872
	,-0.005385607
	,0.070400678
	,0.10873108
	,-0.014169157
	,0.074683115
	,0.052749924
	,0.01536994
	,0.0762025
	,-0.084718168
	,0.058711875
	,0.011181464
	,0.10053845
	,-0.091926359
	,-0.056880463
	,0.0971421
	,-0.0094497921
	,0.0013856767
	,-0.017052388
	,0.007383049
	,0.057171147
	,0.059550103
	,0.10882841
	,0.032174096
	,0.039019458
	,-0.023576444
	,-0.00014569913
	,-0.024041312
	,-0.05742459
	,-0.055195313
	,0.052481007
	,0.061322231
	,0.042574938
	,0.029380653
	,0.09937568
	,0.011120155
	,0.0216625
	,-0.028868303
	,0.075412564
	,0.03084464
	,-0.050368492
	,0.084124088
	,0.0069601787
	,-0.028113188
	,0.10893868
	,0.0032765227
	,0.013075609
	,0.052052535
	,-0.085297979
	,-0.080233105
	,0.026037727
	,0.093246929
	,-0.11387268
	,0.010951066
	,0.058292277
	,-0.015460691
	,-0.067935541
	,-0.0097456742
	,-0.073214106
	,-0.033965871
	,-0.085252509
	,0.021921674
	,0.032596163
	,0.10035702
	,-0.065094166
	,0.011399508
	,-0.006433886
	,-0.052648414
	,-0.12688957
	,-0.018321717
	,0.1105553
	,-0.013412889
	,-0.13752438
	,0.045745991
	,-0.02462635
	,0.1426039
	,0.031196216
	,-0.00030263004
	,0.10940894
	,0.013489848
	,-0.050749678
	,-0.041403081
	,-0.041348264
	,0.022358147
	,-0.047404993
	,-0.029443268
	,0.096434385
	,-0.0074977772
	,-0.0685788
	,-0.0048987977
	,-0.09609399
	,-0.011816833
	,0.032373704
	,-0.025981748
	,0.06141429
	,-0.0939081
	,-0.051597282
	,-0.034531079
	,0.12740459
	,0.0030226146
	,0.073004767
	,-0.056510258
	,-0.033129908
	,-0.0037961446
	,0.065270819
	,0.070276111
	,-0.063627787
	,0.029383076
	,-0.025987945
	,0.0065185414
	,0.075491562
	,-0.053954825
	,-0.037361775
	,-0.081729941
	,0.079850979
	,0.033505481
	,0.16372348
	,-0.082437068
	,0.007235121
	,-0.019871373
	,-0.16308679
	,0.077150695
	,0.023992738
	,-0.040692598
	,0.064527765
	,-0.079297878
	,-0.061039813
	,-0.048544142
	,0.055370342
	,0.11898861
	,0.016494965
	,-0.067023851
	,0.012499416
	,0.014181541
	,-0.024045218
	,-0.083184659
	,-0.12536222
	,-0.13461448
	,0.066327021
	,-0.021245051
	,0.028771486
	,-0.14056343
	,0.093476579
	,-0.058651488
	,-0.002351522
	,0.025967678
	,-0.099942736
	,-0.082492091
	,-0.028826103
	,0.080057926
	,0.045025267
	,0.033685822
	,-0.031534292
	,0.12668662
	,-0.011569899
	,-0.058436271
	,-0.13361897
	,-0.023809727
	,0.054368008
	,0.05004007
	,0.012742261
	,0.041576736
	,0.027475052
	,-0.10210682
	,-0.079171926
	,-0.008140971
	,-0.044867396
	,-0.061958369
	,-0.020772688
	,0.0656109
	,-0.011140716
	,-0.067172714
	,0.1062802
	,0.055169221
	,0.0047534974
	,-0.029190252
	,0.05571302
	,-0.045307297
	,0.052920721
	,0.051330164
	,0.045895226
	,-0.032025144
	,0.15627278
	,0.072208114
	,-0.023034049
	,-0.065116115
	,0.077032611
	,0.057837375
	,-0.0020790943
	,-0.072889619
	,0.11918931
	,0.031716511
	,-0.003950139
	,-0.040312942
	,-0.061803304
	,-0.067945875
	,0.081273675
	,-0.077136107
	,0.029309945
	,-0.024400057
	,-0.011691059
	,-0.015181773
	,0.0031911156
	,-0.0035133827
	,-0.10718383
	,0.019475209
	,-0.13209085
	,0.038971335
	,-0.028018635
	,-0.07034108
	,0.0074571227
	,0.0068271356
	,0.038450606
	,0.089594878
	,0.04601907
	,0.11280052
	,-0.0073510492
	,0.03802656
	,0.085959807
	,0.0039284369
	,-0.034441631
	,0.0641385
	,0.068288632
	,0.037316944
	,-0.010531492
	,0.12977766
	,-0.027577857
	,-0.080294222
	,0.044132032
	,-0.099567592
	,0.1161797
	,0.1492282
	,-0.026062911
	,0.0086496947
	,0.083665468
	,0.044627611
	,0.10594181
	,0.0986057
	,-0.040109597
	,-0.011579243
	,-0.036942285
	,0.095368892
	,-0.07865189
	,0.012470471
	,-0.054925811
	,0.04079837
	,-0.050374769
	,-0.0936069
	,-3.8558908e-05
	,0.0068855751
	,0.048708819
	,0.0355852
	,0.021464853
	,0.0032432447
	,-0.020387426
	,0.033979904
	,-0.053465277
	,-0.0038341219
	,-0.031309865
	,-0.033541936
	,0.054983377
	,0.05826062
	,-0.049418572
	,-0.0088146245
	,-0.031817734
	,0.027506208
	,0.061237793
	,-0.040359791
	,0.052226849
	,-0.067220695
	,0.0015838346
	,-0.0032426512
	,0.085047215
	,0.025134223
	,0.0312508
	,-0.040019438
	,-0.026956871
	,0.047539108
	,-0.076086305
	,0.00079163222
	,-0.023567777
	,0.036405828
	,-0.046827704
	,0.03115022
	,-0.034963328
	,-0.029765889
	,-0.021188624
	,0.056115203
	,0.066957295
	,-0.046212867
	,0.025115408
	,-0.028991634
	,0.016363323
	,-0.069235958
	,-0.013871252
	,0.057640396
	,0.010338934
	,-0.0072596078
	,-0.10701941
	,0.043897558
	,0.14736299
	,-0.0075097093
	,0.041900504
	,0.0093187829
	,-0.07995984
	,-0.023732871
	,0.026391353
	,-0.0008138289
	,0.022956317
	,0.031051969
	,-0.053913228
	,-0.047365852
	,-0.099931195
	,0.01688089
	,-0.034828909
	,-0.014227536
	,0.024580671
	,0.064221218
	,-0.030410251
	,0.051923048
	,0.036782239
	,-0.025667796
	,-0.0536391
	,0.086549237
	,-0.052763462
	,0.0034707265
	,-0.027864143
	,0.09623763
	,0.030285969
	,0.035424873
	,0.0040047821
	,-0.046771955
	,0.00093416753
	,0.05983777
	,0.024510195
	,0.002691885
	,-0.1028374
	,0.041786775
	,-0.093172565
	,-0.018890653
	,-0.0410816
	,0.075833663
	,0.0037067106
	,-0.015914062
	,0.060050298
	,0.068288289
	,0.0038295093
	,-0.018475831
	,0.022959024
	,0.022825025
	,-0.061938677
	,-0.051294655
	,0.091191538
	,-0.10244803
	,-0.094375305
	,0.023480373
	,-0.0853385
	,-0.0039970996
	,-0.0075660567
	,-0.0062329913
	,0.047445744
	,0.01420898
	,0.13298312
	,0.058906317
	,-0.073282719
	,0.082177609
	,0.017812964
	,0.0838145
	,-0.030667614
	,0.0020891973
	,-0.059500627
	,0.041853458
	,-0.043972112
	,0.036296036
	,0.044775784
	,-0.062348407
	,-0.06067656
	,-0.043061674
	,0.069590762
	,-0.11608863
	,0.058421936
	,-0.023186574
	,-0.014025757
	,-0.14114575
	,-0.12630619
	,0.079950325
	,0.016480595
	,-0.056694321
	,0.0045609749
	,0.059440307
	,-0.053281177
	,0.07366278
	,0.046589471
	,0.0069762287
	,0.14438598
	,-0.056023352
	,-0.063079916
	,0.02232188
	,0.018724741
	,0.0036127961
	,-0.054573715
	,-0.089766316
	,0.043258116
	,-0.03278219
	,0.050527487
	,-0.033597432
	,0.011215642
	,-0.052693367
	,-0.06150971
	,-0.020419214
	,-0.0749527
	,-0.062543094
	,0.05163458
	,-0.0585867
	,0.099378221
	,0.033118464
	,0.00082471315
	,0.020946078
	,0.090942241
	,0.0012462103
	,0.03855323
	,-0.09334714
	,0.017932028
	,0.064071417
	,0.10229704
	,0.12029782
	,0.0022525692
	,0.11226118
	,-0.0093196388
	,0.015847607
	,0.010169285
	,-0.12284596
	,0.059911154
	,0.075310782
	,-0.15773784
	,0.14040786
	,0.046910483
	,0.043930572
	,-0.029601522
	,0.015263199
	,0.10088874
	,0.028552238
	,-0.08833921
	,-0.092008613
	,-0.015890563
	,0.062013209
	,-0.016984269
	,-0.024586968
	,-0.096401259
	,0.07813938
	,-0.076961122
	,0.1269609
	,-0.064585105
	,0.052324709
	,-0.031222038
	,-0.01223038
	,0.11234424
	,-0.043415669
	,0.078111157
	,-0.0041615879
	,0.0279492
	,0.15084936
	,-0.016487898
	,-0.057416122
	,0.094107
	,0.16082658
	,-0.16598983
	,-0.0388061
	,-0.079946704
	,-0.11347926
	,-0.12240463
	,-0.077509344
	,0.0098769218
	,-0.063040927
	,0.024397409
	,-0.0074912105
	,0.0026039653
	,0.055142559
	,-0.11729453
	,-0.035831425
	,0.083199993
	,-0.045919649
	,0.068676151
	,-0.015078493
	,-0.040203322
	,-0.062508442
	,-0.028865971
	,0.1240027
	,0.063242957
	,-0.067585178
	,-0.17660594
	,-0.15311581
	,-0.021811897
	,-0.081436671
	,-0.043177426
	,-0.046783566
	,-0.0087364614
	,0.016681777
	,0.13358681
	,0.059140932
	,0.0742169
	,0.099744588
	,0.14838296
	,-0.0317801
	,-0.034077596
	,0.047540892
	,-0.04128065
	,0.021896191
	,0.081393257
	,0.078616679
	,-0.028451441
	,-0.026266269
	,-0.10310985
	,0.078499928
	,0.015878029
	,0.0073116156
	,-0.10323102
	,-0.081072018
	,-0.073794827
	,-0.016773969
	,-0.094379336
	,-0.0875541
	,-0.0010930166
	,-0.04564951
	,0.00017325119
	,0.029543074
	,-0.094737582
	,-0.050818443
	,0.20671524
	,-0.0073189964
	,0.078236058
	,-0.071845129
	,0.044928525
	,-0.022267871
	,0.093585387
	,0.01808564
	,0.074719459
	,0.04782781
	,0.013152635
	,0.0080997152
	,0.052260268
	,0.050067455
	,-0.047812968
	,0.10531431
	,-0.060510017
	,0.1286575
	,0.0059738425
	,0.037510384
	,0.025854779
	,0.062258475
	,0.046747189
	,0.10957501
	,-0.067426153
	,0.017331131
	,0.018199887
	,0.064760692
	,0.060182273
	,-0.085946135
	,-0.11520041
	,-0.09093672
	,-0.038501341
	,0.0088992454
	,-0.13161993
	,-0.098027095
	,0.11971712
	,0.0045838994
	,-0.0053106435
	,0.057157755
	,0.071047068
	,0.0095571131
	,0.082117639
	,-0.10217036
	,0.11834341
	,0.058418982
	,0.051567189
	,0.018829014
	,0.13892213
	,-0.031124704
	,-0.17027533
	,-0.077956423
	,0.034700345
	,-0.096391469
	,-0.048393469
	,0.003732803
	,-0.010682954
	,0.068607472
	,-0.010762493
	,0.071438022
	,0.0047580339
	,-0.032503013
	,-0.0087550655
	,-0.096528709
	,-0.029668646
	,-0.048042979
	,0.047290873
	,0.1234365
	,-0.033320855
	,-0.00519398
	,-0.062890045
	,-0.036868155
	,0.13197856
	,-0.057649817
	,-0.0065817833
	,-0.085455425
	,-0.048196644
	,-0.043510772
	,0.032055564
	,0.078392573
	,0.076599784
	,-0.071075685
	,-0.0027178451
	,0.0056374967
	,0.13125089
	,0.029481065
	,0.035997331
	,-0.0017749488
	,-0.065191224
	,0.057586074
	,-0.12255698
	,0.032221314
	,-0.072326958
	,-0.097255923
	,0.090439558
	,0.023691764
	,-0.032376379
	,0.017159868
	,-0.08088202
	,-0.025000956
	,-0.15363309
	,0.072736651
	,0.031985249
	,-0.015642824
	,-0.069144346
	,-0.050699223
	,0.075684339
	,0.062461607
	,-0.025168777
	,-0.0041351644
	,0.028473167
	,0.023281924
	,-0.018898778
	,0.054862961
	,0.13442872
	,-0.04701589
	,-0.18217014
	,-0.034358177
	,-0.1076537
	,-0.13298802
	,0.00490261
	,-0.10990771
	,0.084715068
	,0.12250283
	,0.13342541
	,0.042436156
	,0.028621526
	,0.034785818
	,-0.1260567
	,0.090020165
	,-0.099230565
	,-0.089831017
	,0.15615526
	,0.076265261
	,0.032361403
	,0.030272178
	,-0.00809873
	,0.066019483
	,0.030695682
	,0.094788946
	,0.036283292
	,0.0830293
	,-0.11373536
	,0.11539559
	,0.052319173
	,-0.0060481085
	,0.10425569
	,-0.040654246
	,-0.038765945
	,-0.054313339
	,0.095922709
	,-0.024543697
	,-0.12196066
	,0.018495651
	,-0.13900587
	,-0.1481929
	,-0.039534815
	,0.04031327
	,0.095213331
	,-0.028473662
	,0.12423188
	,-0.18973857
	,-0.10599817
	,0.14194965
	,-0.030034836
	,-0.08613161
	,0.0401964
	,0.038067739
	,-0.026967483
	,-0.048375495
	,0.0072074276
	,0.093905784
	,0.14073001
	,0.038365435
	,0.043886371
	,0.025926381
	,-0.00864089
	,0.071985766
	,-0.1340294
	,0.088312022
	,-0.052113146
	,-0.11604514
	,-0.086944647
	,-0.01998934
	,-0.049774632
	,0.056368131
	,0.048818413
	,0.13625899
	,0.15257862
	,-0.072272144
	,0.0017236378
	,-0.051509835
	,-0.0025730475
	,0.08582978
	,0.0019477758
	,0.075189687
	,0.014634196
	,-0.00086536491
	,0.021419067
	,0.03509254
	,-0.053833678
	,0.047028035
	,0.028079845
	,0.0029381635
	,0.042490695
	,0.040879723
	,0.076582812
	,0.022609737
	,-0.012260375
	,-0.064310759
	,-0.057052083
	,-0.025495905
	,0.052020561
	,-0.10235567
	,0.0057545938
	,-0.14549397
	,-0.13706884
	,0.0693872
	,0.047358431
	,0.025300764
	,-0.064977542
	,-0.026753008
	,0.1882544
	,0.031422492
	,-0.062366113
	,0.024707828
	,0.051860742
	,-0.010793562
	,0.10947229
	,0.13635503
	,0.036181256
	,-0.00021601665
	,-0.042738661
	,-0.071399063
	,-0.043902673
	,0.00061211258
	,-0.013123292
	,0.036587611
	,-0.15938069
	,0.017294338
	,0.074959412
	,-0.023326317
	,0.019085018
	,-0.099869184
	,0.050080452
	,0.073962517
	,-0.095493026
	,0.073039822
	,-0.0092815766
	,-0.078164324
	,-0.077598736
	,-0.028715689
	,-0.042096768
	,-0.040976129
	,0.14877073
	,-0.10617339
	,-0.0589291
	,0.086073749
	,-0.16305441
	,-0.149257
	,-0.1403942
	,-0.041849993
	,-0.001618035
	,-0.03278058
	,-0.049462471
	,-0.059983727
	,0.082185395
	,-0.059002064
	,0.022527141
	,-0.041042674
	,-0.018564951
	,-0.066130176
	,0.11096933
	,0.012353706
	,0.13527177
	,0.0024276429
	,0.081764117
	,0.029035848
	,-0.018940866
	,-0.02154186
	,-0.0089945933
	,-0.10167356
	,0.034580983
	,-0.021746425
	,-0.10167114
	,0.066434227
	,-0.028017385
	,0.077677064
	,0.0096855955
	,0.086268187
	,0.030016739
	,0.054556306
	,-0.00086900673
	,-0.057033759
	,0.0082701873
	,0.033078443
	,0.14553651
	,-0.025783859
	,-0.058621235
	,-0.06595619
	,0.027681544
	,0.15731084
	,-0.028418805
	,0.16209328
	,0.011986987
	,-0.049509898
	,-0.018431654
	,0.02934609
	,-0.057591304
	,0.055193137
	,0.020876354
	,0.081149146
	,-0.055264857
	,0.09219069
	,-0.055142403
	,-0.040983394
	,-0.12911524
	,0.076328263
	,-0.046198189
	,-0.064441055
	,-0.099558763
	,0.0643314
	,-0.097210057
	,0.025542738
	,0.095964551
	,0.058047868
	,-0.077168994
	,0.11304945
	,-0.1101165
	,-0.056038313
	,-0.033267062
	,0.19793238
	,0.051460057
	,0.026310893
	,-0.0070508765
	,0.085926682
	,0.000989418
	,-0.10435889
	,-0.044571169
	,-0.048575789
	,0.0082076313
	,0.014582996
	,0.04539061
	,0.14232424
	,0.0016252398
	,0.14946361
	,0.069949239
	,-0.056116074
	,0.17910954
	,-0.12389161
	,-0.083770782
	,0.024013482
	,0.044302411
	,-0.038818859
	,0.072259754
	,0.06944228
	,0.090271458
	,0.015579698
	,-0.068033293
	,0.01135261
	,-0.088821992
	,0.048843924
	,-0.10666496
	,0.0073517826
	,0.052492
	,-0.065807045
	,-0.067409195
	,0.043059066
	,0.020304227
	,-0.075683527
	,-0.04244677
	,-0.12382663
	,0.016468951
	,0.097292565
	,-0.053722922
	,-0.067526542
	,0.019131307
	,0.029859213
	,-0.016412066
	,-0.0010139477
	,0.035241388
	,-0.0078304689
	,-0.045669902
	,-0.079359762
	,0.062245838
	,0.1024335
	,0.037579741
	,-0.029554257
	,0.11128375
	,0.013631045
	,0.013477416
	,-0.095765732
	,0.066745907
	,0.089787357
	,-0.05674522
	,0.018104399
	,-0.10908833
	,-0.019465473
	,0.0089894207
	,0.030516898
	,-0.090949185
	,0.050484262
	,-0.14068088
	,0.08263918
	,0.010090068
	,0.046628904
	,0.062372662
	,-0.034219556
	,-0.080588043
	,-0.0071705556
	,-0.00063782593
	,-0.077843547
	,-0.0028706861
	,-0.016896393
	,-0.10207272
	,-0.0321124
	,0.032151219
	,-0.0483815
	,0.011721391
	,0.12962867
	,-0.075378433
	,0.09117125
	,0.062408436
	,-0.095332496
	,0.000728483
	,-0.0035348195
	,-0.054155126
	,0.10815559
	,-0.010366198
	,0.17059912
	,0.059258819
	,0.0050450647
	,0.056369431
	,-0.10318493
	,0.010409194
	,0.066554442
	,0.011511566
	,-0.052677523
	,-0.20051564
	,0.019259632
	,-0.053445369
	,0.0720679
	,0.18323395
	,0.092465848
	,0.090095058
	,-0.082248107
	,0.079866
	,0.149799
	,0.019093381
	,-0.099870116
	,0.029801887
	,-0.01683658
	,-0.10504185
	,0.12182824
	,-0.09312088
	,0.06970384
	,-0.12043152
	,-0.1020764
	,0.13692628
	,0.0082902992
	,-0.16926406
	,0.031947184
	,-0.010788226
	,-0.060203053
	,-0.016103925
	,0.039166972
	,-0.03469209
	,0.043666817
	,0.003068601
	,-0.071773894
	,0.07507012
	,-0.010999508
	,0.05973139
	,-0.048251476
	,-0.14288065
	,0.21710977
	,0.019937279
	,0.088553913
	,-0.043579776
	,-0.029658271
	,0.21890725
	,-0.067016535
	,0.12504146
	,0.018801944
	,-0.11316331
	,-0.095103934
	,-0.030192224
	,-0.11369156
	,0.040107518
	,-0.012074432
	,-0.086555704
	,-6.1882224e-06
	,-0.025731862
	,0.042909134
	,0.052510783
	,-0.058484044
	,-0.042908322
	,0.035672389
	,-0.021873219
	,-0.016181391
	,-0.019168882
	,-0.00741785
	,0.15997294
	,0.019782396
	,-0.14472768
	,0.0068610976
	,-0.12788092
	,-0.014528356
	,0.0041624135
	,0.011573886
	,-0.07720957
	,0.10857883
	,-0.069883369
	,0.10031375
	,0.066816978
	,-0.019184465
	,-0.034476511
	,-0.023870664
	,-0.03559215
	,-0.049539976
	,0.019548075
	,0.078614153
	,0.13313209
	,0.045647956
	,0.1560726
	,-0.078382067
	,-0.039485525
	,0.23388988
	,0.050493371
	,0.049938556
	,-0.058863342
	,0.0030927914
	,0.095213674
	,-0.090295337
	,0.10811993
	,-0.066823691
	,0.080776
	,0.0026062126
	,0.020376181
	,0.06607268
	,0.020789126
	,0.12094728
	,-0.0919261
	,-0.01190928
	,0.032761835
	,0.092919409
	,-0.030120341
	,0.099399976
	,-0.046115957
	,0.0061663976
	,-0.060045712
	,0.051787227
	,0.00882559
	,0.046318073
	,-0.055748131
	,-0.0022302798
	,-0.038967177
	,-0.043916266
	,-0.061347816
	,0.026524376
	,-0.020976849
	,-0.094422936
	,-0.032018691
	,0.10762748
	,-0.15668915
	,0.046863798
	,0.019548535
	,0.011032688
	,0.023278048
	,0.036206555
	,-0.11389829
	,0.02689342
	,-0.086166725
	,-0.050711278
	,-0.021725997
	,-0.065544046
	,-0.10563665
	,-0.034000866
	,0.023231676
	,0.026305506
	,0.0366478
	,0.020667059
	,0.0057321033
	,0.15672359
	,-0.024955584
	,0.060729273
	,-0.022731096
	,0.050974716
	,0.032383028
	,0.021341784
	,-0.045575947
	,-0.0532347
	,0.1646015
	,-0.06521409
	,-0.099214695
	,-0.052108403
	,-0.034160282
	,-0.088285416
	,-0.049372878
	,0.11100984
	,0.021169137
	,-0.17339356
	,0.027666211
	,0.14946339
	,-0.087852664
	,0.086086646
	,-0.03378446
	,0.0502821
	,0.094018593
	,-0.00991522
	,-0.10050248
	,-0.079196587
	,-0.047250316
	,-0.10464857
	,0.070950054
	,-0.064393796
	,0.091060534
	,-0.026777782
	,0.049058352
	,-0.0024495733
	,0.018853499
	,0.047934432
	,-0.036828842
	,0.016121866
	,-0.027597709
	,-0.084198721
	,-0.0096736392
	,-0.048293311
	,-0.067275405
	,-0.029880427
	,0.1535117
	,0.0016604346
	,-0.049698483
	,-0.047148444
	,-0.082306258
	,-0.075331531
	,0.11580785
	,0.095318995
	,0.062026851
	,-0.021451304
	,0.035596661
	,0.023210369
	,0.0014227694
	,0.0071995044
	,0.10352808
	,0.051727064
	,-0.04443308
	,-0.034412306
	,-0.058069009
	,0.0061372821
	,0.0709905
	,0.057026602
	,-0.018506778
	,-0.0080814185
	,-0.10091843
	,0.051554997
	,0.020557322
	,0.05989036
	,-0.12427918
	,-0.090791
	,-0.064611442
	,-0.0048917774
	,-0.073161714
	,-0.16560644
	,-0.045085188
	,0.017711427
	,-0.0465207
	,-0.13081396
	,0.005944761
	,0.024185862
	,-0.076712355
	,0.063576341
	,0.0710827
	,-0.067833893
	,-0.13484642
	,-0.091674305
	,0.004537506
	,-0.039953887
	,0.011853986
	,-0.12360875
	,0.053090829
	,0.092180014
	,-0.039348084
	,-0.00568688
	,-0.15564495
	,-0.00029318
	,0.029934926
	,-0.031341638
	,-0.12093534
	,0.13647638
	,-0.085838392
	,0.10087932
	,0.10234614
	,0.025264403
	,0.0060445126
	,-0.097198583
	,0.003997046
	,-0.037227489
	,-0.0047547752
	,0.015272947
	,0.028272418
	,0.015112696
	,0.087182172
	,-0.05522785
	,0.0706453
	,0.050139822
	,-0.11291031
	,0.051766276
	,0.005301821
	,0.053336725
	,-0.046439778
	,0.0086101564
	,0.04737328
	,-0.13552028
	,0.047571544
	,-0.031846404
	,-0.094248161
	,-0.046478774
	,0.041650314
	,0.073818944
	,-0.083300151
	,0.017182568
	,0.058618225
	,-0.053801842
	,0.017498393
	,0.082033865
	,0.043243434
	,0.099974051
	,0.084813058
	,0.035760317
	,-0.031730089
	,-0.019804006
	,-0.094850339
	,0.047378872
	,-0.154066
	,-0.046240807
	,0.019359117
	,-0.057448693
	,0.055406217
	,-0.01884531
	,0.054480974
	,0.0041108085
	,-0.11866807
	,-0.0082685184
	,0.010881619
	,0.046106368
	,0.048523765
	,-0.03076715
	,0.1091868
	,-0.1495804
	,0.057626616
	,-0.059455644
	,-0.043377627
	,0.0031204929
	,0.013480927
	,0.045126192
	,-0.042990368
	,0.12000297
	,0.065648511
	,0.026981458
	,-0.10641835
	,0.032382108
	,0.10063779
	,0.12801921
	,0.0054640183
	,-0.056086607
	,-0.046067629
	,-0.0035647482
	,0.015781449
	,-0.033191375
	,-0.096148707
	,-0.047045276
	,-0.037803411
	,-0.082649112
	,-0.018997641
	,0.0075688744
	,0.054325249
	,0.010475827
	,0.038475029
	,0.0093096644
	,0.015643351
	,0.013038558
	,-0.030659493
	,-0.097904123
	,0.14354926
	,-0.019818824
	,0.007422823
	,-0.13143504
	,0.019877555
	,-0.068046212
	,0.040760018
	,0.031391945
	,-0.049423672
	,-0.04727551
	,-0.03662312
	,0.087589309
	,0.037283037
	,0.001620166
	,0.060978718
	,-0.11987413
	,0.10604217
	,0.04712449
	,0.05527167
	,-0.01304122
	,-0.009018749
	,-0.033393346
	,-0.061100446
	,-0.033315673
	,0.17662299
	,-0.021976884
	,0.11202742
	,0.055543117
	,-0.058066245
	,-0.0440315
	,-0.047019843
	,0.013073603
	,-0.11435836
	,0.0062715728
	,-0.070868813
	,0.092098616
	,-0.1608988
	,-0.070093125
	,-0.097637057
	,0.02589949
	,-0.099655062
	,-0.055326831
	,0.14150856
	,-0.094405562
	,0.083716922
	,0.096550226
	,0.10549507
	,0.00945037
	,-0.043066643
	,0.062597342
	,-0.035122335
	,-0.10823223
	,0.17423652
	,0.042686336
	,-0.023476647
	,0.080531605
	,-0.073833533
	,-0.050538935
	,0.049700495
	,0.14484896
	,0.024047706
	,0.045284774
	,-0.0470732
	,-0.023781212
	,-0.036972415
	,-0.11372869
	,0.047856055
	,-0.060924031
	,0.13845584
	,-0.0018388641
	,-0.12993968
	,-0.062526233
	,-0.0823779
	,0.02638937
	,0.17794839
	,-0.1038218
	,0.040604532
	,-0.033732351
	,-0.083848506
	,0.064359657
	,-0.048509661
	,0.11067662
	,0.0994278
	,0.069068432
	,0.028690806
	,-0.036822353
	,0.032494657
	,-0.0006050432
	,0.067894518
	,0.12108844
	,-0.088644817
	,0.037707485
	,0.012124463
	,0.064101614
	,-0.061644718
	,0.057769783
	,0.14061706
	,-0.12266739
	,-0.075507611
	,-0.01514592
	,0.038009927
	,0.038514629
	,-0.043196075
	,-0.077415958
	,-0.0050272127
	,-0.08802592
	,-0.010262496
	,-0.040231742
	,0.084123582
	,0.11857422
	,-0.050891347
	,-0.0032799724
	,0.084160373
	,-0.057427868
	,0.023613757
	,0.020204378
	,0.17746244
	,0.0057224836
	,-0.048352256
	,0.030912012
	,-0.129807
	,-0.13145626
	,0.012835455
	,0.070873521
	,-0.017621314
	,-0.046818551
	,0.045595691
	,0.14425166
	,-0.0085516069
	,-0.024684638
	,-0.019587997
	,0.088335715
	,0.069449715
	,0.14356041
	,0.11795131
	,0.010038398
	,-0.06041716
	,-0.013720234
	,-0.01456532
	,0.04822965
	,-0.038106687
	,-0.089084484
	,-0.089802526
	,-0.059841502
	,0.088854447
	,-0.073981531
	,0.0030003979
	,-0.029901043
	,-0.079197071
	,0.0060174204
	,-0.055903073
	,-0.080178887
	,-0.07458365
	,-0.037207291
	,0.18414307
	,-0.045601562
	,0.03598303
	,0.037829496
	,-0.096691258
	,0.0047779358
	,-0.046189651
	,-0.095420316
	,-0.072537974
	,-0.084518738
	,-0.067074694
	,0.041935686
	,-0.035658747
	,0.092063345
	,0.13327095
	,-0.04707152
	,0.046840228
	,-0.16736521
	,0.021717319
	,-0.037540767
	,0.0263312
	,-0.017055292
	,-0.05125488
	,0.0049023037
	,0.081807487
	,-0.081770763
	,-0.054632302
	,0.040172469
	,0.015818007
	,-0.054335151
	,0.038074594
	,0.069501087
	,-0.1122322
	,0.0207803
	,0.071269639
	,-0.24708602
	,-0.080452591
	,0.010446701
	,0.071587428
	,-0.026795425
	,0.040031489
	,-0.021643214
	,-0.029843369
	,0.14488561
	,0.078911521
	,-0.0036210183
	,0.014057389
	,-0.031468105
	,-0.0054120128
	,0.036034171
	,0.023174593
	,0.12038004
	,-0.042059693
	,0.00584951
	,0.029396927
	,0.051393278
	,0.077791736
	,0.07258106
	,-0.034436822
	,0.038571108
	,0.016021302
	,0.091735475
	,0.068986222
	,-0.029339336
	,0.014712433
	,0.018969845
	,-0.14077856
	,0.029328104
	,-0.056487665
	,-0.09219227
	,0.028527958
	,0.019713836
	,0.081213482
	,-0.0434148
	,-0.084734686
	,-0.029317833
	,-0.045826133
	,0.13182114
	,-0.10142665
	,0.024899889
	,0.071438976
	,-0.034908436
	,-0.086289518
	,-0.011179546
	,-0.12905414
	,-0.019634619
	,-0.11988007
	,0.15784217
	,-0.028550146
	,-0.074751653
	,0.040705178
	,-0.020236328
	,0.076041296
	,-0.045909561
	,-0.11104026
	,-0.071072184
	,0.0087001836
	,0.081213355
	,-0.093480729
	,0.055724479
	,-0.076773345
	,0.092937611
	,-0.13495302
	,0.027156008
	,0.022282621
	,0.05063745
	,-0.11719562
	,-0.064131178
	,-0.0056495611
	,0.091522522
	,0.01015987
	,0.032860842
	,0.018884441
	,0.031626478
	,-0.037768662
	,0.044651207
	,-0.04488685
	,-0.055513181
	,-0.028487934
	,-0.0094904667
	,0.044044558
	,-0.031730473
	,0.032388061
	,-0.0062831752
	,-0.00092898757
	,-0.014026766
	,0.087444536
	,0.0041147885
	,-0.085993432
	,0.0018027435
	,-0.056312513
	,-0.045983061
	,-0.053339995
	,0.012474762
	,-0.054443121
	,0.086499035
	,0.048254259
	,0.058862817
	,0.097660907
	,0.067739114
	,-0.059111305
	,0.10566759
	,0.046534304
	,-0.119628
	,-0.067050479
	,-0.0820328
	,0.10596883
	,-0.063671432
	,0.032297123
	,-0.0076239388
	,-0.0066931136
	,0.045917965
	,0.0731825
	,-0.0544165
	,0.027155284
	,0.13089971
	,-0.09552563
	,-0.043977417
	,-0.008383655
	,0.090638675
	,0.085625261
	,-0.002938957
	,-0.032838687
	,0.13068622
	,-0.038894691
	,-0.1476119
	,0.064873241
	,-0.078054264
	,0.051523786
	,0.0032343045
	,-0.11293108
	,0.021907361
	,0.015166298
	,0.042504907
	,-0.1328468
	,0.19896173
	,-0.063764334
	,0.073043086
	,0.092878349
	,0.033134293
	,-0.0014147124
	,0.096088506
	,0.1488377
	,-0.10896822
	,-0.044108756
	,-0.052462555
	,-0.12689286
	,0.061810389
	,-0.0532426
	,-0.04845484
	,0.076193489
	,-0.070980154
	,-0.13172832
	,-0.086299196
	,0.03844773
	,0.083564542
	,0.024120171
	,0.056839775
	,-0.10228781
	,0.13738206
	,0.0071985759
	,-0.0473524
	,0.037883759
	,-0.061010845
	,-0.0010592546
	,-0.063533381
	,-0.048375726
	,-0.018249204
	,-0.12608337
	,0.016242838
	,-0.084786385
	,0.044873942
	,-0.086311728
	,-0.12341191
	,0.0479474
	,0.0089182118
	,0.060914133
	,-0.051762518
	,-0.040387731
	,-0.028696038
	,0.10609303
	,0.062412936
	,-0.03351184
	,0.0030863811
	,0.0621278
	,0.058742914
	,0.038561445
	,0.0074364445
	,0.068645529
	,0.10540266
	,0.030067649
	,-0.020861352
	,0.043967783
	,0.06427376
	,-0.084217288
	,0.047930036
	,-0.062356628
	,0.0018920347
	,0.0093344105
	,0.0083850482
	,-0.0020685561
	,0.055632256
	,0.025344072
	,-0.0010246572
	,-0.017446036
	,-0.04757525
	,0.09796644
	,-0.18557122
	,0.0004711267
	,-0.013640991
	,-0.019534057
	,-0.06617552
	,-0.074212648
	,0.13289891
	,-0.060826018
	,-0.07337153
	,-0.044436716
	,-0.046234637
	,0.013627208
	,-0.10256439
	,0.0396167
	,0.16574669
	,-0.042005442
	,-0.12644285
	,0.0098661054
	,-0.00098634069
	,-0.028156757
	,-0.040224236
	,-0.059007589
	,-0.026863692
	,0.057866849
	,-0.084609486
	,-0.0098077375
	,0.031942669
	,0.14199033
	,0.175392
	,-0.067255005
	,0.048272368
	,0.071334265
	,-0.09625341
	,-0.15754896
	,-0.072238006
	,0.088458478
	,-0.060552076
	,-0.059866402
	,-0.016129754
	,0.12235041
	,-0.024716629
	,0.12838571
	,0.045614235
	,-0.12119932
	,0.012650474
	,0.01152839
	,0.069500722
	,0.0736864
	,-0.056336746
	,0.041370668
	,0.032562271
	,0.00037581223
	,-0.018360369
	,0.015098545
	,-0.0060347058
	,-0.067967869
	,-0.11840753
	,0.11464128
	,-0.014660927
	,0.13602525
	,0.096121661
	,0.050150625
	,0.014754692
	,0.003818738
	,0.10128649
	,-0.0632325
	,0.053737056
	,-0.083948389
	,0.10248435
	,-0.089006849
	,0.047695085
	,0.11556574
	,-0.10911844
	,0.07792142
	,0.027706407
	,-0.063516378
	,0.011989107
	,0.014914031
	,-0.0032835114
	,-0.0083104922
	,-0.011110629
	,-0.045540024
	,0.15513973
	,0.0436085
	,-0.044670042
	,-0.058497157
	,-0.050197702
	,-0.035663944
	,0.12837483
	,0.11163837
	,-0.01919983
	,-0.13405292
	,-0.033465467
	,0.13433018
	,0.025484748
	,0.0424729
	,-0.023589132
	,0.028904648
	,-0.0038994562
	,-0.045600224
	,0.0008892662
	,-0.089432262
	,0.036084939
	,0.019830881
	,0.078091823
	,-0.0099703632
	,0.065958835
	,-0.039912704
	,0.10052008
	,0.089307092
	,0.061965656
	,0.19826007
	,-0.0099298228
	,-0.018577017
	,0.1245396
	,0.017627906
	,-0.094568275
	,0.0028903696
	,0.047785617
	,0.045965225
	,0.14354241
	,-0.005306636
	,-0.10671112
	,-0.027667485
	,0.014811238
	,0.035288941
	,-0.13783114
	,0.012082932
	,-0.02509122
	,0.0094509237
	,0.018477311
	,0.010188119
	,-0.088396743
	,-0.029074386
	,-0.14997543
	,-0.075158536
	,-0.025666852
	,-0.023273014
	,-0.04354313
	,-0.053237468
	,0.00687503
	,0.0416249
	,-0.062421404
	,0.0930731
	,-0.14799456
	,0.015716376
	,0.0037722576
	,-0.0066368757
	,0.078718014
	,0.11133302
	,-0.018916281
	,0.0379358
	,0.03397464
	,0.026746621
	,-0.023732251
	,0.037372347
	,0.004661378
	,0.020831892
	,-0.010415801
	,-0.02049337
	,-0.1449476
	,-0.077769272
	,-0.053397425
	,0.15208903
	,0.059003476
	,-8.73192e-05
	,0.054905076
	,-0.044268727
	,0.076054208
	,-0.0047571659
	,-0.021807691
	,-0.010864473
	,0.04268828
	,-0.087389082
	,0.13020548
	,0.067345276
	,0.064879224
	,-0.0083184661
	,0.0054667974
	,0.041998025
	,-0.010710881
	,-0.013605031
	,-0.029450409
	,-0.0068192845
	,0.0661471
	,-0.08603444
	,0.10931482
	,0.026330054
	,-0.12143413
	,-0.1200773
	,-0.034603618
	,0.037333645
	,-0.026921747
	,0.089777395
	,0.031667978
	,-0.057060413
	,-0.080020711
	,-0.028297596
	,-0.0026851087
	,-0.015534525
	,-0.056117933
	,0.022589555
	,-0.044143584
	,-0.0036806422
	,-0.1157747
	,-0.046140529
	,0.0023743103
	,-0.070572391
	,0.07868617
	,0.06083715
	,-0.062342398
	,-0.041353948
	,0.0028717509
	,0.027239664
	,0.072058126
	,-0.049799327
	,-0.014176505
	,-0.075197674
	,0.056804549
	,0.075578436
	,-0.03393342
	,0.20229906
	,-0.073775239
	,-0.010966968
	,0.022646112
	,-0.044579871
	,-0.012790025
	,-0.050297968
	,-0.090424776
	,0.06011096
	,-0.084871218
	,-0.0025395809
	,-0.039439455
	,0.12454716
	,0.047284089
	,-0.013303193
	,-0.19006857
	,0.040517274
	,0.0068559423
	,0.075974658
	,0.067112967
	,-0.11303453
	,-0.072590485
	,-0.069057584
	,0.098145977
	,-0.25180939
	,-0.0913347
	,0.024803683
	,-0.0914103
	,0.092045806
	,0.057283282
	,0.010224289
	,-0.10136792
	,0.0036091316
	,0.03119324
	,0.013087675
	,-0.10358508
	,0.083900072
	,-0.062429316
	,-0.0049222438
	,0.056775689
	,-0.10040644
	,-0.078625634
	,0.17359652
	,0.065497488
	,-0.033563338
	,0.0081332466
	,-0.025748471
	,0.092201941
	,0.044096757
	,0.044570044
	,0.12836884
	,-0.04775108
	,-0.064845577
	,-0.1189921
	,0.10005891
	,0.074685037
	,0.092178658
	,0.05536738
	,0.11441462
	,0.1271269
	,0.054952212
	,-0.021092841
	,0.078293853
	,0.12347572
	,-0.008877161
	,0.023209114
	,-0.018085485
	,0.011872908
	,-0.07462199
	,-0.10405421
	,-0.011856014
	,0.063842714
	,-0.0032247466
	,-0.0064214012
	,-0.13144487
	,-0.049571678
	,-0.15030307
	,-0.049874004
	,0.0072429087
	,0.021641253
	,0.031940881
	,-0.036922734
	,-0.027213497
	,0.041095894
	,-0.032477882
	,-0.050763931
	,0.011231546
	,0.093303166
	,-0.12743032
	,-0.041149437
	,-0.11634762
	,-0.0046013352
	,0.031769544
	,0.16954638
	,0.059271451
	,-0.080253772
	,-0.15150726
	,0.029776247
	,0.082407869
	,0.047762319
	,0.077324666
	,0.10660999
	,0.037343659
	,-0.013223017
	,0.014880822
	,0.1198047
	,-0.047802135
	,0.065767065
	,0.071299024
	,0.054773372
	,0.12730137
	,-0.00075841171
	,0.026853994
	,-0.01168158
	,-0.021629047
	,-0.053157356
	,0.11808819
	,-0.050553337
	,-0.0090457667
	,-0.078679748
	,0.03345672
	,0.0053293514
	,-0.038191885
	,-0.080080971
	,0.094056427
	,-0.081810281
	,-0.052946292
	,0.0078653237
	,0.080228567
	,-0.022285184
	,-0.075802848
	,0.061567839
	,0.076264225
	,-0.060079426
	,-0.014446945
	,-0.013232254
	,0.060567129
	,0.16631448
	,0.058015503
	,0.03195741
	,0.040069155
	,-0.041311506
	,0.031017654
	,0.063639633
	,0.069343388
	,-0.060441617
	,0.044327546
	,-0.10880654
	,0.020481313
	,-0.0044540819
	,0.063402466
	,0.012703213
	,-0.049762215
	,0.0793841
	,0.031239929
	,0.084275492
	,0.00060434162
	,0.052867956
	,0.077562883
	,0.03099299
	,-0.021782927
	,-0.015478733
	,0.054617207
	,0.03967341
	,0.043175824
	,0.030412851
	,0.035465345
	,-0.04680961
	,-0.09727817
	,0.016587572
	,-0.019382294
	,0.0351213
	,-0.0047055907
	,0.051161047
	,0.056161448
	,0.0058015226
	,0.10632059
	,0.082834795
	,-0.016096829
	,0.1632587
	,0.026337923
	,0.094509743
	,-0.073290251
	,-0.019244926
	,-0.042829156
	,-0.096460328
	,-0.007142215
	,-0.093195893
	,-0.019307889
	,0.015489995
	,-0.13688512
	,-0.033317789
	,0.099091008
	,0.011667559
	,-0.0664363
	,-0.048550654
	,0.034952812
	,-0.0011525255
	,0.00023447644
	,0.066316947
	,0.034420505
	,0.020846464
	,0.10090844
	,-0.060355198
	,0.062273592
	,0.064168595
	,0.15672734
	,0.060047563
	,0.048391826
	,-0.013117459
	,-0.054464467
	,-0.056516439
	,-0.018765885
	,0.0071734474
	,0.021577885
	,0.15559806
	,-0.030678641
	,0.018598132
	,-0.035444722
	,0.091923892
	,-0.063554309
	,-0.040733229
	,0.12028955
	,0.028573439
	,-0.046442397
	,-0.048356961
	,-0.13369334
	,-0.051101513
	,0.059195306
	,-0.01749151
	,0.083632238
	,-0.13520446
	,-0.042011071
	,0.081248313
	,0.095991939
	,-0.087316707
	,0.0988319
	,-0.052165385
	,-0.07782352
	,-0.0020568925
	,-0.055219278
	,0.015161852
	,0.074664474
	,0.025298342
	,0.083726272
	,0.0249649
	,0.060182102
	,0.023460759
	,-0.018642286
	,0.085577108
	,0.065534212
	,-0.066929869
	,-0.087666385
	,-0.011134037
	,0.028383078
	,-0.056667026
	,-0.0732368
	,-0.11884291
	,0.0029574339
	,0.12572339
	,0.079042517
	,0.063736729
	,0.053285975
	,0.068661004
	,0.026755203
	,0.044115167
	,0.01332307
	,0.00052368263
	,0.038628783
	,-0.017734351
	,-0.052116014
	,-0.04970644
	,0.023806324
	,-0.018305976
	,0.035381336
	,-0.034586579
	,0.035639741
	,0.12097215
	,-0.10393495
	,-0.046476427
	,0.037406974
	,0.081077449
	,-0.00017041242
	,0.0096457675
	,-0.13495171
	,-0.049097463
	,0.016404349
	,0.080573149
	,0.1220106
	,-0.078125775
	,0.086100429
	,-0.036384538
	,0.023483779
	,-0.044602007
	,0.1076216
	,-0.011959718
	,0.021077093
	,0.25208205
	,-0.15026295
	,-0.026556723
	,0.012752472
	,0.038258836
	,-0.096878253
	,-0.078742534
	,0.0570477
	,0.059631735
	,0.0013996921
	,0.10130748
	,0.042895753
	,0.014563654
	,0.0886182
	,-0.020706797
	,0.03823559
	,0.0087704659
	,0.018474637
	,-0.14610742
	,-0.0092859
	,-0.062462751
	,-0.08677341
	,-0.04642291
	,-0.0015522968
	,-0.025835704
	,0.080015451
	,-0.033524159
	,-0.06636472
	,-0.042424452
	,-0.092664838
	,0.061402541
	,0.07264147
	,0.0043865019
	,0.043185208
	,-0.09439721
	,0.090792887
	,-0.0033008938
	,-0.13693911
	,0.16241692
	,-0.020648493
	,-0.010288285
	,0.091990069
	,0.0071377978
	,-0.086118892
	,0.09497913
	,-0.066858828
	,0.0017014946
	,0.10667288
	,-0.060942996
	,0.029078206
	,0.049670655
	,-0.020799339
	,-0.015295043
	,-0.041068293
	,0.042525813
	,0.0045271968
	,-0.10261152
	,0.12556906
	,0.024852023
	,-0.1109262
	,0.090692669
	,-0.024160326
	,-0.051027939
	,0.0099664638
	,-0.11136497
	,-0.013024285
	,0.0061968393
	,0.078302868
	,0.065767184
	,0.10458589
	,-0.095165752
	,-0.023247518
	,0.00037405529
	,0.034622613
	,0.10082792
	,-0.10587635
	,0.022438291
	,0.0073470469
	,0.043509126
	,0.0097859465
	,-0.016184986
	,0.25562415
	,-0.034280229
	,0.081710458
	,-0.15936869
	,0.044751555
	,-0.080871247
	,-0.043479804
	,-0.24762771
	,-0.02165992
	,-0.044867933
	,-0.032572243
	,-0.038138729
	,-0.034307372
	,-0.091026567
	,-0.0083083883
	,-0.11969838
	,0.052845944
	,-0.20340042
	,-0.0054837717
	,0.059696604
	,-0.063946344
	,0.018238468
	,0.10116789
	,-0.0749075
	,0.13539088
	,0.016216775
	,-0.024935728
	,-0.1497585
	,-0.060483582
	,-0.03408128
	,0.014950377
	,-0.050469562
	,0.05200908
	,-0.017243518
	,-0.086159468
	,0.11049482
	,0.1642281
	,-0.030833647
	,0.10862752
	,0.033725493
	,0.052417226
	,-0.064894728
	,0.14386682
	,0.11189041
	,-0.063029684
	,0.10212863
	,-0.075112738
	,-0.19062568
	,0.043544222
	,-0.004273362
	,-0.020043438
	,0.046088073
	,-0.036314804
	,-0.12414892
	,-0.047729913
	,0.024903262
	,0.047042087
	,-0.010523019
	,0.026302835
	,-0.20739114
	,0.011718593
	,0.0019431063
	,0.037522722
	,-0.0061491812
	,0.11293752
	,0.045080815
	,0.0055956133
	,0.11365196
	,-0.077184305
	,0.051581778
	,0.13698383
	,0.019618852
	,-0.039253216
	,-0.014422481
	,-0.051532816
	,-0.15616582
	,-0.064841732
	,0.088187985
	,-0.0093977461
	,0.017286602
	,0.082744174
	,0.0979487
	,0.093251377
	,-0.051189195
	,0.073188439
	,0.063046917
	,0.03137612
	,-0.041484527
	,-0.094507813
	,-0.035355862
	,0.024474114
	,-0.039684359
	,0.038149651
	,-0.021449972
	,0.0028164091
	,-0.050009277
	,-0.039250515
	,0.0728314
	,0.0767035
	,-0.02417193
	,-0.089183
	,0.0090566529
	,0.088595763
	,0.064506881
	,0.044761371
	,-0.0021117898
	,-0.1044694
	,0.072557732
	,0.10554682
	,-0.022966694
	,0.04195739
	,0.020254618
	,-0.10087776
	,0.13911404
	,0.029915521
	,0.056521382
	,-0.058649261
	,-0.012363226
	,-0.043693241
	,-0.0069780732
	,0.051304512
	,-0.062546
	,0.050906308
	,0.020507028
	,-0.143474
	,-0.11018238
	,-0.01737095
	,0.0044164741
	,0.0069659394
	,0.047690228
	,0.12572227
	,0.024965925
	,-0.048183691
	,0.026816765
	,-0.11957347
	,-0.032198973
	,0.0841399
	,-0.12963897
	,-0.096130006
	,0.12106405
	,0.014276124
	,0.0025784692
	,0.073604807
	,0.031327795
	,0.041178238
	,-0.0905371
	,-0.063331485
	,-0.026852038
	,-0.056576889
	,-0.005955352
	,0.0086210854
	,0.044313282
	,-0.053103596
	,0.03057868
	,0.10450649
	,-0.038533214
	,-0.0075299679
	,-0.029099626
	,0.083264135
	,-0.0050962521
	,-0.080382437
	,0.111117
	,0.0020031561
	,-0.10382151
	,0.0076460904
	,-0.031947251
	,0.069317847
	,-0.0065320912
	,-0.051891714
	,0.053035498
	,-0.13821669
	,0.072943956
	,0.037438694
	,0.065067723
	,-0.016904509
	,-0.064325429
	,-0.068927377
	,0.10060656
	,-0.16400826
	,0.090382382
	,0.13047542
	,-0.063799933
	,0.039998479
	,-0.066067338
	,0.012308759
	,-0.048529826
	,-0.028001714
	,0.075799465
	,-0.0019927206
	,-0.032173514
	,-0.053168628
	,-0.085294805
	,-0.030059999
	,0.037254915
	,-0.0032001419
	,0.076109849
	,-0.093188561
	,0.071653508
	,-0.0066510136
	,-0.044917367
	,-0.090029508
	,-0.037785873
	,0.022054648
	,0.030543892
	,-0.011861309
	,-0.092573024
	,-0.030138202
	,-0.014505409
	,0.03294703
	,0.026205052
	,0.0036781642
	,-0.097442977
	,0.20425287
	,-0.048860215
	,0.015079421
	,0.086999044
	,-0.071220756
	,0.029389944
	,-0.12214529
	,0.07547047
	,0.12003379
	,0.019758502
	,-0.015757438
	,-0.0056445654
	,-0.10182521
	,-0.037619438
	,0.042410683
	,-0.049983446
	,-0.040065173
	,-0.036465351
	,0.039881937
	,-0.11284284
	,0.063995779
	,-0.089374989
	,-0.018906007
	,-0.032422919
	,0.10244031
	,0.0044428068
	,0.038061522
	,-0.043324575
	,-0.037749924
	,-0.088134944
	,0.023623772
	,-0.097060166
	,-0.037478659
	,0.033957582
	,0.19579206
	,0.046423316
	,0.0029655362
	,0.12720174
	,0.014873652
	,0.013151387
	,-0.0375314
	,0.087928228
	,0.077333406
	,0.061980374
	,0.044549644
	,-0.029509682
	,-0.10178818
	,-0.080340162
	,0.079398334
	,-0.097118378
	,-0.032384124
	,-0.057796437
	,-0.045912147
	,0.020665925
	,0.05336101
	,0.00047675674
	,-0.0080513535
	,0.015181142
	,-0.091808535
	,-0.011986752
	,-0.041734885
	,0.02028911
	,-0.084459051
	,0.041965898
	,-0.0483711
	,0.059371278
	,0.061265141
	,0.050758518
	,-0.087590791
	,-0.0060561709
	,0.0014769067
	,-0.10223522
	,-0.0485026
	,-0.025912721
	,-0.027163489
	,0.063548222
	,-0.04786893
	,0.18318762
	,-0.034140375
	,0.073249131
	,-0.087357931
	,-0.027730778
	,0.056890227
	,0.044685114
	,0.024580866
	,0.022555215
	,-0.00929197
	,-0.058452033
	,0.12538235
	,0.055474963
	,-0.065717272
	,-0.018902836
	,-0.14801331
	,-0.0063360385
	,-0.1266654
	,-0.050534286
	,0.12464688
	,-0.10415909
	,-0.085187458
	,0.028954402
	,-0.016583323
	,0.045470227
	,-0.069922291
	,-0.066516265
	,0.13135809
	,-0.023076298
	,0.041536029
	,0.0042655221
	,-0.057018414
	,-0.022254873
	,0.069232538
	,0.050211389
	,-0.020680312
	,-0.055931687
	,-0.071911588
	,-0.051651176
	,0.0045653568
	,-0.057016369
	,-0.09379492
	,-0.007860966
	,-0.079102807
	,0.03767642
	,0.14252497
	,-0.0057246876
	,0.018917784
	,-0.035707094
	,-0.058344696
	,-0.02827283
	,-0.034922492
	,0.037151247
	,-0.022700384
	,-0.037295081
	,0.0901196
	,0.012194545
	,-0.063853443
	,0.06990502
	,0.038662117
	,-0.057558969
	,-0.059170939
	,-0.073838674
	,-0.045764338
	,-0.0019317201
	,-0.007713445
	,0.011771193
	,-0.0902004
	,0.0028434643
	,0.019520234
	,-0.0089016873
	,-0.014768733
	,0.058185849
	,-0.063931443
	,-0.027874595
	,0.11398108
	,-0.1132225
	,-0.1053732
	,-0.12013521
	,0.04231042
	,0.035312947
	,-0.087997012
	,-0.085094318
	,-0.085645609
	,0.015881857
	,0.072660476
	,0.055114929
	,0.02430585
	,0.13264953
	,0.047621973
	,0.0047299606
	,-0.016384613
	,0.013679417
	,0.057577461
	,-0.11199611
	,-0.047649559
	,-0.053947937
	,-0.058693983
	,-0.043409586
	,0.035409328
	,0.01472276
	,0.045330834
	,-0.061164595
	,0.12078926
	,0.13213591
	,0.094139904
	,-0.099594317
	,0.0052600023
	,-0.08404883
	,0.040834323
	,-0.039696917
	,0.034473874
	,-0.021084366
	,-0.05986432
	,0.010417528
	,-0.11203913
	,-0.017122163
	,0.076691926
	,-0.10760248
	,-0.04976777
	,-0.071761191
	,0.042814005
	,0.014807272
	,-0.079903193
	,-0.050694376
	,-0.0234116
	,-0.085781425
	,0.021218149
	,0.063351415
	,-0.024627108
	,-0.067553364
	,0.026316611
	,-0.022338286
	,0.068197079
	,0.046205338
	,-0.044808663
	,-0.056012541
	,0.034837522
	,-0.078658715
	,-0.14749667
	,-0.048915487
	,-0.033449505
	,0.032030642
	,0.12336803
	,0.12622404
	,0.1119329
	,-0.071687929
	,-0.032159153
	,-0.015265259
	,0.1271131
	,0.0033581208
	,0.0389369
	,0.036356736
	,0.04604004
	,-0.0091938861
	,0.078000888
	,0.079831533
	,0.028000398
	,-0.037024319
	,0.022576652
	,-0.036701977
	,0.15517196
	,0.038886391
	,-0.015389207
	,-0.015621241
	,0.063203573
	,-0.05324674
	,-0.03886272
	,0.062402096
	,-0.078094356
	,0.10800454
	,-0.076068133
	,-0.095707737
	,0.021262819
	,-0.054059204
	,0.0824858
	,-0.019557245
	,-0.0052569029
	,-0.0039336635
	,-0.041817103
	,0.037446093
	,-0.10475692
	,-0.10205841
	,-0.098876558
	,-0.11881551
	,-0.087753385
	,-0.028679563
	,-0.026384378
	,0.0567422
	,-0.064127788
	,-0.098928355
	,0.092068963
	,0.14040792
	,0.011482929
	,-0.050438933
	,0.071747467
	,0.0050501749
	,0.14908724
	,0.11854573
	,0.0034041661
	,-0.051896233
	,-0.05779567
	,0.00835631
	,0.065077387
	,-0.040543869
	,-0.032013759
	,-0.051441979
	,0.028374625
	,-0.12787871
	,-0.039768394
	,0.12118564
	,0.02203707
	,0.069957115
	,0.039121419
	,0.02384967
	,-0.040931463
	,-0.031495128
	,-0.052418996
	,0.071904607
	,-0.0059594284
	,0.044416174
	,0.012209438
	,-0.08433672
	,0.039325498
	,-0.023687359
	,0.047909547
	,0.0018528267
	,-0.033813369
	,-0.13916966
	,0.074126266
	,-0.048415586
	,-0.10112005
	,-0.081002347
	,-0.028328123
	,0.098747119
	,-0.022000562
	,-0.021085089
	,-0.10505319
	,0.050002586
	,0.050887443
	,-0.08142326
	,0.05396397
	,-0.0080325026
	,0.02073353
	,-0.047286849
	,0.12270848
	,-0.093601361
	,0.10677814
	,0.04645624
	,-0.055391286
	,-0.058398135
	,-0.018737048
	,0.13280456
	,-0.05348748
	,-0.016452329
	,0.10772414
	,-0.11110517
	,-0.034952637
	,-0.109744
	,-0.020324543
	,-0.024856551
	,0.024703925
	,-0.04602731
	,-0.092320755
	,-0.031802114
	,-0.044309881
	,-0.085690133
	,-0.059718747
	,-0.035911005
	,-0.040983472
	,-0.087914027
	,0.026232747
	,0.15018372
	,-0.0369305
	,-0.0073966957
	,0.020766744
	,0.04053358
	,-0.077852458
	,0.03854312
	,-0.00043274779
	,0.0077051185
	,-0.082653038
	,-0.01582478
	,-0.084050447
	,0.036372568
	,0.017595928
	,-0.021419724
	,0.0074507529
	,-0.02693145
	,0.17146376
	,0.032714758
	,0.023346519
	,0.042480148
	,-0.066030927
	,0.029720539
	,0.10553005
	,-0.018753355
	,0.077149004
	,-0.043469813
	,0.027490852
	,-0.080827981
	,0.018189998
	,-0.02905993
	,0.024282273
	,-0.072385564
	,-0.016524369
	,0.013186645
	,-0.03950081
	,0.10473157
	,0.074467532
	,0.1332577
	,-0.0060767033
	,0.0027255479
	,-0.032961685
	,-0.012944209
	,0.088032685
	,0.090616338
	,-0.048091937
	,-0.097610354
	,0.017184569
	,-0.093741328
	,0.043028895
	,-0.088599592
	,-0.020528104
	,-0.0027964856
	,0.053686
	,0.035681829
	,-0.09213654
	,-0.03251344
	,0.040703125
	,0.060267366
	,0.060198221
	,-0.034033436
	,-0.031063072
	,-0.058035739
	,0.12023214
	,0.13041529
	,-0.10787031
	,-0.073083475
	,-0.042650409
	,-0.029240245
	,-0.055135082
	,0.050974675
	,0.010561961
	,-0.12232794
	,0.029480886
	,-0.11782311
	,0.0877207
	,0.0741763
	,0.080569506
	,-0.070440456
	,0.010605628
	,0.019571951
	,0.09487664
	,0.062493168
	,-0.22740416
	,0.07273826
	,-0.0028493877
	,0.086190008
	,-0.075945087
	,0.10716131
	,-0.085337892
	,0.042303342
	,-0.028632689
	,-0.016154878
	,0.023293791
	,-0.044180777
	,0.071154021
	,0.095930144
	,-0.041551512
	,-0.14452302
	,-0.01292615
	,-0.045278393
	,0.087953277
	,0.051469196
	,-0.0015607079
	,0.0083360411
	,0.0055629625
	,-0.054240368
	,-0.026830722
	,-0.071058236
	,0.14764012
	,-0.10699394
	,-0.0068199034
	,0.00089737808
	,0.030139292
	,-0.071946919
	,0.00077599846
	,-0.0013946078
	,0.021892397
	,0.026501592
	,-0.10752016
	,0.029819202
	,-0.037235074
	,0.0044744159
	,0.0017452143
	,-0.048049849
	,-0.04714524
	,0.068017662
	,-0.031479944
	,-0.026801676
	,-0.011830804
	,0.0034994187
	,0.07009352
	,-0.072572142
	,-0.069805458
	,-0.018730631
	,-0.10101902
	,0.070470251
	,0.1702975
	,-0.035863761
	,0.049148168
	,0.033940446
	,-0.0035808282
	,0.018357424
	,0.077152014
	,0.1382705
	,-0.03857496
	,0.028249063
	,0.088700004
	,-0.044777453
	,0.10469522
	,0.13132304
	,-0.043904986
	,0.028231144
	,0.066312015
	,-0.035212122
	,0.024032561
	,0.036073342
	,0.026238622
	,-0.052872412
	,0.017034741
	,0.0039388314
	,0.013632429
	,0.15468733
	,-0.11632361
	,-0.023341676
	,-0.042822164
	,0.0756034
	,0.10927846
	,-0.040472504
	,0.052305359
	,-0.069593757
	,0.11840221
	,0.011258809
	,0.10558885
	,-0.065934964
	,0.07342571
	,-0.071629316
	,-0.14409553
	,0.07331688
	,-0.14768872
	,-0.089645192
	,-0.024810648
	,-0.045493182
	,0.058225654
	,0.11322836
	,0.023649998
	,-0.054522648
	,0.033371598
	,0.02641377
	,-0.041825358
	,0.022322038
	,-0.00738506
	,0.046366371
	,-0.045216851
	,-0.053796925
	,0.038978502
	,-0.089455806
	,0.059248105
	,-0.078813724
	,-0.086116679
	,-0.067523941
	,0.035095859
	,-0.0632769
	,-0.046402182
	,0.061697733
	,0.11393472
	,0.025423829
	,0.072349176
	,-0.045636129
	,0.03681301
	,0.026268
	,0.077940792
	,0.019816594
	,0.06605389
	,0.017804269
	,-0.12478509
	,-0.081705816
	,0.01514496
	,0.071184181
	,-0.047091659
	,0.041751303
	,-0.074608617
	,-0.035241477
	,-0.022399362
	,-0.1257492
	,0.11263566
	,-0.042486034
	,0.03421456
	,-0.022233322
	,0.041999571
	,-0.037435569
	,0.054734305
	,0.056850582
	,-0.098725893
	,-0.041056342
	,-0.0077392086
	,0.050401215
	,-0.027224446
	,0.053226288
	,-0.14834823
	,-0.10911831
	,0.021910032
	,-0.0658492
	,0.14136116
	,-0.011936151
	,0.1395914
	,0.058994148
	,-0.10302263
	,0.027639162
	,0.064059161
	,0.092704713
	,-0.02588005
	,0.044251617
	,0.077423289
	,-0.067326836
	,0.048789036
	,-0.018912386
	,0.024122575
	,-0.01162339
	,-0.03915976
	,-0.018992925
	,-0.0011416723
	,0.031009326
	,-0.021596901
	,0.02461387
	,-0.018182198
	,0.035384502
	,0.01136357
	,-0.030296253
	,0.14411117
	,0.036440849
	,0.1189359
	,0.012783868
	,-0.030733826
	,-0.0078399889
	,-0.10064672
	,0.1606694
	,0.087295853
	,-0.1085866
	,0.044897977
	,-0.11118246
	,0.028062236
	,-0.044724606
	,-0.10490677
	,-0.019466998
	,-0.0056635584
	,0.10686971
	,0.052163828
	,0.02432357
	,-0.035742935
	,0.068551317
	,-0.056707595
	,0.17618652
	,-0.034129217
	,-0.11185656
	,0.050669607
	,-0.0908635
	,0.019610448
	,0.11706754
	,-0.059682097
	,-0.032621209
	,-0.026912374
	,0.036403365
	,0.0626911
	,0.1029071
	,0.15192872
	,0.031072907
	,-0.030729329
	,-0.010917493
	,-0.090808161
	,0.063335873
	,0.04000913
	,-0.048135389
	,-0.10867167
	,-0.029724052
	,-0.06981694
	,0.15956479
	,0.058495585
	,0.02835495
	,0.041488405
	,0.0036576539
	,0.030543864
	,-0.019635605
	,-0.01874079
	,0.021483321
	,-0.074217528
	,0.11919548
	,-0.12896076
	,0.026601061
	,0.065635212
	,0.064837255
	,-0.0030288559
	,-0.010258766
	,-0.054550953
	,0.010512661
	,0.034161523
	,0.00227271
	,-0.065106183
	,0.0043326905
	,0.02543341
	,0.0097538754
	,-0.013885085
	,-0.074205108
	,-0.049814779
	,-0.026542218
	,-0.10815989
	,-0.03496141
	,0.032323763
	,0.00413008
	,-0.090963453
	,0.021619601
	,-0.11175926
	,-0.034274686
	,0.040660664
	,-0.011277497
	,0.095104784
	,-0.17698817
	,-0.081163615
	,-0.047190536
	,0.10776366
	,0.0091325063
	,0.073821895
	,-0.0017995758
	,-0.0259818
	,0.0011179427
	,-0.040584687
	,0.16432709
	,-0.0038434439
	,0.019637022
	,0.056021072
	,-0.059067491
	,0.06842339
	,-0.010070078
	,0.10508924
	,-0.15353744
	,0.078527763
	,0.064662926
	,0.040784538
	,-0.066148147
	,0.092526406
	,0.009772148
	,0.032999352
	,-0.058885694
	,-0.066836454
	,0.12501596
	,0.098836787
	,-0.0007318132
	,-0.021653937
	,0.02502262
	,-0.030711487
	,-0.041490726
	,0.043402497
	,-0.028183512
	,-0.025127204
	,0.17063734
	,0.088599652
	,0.017101061
	,0.099438623
	,0.0046464945
	,0.010580251
	,-0.071369909
	,-0.03088201
	,-0.017503481
	,0.048896473
	,0.083026357
	,-0.061370447
	,-0.12642276
	,-0.035399191
	,0.066006832
	,0.091656245
	,0.0771535
	,0.11037843
	,-0.02908114
	,-0.04026689
	,0.027804436
	,-0.014000887
	,-0.01029276
	,0.048928041
	,-0.10813352
	,-0.0020936662
	,0.18590814
	,-0.074982561
	,-0.10664493
	,0.071875684
	,-0.018697271
	,-0.10326647
	,-0.034115557
	,0.011603261
	,0.048938919
	,-0.0031556403
	,-0.039772756
	,-0.15892752
	,-0.0014962733
	,-0.13303627
	,0.031584974
	,0.15410116
	,0.019428827
	,-0.0744483
	,-0.012377243
	,-0.21791688
	,-0.082795061
	,0.038950596
	,-0.022087427
	,0.013653891
	,-0.072434418
	,-0.08525306
	,0.0917424
	,0.045641668
	,0.023866592
	,-0.023240009
	,0.090417765
	,-0.033918202
	,-0.054035705
	,-0.05791549
	,0.073563315
	,0.030814823
	,0.010638866
	,0.044610694
	,0.076969758
	,0.18303818
	,0.035377424
	,-0.034551311
	,-0.072808765
	,-0.12119324
	,-0.0495666
	,-0.033668242
	,0.08802288
	,-0.020886388
	,-0.054059718
	,-0.0093966629
	,-0.00716512
	,0.086938471
	,0.032193143
	,0.089679658
	,0.13191476
	,0.011797443
	,-0.030429309
	,0.11424594
	,-0.024582131
	,0.01814731
	,-0.14415675
	,-0.033637337
	,-0.010949722
	,-0.084521092
	,0.08969868
	,0.0783967
	,0.067320541
	,-0.026409816
	,0.056314148
	,-0.079898015
	,0.087550975
	,-0.10728256
	,-0.028440779
	,-0.0097491425
	,0.047493119
	,0.11616331
	,0.03914354
	,-0.049486578
	,0.017965306
	,-0.058528185
	,-0.093015492
	,-0.05774688
	,0.13490614
	,-0.023693224
	,-0.081958815
	,0.11223421
	,-0.09941674
	,0.085546039
	,0.030310133
	,0.029076425
	,0.060919974
	,0.037107885
	,0.014972514
	,-0.036485851
	,0.0216432
	,0.074909464
	,-0.007925869
	,-0.10003114
	,-0.034194417
	,-0.13030177
	,0.094693266
	,0.012423415
	,0.07485538
	,-0.081465364
	,-0.098962009
	,0.069225095
	,0.031362105
	,0.01746849
	,0.033022273
	,0.10195925
	,0.13610436
	,0.059393022
	,0.023216261
	,0.06269604
	,0.047660105
	,0.00042757785
	,0.10662151
	,0.032995265
	,-0.075204909
	,0.093455561
	,0.044801287
	,-0.039284248
	,-0.006014416
	,0.011218691
	,-0.012650179
	,0.10187127
	,0.024263903
	,0.0585412
	,-0.0036591233
	,0.061604176
	,0.026382456
	,0.086268939
	,-0.029178966
	,-0.074096411
	,0.063662544
	,-0.074904419
	,0.0653645
	,0.044692282
	,0.015736202
	,-0.011265342
	,0.044354834
	,-0.054845709
	,-0.022914428
	,0.11524506
	,0.053715266
	,-0.039391737
	,-0.028945396
	,-0.0071440451
	,0.22312669
	,0.13964021
	,0.028188579
	,0.021063095
	,0.020363584
	,-0.08786466
	,0.048142549
	,0.0035799888
	,0.045396987
	,0.069911011
	,-0.0943494
	,0.082628526
	,0.0066675832
	,0.015782699
	,-0.015607418
	,-0.037434865
	,-0.11628272
	,-0.070871219
	,-0.050262045
	,0.11042678
	,-0.028023694
	,0.046381932
	,0.14175335
	,0.11572282
	,-0.0431228
	,0.0075157951
	,0.0035537332
	,0.063196
	,-0.14542951
	,-0.013539979
	,0.16099311
	,-0.041027308
	,-0.0866967
	,-0.042920269
	,-0.093055688
	,-0.083692387
	,0.11082213
	,-0.018614745
	,0.081327714
	,-0.048178658
	,-0.085510641
	,-0.022654666
	,0.037831012
	,-0.10916543
	,0.042224996
	,-0.055603754
	,-0.014711303
	,0.12284272
	,-0.090828866
	,0.025132846
	,0.028393308
	,-0.0086264452
	,-0.018054429
	,0.054952022
	,0.12092928
	,-0.096098304
	,0.043319333
	,-0.036562823
	,0.14687726
	,-0.044566188
	,0.096738957
	,0.11412814
	,-0.1561566
	,-0.039441004
	,-0.041520435
	,0.086125322
	,-0.09341754
	,0.014288832
	,0.0089357281
	,0.057145506
	,-0.06683033
	,0.083682418
	,0.040022042
	,0.0015067776
	,0.10141627
	,0.081953332
	,-0.15011439
	,0.11914182
	,0.086925954
	,0.027226269
	,-0.11755788
	,-0.0065554362
	,-0.0853354
	,0.10994968
	,-0.037794307
	,0.040336803
	,0.0087371934
	,-0.056380413
	,-0.042337924
	,0.060889471
	,0.0065705054
	,0.055680778
	,0.026711432
	,0.026946235
	,0.023985736
	,-0.043316912
	,-0.047109537
	,0.13748133
	,-0.19279182
	,0.084892161
	,0.041100413
	,0.0058595929
	,-0.017621197
	,-0.14496456
	,-0.0069399308
	,0.011157817
	,0.00320024
	,-0.00691466
	,-0.066215277
	,-0.022834849
	,-0.17769517
	,0.094635032
	,0.094896168
	,0.019553514
	,0.090765558
	,-0.051310446
	,-0.09423437
	,0.038754474
	,0.13556902
	,0.040834889
	,-0.13058621
	,0.10984793
	,-0.042276934
	,0.079179764
	,-0.038386054
	,0.08173614
	,0.0836021
	,0.051955387
	,0.14276809
	,0.001682493
	,0.07731989
	,0.15510763
	,-0.034914445
	,-0.032565955
	,-0.09453252
	,-0.005186406
	,-0.069589496
	,-0.083883889
	,-0.038001914
	,0.030680202
	,0.073506646
	,0.05316468
	,0.012814625
	,0.04188941
	,-0.024113877
	,0.038016483
	,-0.083578169
	,0.10025855
	,0.049663521
	,0.032241702
	,-0.06863936
	,0.034538977
	,0.024028663
	,-0.00091755297
	,0.11906983
	,0.070666254
	,0.0682192
	,0.0086691286
	,0.03236128
	,0.021996139
	,0.049855
	,0.14169331
	,-0.015784035
	,0.0093890969
	,-0.11975355
	,-0.0088195447
	,-0.079670213
	,-0.090803556
	,-0.019352257
	,-0.10763785
	,-0.026805794
	,-0.089876205
	,-0.0016510689
	,-0.18033467
	,-0.08692693
	,0.059762105
	,0.079736136
	,-0.077372342
	,-0.11641666
	,0.0099625932
	,-0.030872308
	,0.11071162
	,0.013175128
	,-0.01668291
	,-0.14771923
	,-0.13529442
	,-0.069071457
	,-0.0058201277
	,-0.10220791
	,-0.0096666161
	,0.15723953
	,0.016849838
	,-0.01948645
	,0.11943359
	,-0.082050331
	,0.11620242
	,0.013610503
	,-0.068892486
	,0.084186338
	,-0.10887734
	,0.20390081
	,-0.19775124
	,0.019129913
	,-0.046005413
	,0.0039186575
	,-0.06093169
	,-0.041253809
	,-0.088968754
	,-0.12569186
	,-0.046447683
	,-0.041864246
	,-0.018372456
	,-0.079744555
	,-0.010616826
	,0.083220556
	,0.068706647
	,0.10893746
	,-0.0021573149
	,-0.18193023
	,0.043692525
	,0.072125077
	,-0.030921664
	,0.042834543
	,-0.038077492
	,0.042642079
	,0.074866548
	,0.15254435
	,0.009851573
	,0.04955015
	,-0.1338681
	,-0.027946981
	,0.0088450657
	,0.042519324
	,0.031873863
	,0.0370635
	,0.024696793
	,0.058194246
	,-0.20634529
	,0.087575667
	,0.079526506
	,0.020758787
	,0.023924248
	,0.091744259
	,0.088875562
	,0.01410287
	,0.0056865881
	,0.059710115
	,0.034564637
	,-0.0038576322
	,-0.12483469
	,-0.097370416
	,-0.034515887
	,-0.1142185
	,-0.038667463
	,0.10060157
	,-0.015905937
	,-0.031922139
	,0.1040106
	,-0.066191539
	,0.041977
	,0.025730718
	,0.057680469
	,0.038444873
	,0.00029599507
	,-0.055198669
	,-0.013166884
	,-0.028995013
	,0.0011200985
	,0.12568578
	,-0.0084564239
	,-0.003128794
	,-0.075724177
	,-0.0022999942
	,0.074198715
	,-0.10771073
	,0.029689988
	,-0.099485561
	,0.078228287
	,0.11040162
	,-0.096877627
	,0.046985306
	,-0.075103365
	,0.041802708
	,0.054159086
	,-0.062758796
	,0.084176309
	,0.039218612
	,-0.076107852
	,0.12229278
	,0.0067204023
	,-0.15193695
	,0.053066503
	,-0.035499476
	,-0.017589493
	,0.049760345
	,0.071949504
	,-0.030154835
	,0.085571364
	,0.012927907
	,-0.029758837
	,0.025684165
	,-0.0060810735
	,0.14684397
	,0.057365876
	,-0.039201938
	,0.071837
	,0.21132864
	,-0.022871342
	,-0.017046217
	,-0.090415232
	,0.093185447
	,-0.056128394
	,0.0055353651
	,-0.10456696
	,-0.0782095
	,-0.00853344
	,-0.24597324
	,-0.091363445
	,0.090106137
	,0.033094004
	,0.061282091
	,0.15385133
	,-0.061605528
	,-0.065923892
	,0.090176664
	,0.035762873
	,-0.006210295
	,0.026021762
	,0.028566588
	,-0.057740521
	,0.074842229
	,0.070902772
	,-0.13376284
	,0.039896537
	,0.039068919
	,0.0195979
	,0.043116778
	,-0.12393606
	,0.071133316
	,-0.0084767062
	,-0.10766505
	,-0.042215303
	,-0.11807008
	,-0.13262644
	,0.074548781
	,-0.093492143
	,0.0792421
	,0.047637992
	,-0.065477848
	,0.0059699267
	,-0.17445984
	,0.021301789
	,-0.07261046
	,0.032385584
	,-0.0016435839
	,-0.081124283
	,-0.0041575897
	,0.14001964
	,0.092962414
	,-0.070451483
	,0.10898071
	,-0.058672547
	,0.0031520536
	,0.094479762
	,-0.12336846
	,0.0011779172
	,0.11234897
	,-0.0029040012
	,0.070577659
	,0.0057726721
	,-0.08835268
	,0.048227794
	,-0.12591103
	,-0.035961453
	,-0.07947877
	,-0.016998352
	,0.052178733
	,0.037400041
	,0.12189867
	,0.049933858
	,-0.085224107
	,0.0026394052
	,-0.17502655
	,0.099019162
	,0.12333529
	,-0.066951506
	,0.11203067
	,-0.14323995
	,0.08764758
	,0.040435389
	,-0.11611108
	,0.055763412
	,0.063511327
	,-0.016246976
	,-0.060767829
	,0.067450933
	,0.094476059
	,0.039716169
	,0.07219886
	,-0.00035849016
	,-0.11242398
	,0.071579888
	,0.028809896
	,0.027313571
	,0.0163782
	,-0.058291618
	,0.028060164
	,0.0072355666
	,0.0011473149
	,-0.089016907
	,0.04686508
	,-0.06306348
	,0.073396668
	,-0.04649058
	,-0.07865525
	,-0.03240205
	,0.079497963
	,-0.0041616606
	,-0.092598267
	,0.013971109
	,0.023806948
	,-0.13639525
	,-0.10369753
	,-0.051870491
	,0.024193414
	,-0.016390726
	,0.069900669
	,-0.043354414
	,0.0304352
	,-0.012446309
	,-0.02469877
	,-0.11634687
	,0.07863678
	,-0.082557671
	,-0.022857007
	,-0.099205121
	,0.088040128
	,0.018852845
	,-0.075622983
	,0.07082051
	,-0.033154909
	,-0.089728884
	,0.11322817
	,0.13996595
	,-0.080803111
	,0.12656352
	,0.077391893
	,-0.016474165
	,-0.07339751
	,-0.0094930185
	,-0.096479744
	,0.049115974
	,0.030165046
	,0.016165707
	,-0.02411486
	,0.034599561
	,0.023510434
	,-0.059837013
	,0.0056783305
	,-0.058301579
	,0.077781044
	,0.041854136
	,0.0033988608
	,-0.053693
	,-0.045570981
	,-0.049884129
	,0.08721894
	,0.059488855
	,-0.11996154
	,-0.12232992
	,0.10683524
	,-0.083510138
	,-0.036164302
	,-0.026134415
	,0.085497387
	,-0.0804122
	,-0.0098601067
	,0.0070896395
	,-0.040445749
	,-0.046977513
	,0.042525232
	,-0.042643126
	,0.037412021
	,-0.057376117
	,0.00496828
	,-0.035935048
	,-0.14186944
	,0.020394359
	,0.066166587
	,0.068023853
	,-0.0094216755
	,-0.012194872
	,-0.024701653
	,0.034340903
	,0.063860342
	,0.010397018
	,-0.0047780541
	,0.10801983
	,0.076120004
	,-0.0735608
	,-0.11708003
	,0.013020592
	,-0.12914315
	,-0.11142135
	,0.076934174
	,0.064334586
	,0.039924916
	,-0.061097126
	,0.074512109
	,-0.096731521
	,-0.016546691
	,0.14724945
	,-0.055961341
	,0.008419496
	,0.004122694
	,-0.010883376
	,-0.00812096
	,0.045279738
	,-0.084847435
	,0.062040642
	,-0.11867709
	,0.029400313
	,0.0876637
	,0.00050455966
	,-0.10037021
	,-0.028142521
	,-0.064884618
	,0.043455373
	,0.055644419
	,-0.098784335
	,0.093099721
	,0.033236794
	,-0.0043350854
	,0.024036825
	,0.12826546
	,-0.076039582
	,-0.1271185
	,0.0028454193
	,0.043799859
	,-0.15701281
	,-0.15542284
	,0.14594932
	,0.10894992
	,-0.017459638
	,0.094505884
	,0.054678794
	,-0.003714903
	,-0.038627155
	,-0.041516647
	,0.14690955
	,0.014603988
	,-0.091827825
	,-0.13298534
	,0.023320364
	,-0.070720516
	,0.058917087
	,0.11028751
	,0.032901049
	,-0.093885146
	,0.00545572
	,0.0051636486
	,-0.0061226343
	,0.045658216
	,-0.041260924
	,-0.018916696
	,-0.018308548
	,0.02100219
	,0.031106763
	,-0.071516655
	,-0.12526083
	,0.067401424
	,0.040200759
	,0.088706933
	,0.0081588551
	,-0.12304067
	,0.097206712
	,0.081907004
	,0.099946961
	,-0.040580347
	,0.032084938
	,-0.072759412
	,-0.093854077
	,0.014957819
	,-0.079975948
	,0.091952831
	,0.059132267
	,-0.14553709
	,-0.047931459
	,0.092702
	,-0.039160825
	,-0.052058049
	,-0.032089397
	,0.0065329759
	,0.0481474
	,-0.058783013
	,0.16708098
	,0.0065838466
	,-0.17876995
	,-0.048769176
	,-0.0003831927
	,0.027419357
	,0.037562884
	,0.025036145
	,0.016723163
	,0.0035683853
	,-0.090089187
	,0.091585241
	,0.04775466
	,0.055363547
	,-0.043117307
	,0.055827778
	,0.090670682
	,0.12175384
	,0.025584547
	,-0.14985105
	,0.098905794
	,-0.080309466
	,-0.10582336
	,0.04327178
	,-0.014340833
	,0.037145261
	,0.026914662
	,-0.0090767844
	,-0.085935548
	,-0.027483787
	,-0.0086716674
	,0.12576881
	,0.0822641
	,0.0020998123
	,-0.078380883
	,0.024366708
	,-0.05608828
	,-0.057196908
	,-0.061910376
	,0.06467589
	,-0.014518436
	,-0.042365424
	,-0.023988232
	,0.045905452
	,-0.065646231
	,0.097114623
	,0.0052548866
	,0.012080459
	,0.082513146
	,0.005508448
	,0.022121498
	,0.0082072895
	,-0.030182851
	,-0.048057579
	,0.12441476
	,-0.1057784
	,0.12311336
	,-0.0048109493
	,-0.02063364
	,-0.04772358
	,0.031621665
	,0.0782418
	,0.06632416
	,-0.043829925
	,0.03957846
	,-0.0642386
	,-0.024323085
	,-0.047535539
	,-0.092905931
	,0.021321079
	,0.025003031
	,0.012112434
	,-0.056302626
	,-0.01420843
	,0.082483284
	,-0.08158733
	,-0.092519529
	,-0.06519825
	,0.13688765
	,-0.032992795
	,-0.0096428776
	,-0.076021723
	,0.13034011
	,0.082544938
	,0.11197816
	,0.14069596
	,-0.033421326
	,0.046207272
	,0.094224796
	,0.12577331
	,0.059309289
	,0.077413045
	,0.016395848
	,-0.040395673
	,-0.031651266
	,-0.066641249
	,0.066829905
	,-0.071263321
	,-0.073753849
	,-0.049056448
	,0.048176188
	,0.15895197
	,-0.041988481
	,-0.004494186
	,0.016799023
	,0.11857346
	,-0.14579779
	,-3.9810707e-06
	,0.12428578
	,0.068840005
	,0.062839419
	,0.087270983
	,0.033479434
	,-0.090990372
	,-0.02310079
	,0.036847811
	,-0.0399594
	,-0.037474282
	,-0.07278128
	,0.055778213
	,-0.080684133
	,-0.069395386
	,-0.020654721
	,0.037730724
	,-0.10857916
	,0.031883996
	,0.019627847
	,0.091133341
	,0.11779219
	,-0.22920501
	,0.022327133
	,0.025433058
	,-0.046690583
	,0.019448381
	,0.075217605
	,-0.005593142
	,-0.020984506
	,0.029972654
	,0.014108307
	,-0.077293128
	,-0.02745988
	,-0.11707297
	,-0.023898903
	,0.1557488
	,-0.16119045
	,-0.0074312976
	,0.039327316
	,-0.048018903
	,0.050617874
	,0.026873143
	,-0.095854
	,-0.10537151
	,-0.018866377
	,-0.039012905
	,-0.069144942
	,-0.047864478
	,0.013639317
	,-0.021278391
	,-0.13129692
	,0.06994611
	,0.015288068
	,-0.076089144
	,-0.071277425
	,-0.10878709
	,-0.080761619
	,-0.063553132
	,0.063134007
	,0.060694594
	,0.027783558
	,-0.20397408
	,0.13953543
	,-0.083193205
	,-0.075878978
	,0.149523
	,0.13985609
	,0.0038146805
	,-0.022765363
	,-0.007333654
	,-0.056366835
	,-0.13996854
	,0.085503832
	,-0.098400675
	,0.11508743
	,-0.061962113
	,0.035271227
	,-0.08031109
	,0.052028947
	,-0.059514049
	,0.061760634
	,0.08343146
	,-0.10210867
	,-0.03899572
	,-0.10019536
	,0.010515928
	,-0.072201654
	,0.01142237
	,0.068414092
	,-0.035018634
	,-0.066489048
	,-0.0097962422
	,-0.045604959
	,-0.0089934291
	,0.011905516
	,-0.092527248
	,0.15045741
	,-0.1064425
	,-0.025982205
	,0.039707694
	,-0.010940073
	,-0.016399657
	,-0.1262254
	,-0.056219477
	,-0.1192124
	,0.11189854
	,-0.22001182
	,-0.061468966
	,-0.14018811
	,-0.065659188
	,-0.077889442
	,0.048839115
	,-0.041964214
	,-0.14198236
	,-0.058383059
	,0.073008038
	,-0.0783335
	,0.014357606
	,-0.019258793
	,0.050221745
	,0.064391345
	,0.088244393
	,-0.0064172274
	,-0.055705376
	,-0.0026436709
	,-0.0022165824
	,0.043514285
	,0.0040930863
	,-0.16480176
	,0.072909191
	,0.01296015
	,0.06379649
	,-0.10262525
	,-0.0051868679
	,0.093421653
	,0.17630845
	,0.058542583
	,0.086732976
	,0.020491239
	,0.11068932
	,0.16937351
	,0.0010790483
	,0.25201628
	,0.10422578
	,0.13414669
	,0.0031152605
	,-0.054668758
	,0.15604256
	,-0.016494201
	,-0.06121413
	,-0.012574431
	,0.223956
	,-0.068874322
	,-0.017209014
	,-0.11485568
	,-0.12073138
	,-0.12823071
	,-0.047610629
	,0.10205874
	,-0.058133051
	,-0.1169892
	,0.025828458
	,-0.010096421
	,0.12899457
	,-0.0452977
	,0.1252345
	,0.041813917
	,-0.04929525
	,0.10533603
	,-0.05692945
	,0.015967581
	,0.082189947
	,-0.01430962
	,0.0301296
	,0.074401654
	,-0.070537053
	,0.0211977
	,-0.013702886
	,0.055615142
	,0.053634252
	,-0.25976643
	,0.033149224
	,-0.0044813002
	,-0.0040934882
	,-0.029213574
	,0.11038806
	,-0.066245109
	,-0.0098670553
	,0.0053666653
	,-0.0063000196
	,0.043121442
	,0.065594912
	,-0.052115504
	,-0.064164981
	,0.03238837
	,-0.059020288
	,0.0063699549
	,-0.029560113
	,-0.020668194
	,0.034767408
	,0.031741437
	,-0.10889842
	,0.072127819
	,0.037477061
	,0.013439441
	,-0.045557629
	,-0.037580028
	,0.011544708
	,0.050974887
	,0.0096878586
	,0.069838412
	,-0.11609216
	,0.055145167
	,0.068296
	,-0.14041793
	,0.092206918
	,0.029627198
	,-0.092169113
	,-0.11863574
	,-0.050402835
	,0.094281137
	,0.12659878
	,-0.036369819
	,-0.017093631
	,-0.042766023
	,-0.026546873
	,-0.04461433
	,-0.16179277
	,0.014967638
	,-0.074715912
	,0.051443659
	,-0.071404465
	,0.037208647
	,-0.02917983
	,0.057563193
	,-0.018173315
	,-0.22241274
	,-0.099884011
	,0.12094184
	,0.066543326
	,-0.023640057
	,-0.023078777
	,-0.091628596
	,0.12800145
	,-0.0049207504
	,-0.070672542
	,0.041321497
	,0.046984885
	,-0.094046995
	,-0.10067826
	,-0.087479189
	,0.021235263
	,0.034745358
	,0.069334269
	,-0.037473895
	,0.033909377
	,0.14198367
	,0.074856691
	,0.0043069636
	,-0.091294378
	,-0.027845107
	,-0.0063212775
	,-0.024560517
	,0.079808958
	,-0.0641055
	,-0.019688906
	,0.14532368
	,0.023752874
	,-0.028060228
	,0.072763048
	,-0.0038885316
	,0.0066966708
	,-0.060243171
	,-0.16836627
	,-0.01661302
	,0.087538511
	,-0.011068891
	,-0.023519235
	,-0.035295188
	,0.0012730894
	,-0.014562547
	,-0.0481275
};
