w_t _weights_conv2[25000] = {
	,0.018984988
	,-0.011665668
	,-0.034077097
	,0.022384237
	,-0.046676975
	,-0.014312617
	,0.019515211
	,-0.011699802
	,0.029021367
	,0.01492379
	,-0.034566578
	,-0.020144634
	,0.03995584
	,0.021732993
	,-0.0022730704
	,0.03402577
	,-0.058026332
	,0.0076999157
	,0.062778324
	,0.05194274
	,-0.012252864
	,0.0052413684
	,-0.0062826243
	,-0.03547439
	,0.0617224
	,0.0092255948
	,0.015771564
	,-0.0315285
	,-0.022369256
	,0.039408725
	,-0.031553652
	,-0.014064962
	,0.015950233
	,-0.0043007131
	,0.051967252
	,-0.050851826
	,0.054973535
	,0.010526106
	,0.0085838176
	,0.01853431
	,0.029508637
	,0.0043903138
	,-0.03142165
	,0.0040578404
	,-0.0105948
	,0.0055621997
	,0.050715342
	,-0.030580724
	,0.016652249
	,-0.052957851
	,0.0036978975
	,0.058341961
	,0.05976316
	,-0.0407061
	,0.012542638
	,-0.045648977
	,-0.0026651558
	,0.012767857
	,-0.070323415
	,-0.0055018403
	,-0.021315051
	,-0.0099850167
	,0.05407026
	,-0.030283237
	,0.072925068
	,0.0014410483
	,0.046556752
	,-0.053394817
	,0.060729194
	,0.038400739
	,0.047878526
	,0.011749467
	,0.029700009
	,0.0036673404
	,0.0087355189
	,-0.015109855
	,-0.059425808
	,0.042644463
	,-0.016656598
	,-0.065270789
	,-0.0044363961
	,0.012277141
	,0.013776622
	,0.021663863
	,0.034384456
	,-0.00089306704
	,0.018025415
	,-0.0091153132
	,0.026915053
	,-0.036688887
	,0.047254488
	,0.00029315072
	,0.0027080483
	,-0.025567576
	,-0.04158926
	,-0.025136104
	,0.023924891
	,0.028809745
	,0.0071187452
	,-0.0038662762
	,-0.021638116
	,0.036272552
	,-0.070777863
	,-0.019499958
	,-0.0336245
	,0.018341146
	,0.015114566
	,-0.018431436
	,-0.05764915
	,-0.0318821
	,-0.044799075
	,0.014396269
	,-0.0097322147
	,0.0032375311
	,0.021865569
	,0.029961554
	,0.065486014
	,-0.025757302
	,0.050109509
	,-0.031707708
	,0.039226551
	,-0.010244786
	,0.04412844
	,-0.014851606
	,-0.0026872843
	,0.0033892
	,-0.016057704
	,0.007415039
	,0.04381948
	,0.015560538
	,-0.037891995
	,-0.027541853
	,0.013520766
	,0.018744474
	,0.014730005
	,-0.072938561
	,-0.035953913
	,-0.019057913
	,0.021063576
	,0.010428102
	,0.032886185
	,0.013519839
	,0.052775953
	,-0.024426021
	,0.042329013
	,-0.04908561
	,-0.02742717
	,0.027690738
	,0.0177813
	,0.050687227
	,-0.02151476
	,-0.019225163
	,0.021978615
	,-0.0284356
	,-0.007482979
	,0.019181779
	,-0.10856674
	,-0.0050800922
	,0.037472967
	,-0.053162478
	,0.014634474
	,-0.037565488
	,0.032093085
	,0.049927093
	,-0.0019788262
	,0.020491436
	,-0.025708795
	,-0.0097533753
	,0.051898986
	,0.033477414
	,-0.054505244
	,-0.0030735093
	,0.0403415
	,0.015891746
	,-0.02124312
	,-0.019838741
	,-0.05155981
	,0.01429551
	,0.022014955
	,0.012071389
	,0.029339757
	,-0.08051879
	,0.01266314
	,-0.019214014
	,-0.028258277
	,-0.024009429
	,0.016468765
	,-0.060009874
	,-0.065643929
	,-0.044386227
	,0.036175579
	,0.044441707
	,-0.0024187141
	,0.012921686
	,-0.058538947
	,-0.048961613
	,-0.016170442
	,0.0298409
	,0.0096422033
	,0.011405624
	,0.014524998
	,0.07352183
	,-0.045646902
	,-0.017756561
	,0.020637242
	,0.040921748
	,0.026607649
	,-0.021158854
	,-0.0046525137
	,0.00056551432
	,-0.0099913022
	,0.082943633
	,0.044832338
	,-0.020870546
	,0.04435515
	,-0.027622843
	,0.062162396
	,0.037377566
	,0.023427213
	,-0.004715587
	,0.010129078
	,0.020202555
	,0.030532448
	,-0.037603777
	,-0.049298905
	,0.067322448
	,-0.08887466
	,0.086366124
	,0.0013223265
	,-0.051392011
	,-0.01770726
	,-0.094214112
	,0.0064907079
	,0.026913188
	,-0.0032738866
	,0.037294157
	,0.018561777
	,0.0084142741
	,0.029832454
	,0.046381928
	,-0.038064372
	,0.0091243545
	,0.017831141
	,-0.052884698
	,0.013858976
	,-0.013955418
	,0.044028509
	,0.0050050174
	,-0.028195517
	,0.036572397
	,-0.034111205
	,0.040106412
	,0.04886673
	,-0.037230693
	,-0.0039648521
	,-0.011935426
	,0.070948996
	,0.059642315
	,0.019674165
	,-0.011412689
	,-0.0023371151
	,0.053970892
	,0.0567336
	,-0.0394689
	,0.039455295
	,-0.046662319
	,-0.017411256
	,0.02020848
	,0.046701331
	,-0.0036010863
	,0.026803061
	,0.032773852
	,0.043125089
	,0.00366107
	,-0.0053372122
	,0.0034415096
	,0.025315674
	,-0.0661662
	,0.031455796
	,-0.04552561
	,0.035998557
	,-0.023589985
	,0.021358848
	,0.058303058
	,0.0040856209
	,0.059997257
	,0.0092401458
	,-0.05278261
	,-0.032425389
	,0.023624215
	,-0.044090737
	,0.023401422
	,-0.03368368
	,0.06549269
	,0.021393811
	,0.035020474
	,-0.056456126
	,0.013738296
	,-0.039764658
	,0.044088513
	,-0.023014355
	,-0.03828375
	,0.057769258
	,-0.032418042
	,0.051451962
	,0.0061733294
	,-0.041354705
	,0.083964817
	,0.0008753899
	,0.040290933
	,0.0275195
	,-0.047767937
	,0.0597825
	,-0.01514027
	,-0.019407948
	,-0.058310881
	,0.017878687
	,-0.0345286
	,0.0041376469
	,-0.014985741
	,-0.026601097
	,0.008438943
	,0.050012287
	,-0.02078411
	,-0.0069479113
	,0.0083800014
	,-0.032352116
	,-0.021862771
	,0.031154636
	,0.0039423788
	,0.026392864
	,-0.044597443
	,0.018720046
	,-0.0091921873
	,-0.063012391
	,-0.0023049035
	,-0.077845559
	,-0.015986446
	,0.058382429
	,0.00743431
	,0.0357507
	,-0.055402342
	,-0.011444318
	,0.027541395
	,0.014022319
	,0.0072911745
	,0.03265043
	,0.049521018
	,-0.042787407
	,0.01082617
	,-0.051147912
	,0.0090420553
	,0.0074469661
	,0.0050916271
	,0.052683391
	,0.0090587055
	,-0.097753391
	,0.05784354
	,-0.039156068
	,-0.053157352
	,0.038877
	,-0.051551361
	,0.055988207
	,-0.045354761
	,-0.0092329
	,-0.028306516
	,-0.00775047
	,0.062767453
	,-0.0079467054
	,0.0404749
	,-0.0035804487
	,0.020469176
	,-0.014330797
	,0.048513982
	,0.001315863
	,0.042227864
	,0.066542111
	,0.029893002
	,-0.040050037
	,0.044068567
	,-0.0248516
	,0.014996879
	,0.030630765
	,0.026477506
	,-0.038414594
	,0.053304914
	,0.030205976
	,-0.020537522
	,0.055225842
	,-0.052076761
	,0.063138537
	,0.043300286
	,0.051157437
	,0.016595608
	,-0.06397631
	,0.047538683
	,0.020404557
	,-0.0027112274
	,-0.024983216
	,0.0063417093
	,-0.047537137
	,0.050509032
	,-0.019902322
	,0.0099900244
	,0.024754787
	,-0.068576321
	,0.033937208
	,0.028934477
	,-0.064900294
	,-0.024611022
	,-0.011742703
	,0.048777018
	,-0.02203094
	,-0.030753952
	,-0.014662231
	,-0.033563849
	,0.075564437
	,0.02677347
	,-0.038954429
	,0.054833438
	,0.0082142381
	,-0.014565829
	,-0.022912093
	,0.021941228
	,0.031817377
	,-0.0020403033
	,0.048790742
	,-0.065997124
	,-0.031675357
	,0.049960237
	,-0.035939563
	,0.038346197
	,-0.081281543
	,-0.037247282
	,-0.014593758
	,0.044167276
	,0.089663126
	,-0.074395172
	,-0.0075984248
	,0.051009778
	,0.011606776
	,0.0025474608
	,-0.041496515
	,-0.0080417506
	,-0.067830145
	,-0.056504633
	,-0.02357162
	,-0.053097863
	,-0.0257941
	,0.0048270863
	,0.018228117
	,0.072692789
	,-0.063285954
	,-0.030765131
	,0.038930323
	,0.018849805
	,0.01957497
	,0.00081062509
	,-0.00890087
	,0.0012948763
	,0.053143535
	,-0.0074557704
	,-0.031189086
	,0.055298734
	,-0.055815112
	,-0.019249896
	,-0.023430545
	,-0.063554138
	,0.015291747
	,-0.0070549594
	,0.041972473
	,-0.014874855
	,0.0023338681
	,-0.031643193
	,0.028116595
	,0.045428872
	,-0.052527647
	,-0.031431448
	,-0.039152663
	,-0.0079997759
	,0.0087788319
	,0.0089403978
	,-0.035732865
	,0.04319296
	,0.014496304
	,0.058153458
	,0.013344167
	,0.020817123
	,0.022154054
	,-0.01294504
	,-0.027081344
	,0.0029134378
	,0.039319724
	,0.026317369
	,-0.015934119
	,-0.030297793
	,-0.066578761
	,0.0091556776
	,-0.0036926214
	,0.024401911
	,-0.049384665
	,0.04414548
	,-0.0020850815
	,-0.052632395
	,-0.0634475
	,-0.0050596045
	,-0.0071120225
	,0.034696274
	,-0.044319347
	,-0.075582929
	,0.040701982
	,0.026800113
	,0.070836022
	,-0.015585091
	,-0.054648489
	,0.043577667
	,0.068351232
	,0.03854778
	,0.011031905
	,0.011078912
	,0.021277962
	,0.029573431
	,0.052122712
	,0.02995112
	,0.0027898245
	,0.022267235
	,0.028152065
	,-0.01765139
	,0.018951364
	,-0.025632894
	,-0.012962121
	,0.015111278
	,-0.011342887
	,-0.014482314
	,-0.070234068
	,0.02401113
	,-0.074707188
	,-0.033013243
	,-0.012679856
	,-0.017278071
	,-0.083408423
	,0.016005272
	,-0.024056084
	,-0.030048998
	,0.03499648
	,-0.013718366
	,0.025754763
	,-0.044909582
	,-0.0076156608
	,0.030666614
	,-0.036027197
	,0.058076032
	,0.016833989
	,0.023540568
	,0.045308229
	,0.0059560281
	,0.018900311
	,-0.015400011
	,0.061679605
	,-0.061776686
	,0.0059412583
	,0.038845085
	,0.051069684
	,-0.007740187
	,-0.052530169
	,-0.0025720389
	,0.0011552245
	,-0.014684009
	,-0.0034113023
	,0.037630856
	,-0.045829598
	,0.021901717
	,0.0023263781
	,-0.016682336
	,-0.0049252608
	,-0.04684322
	,-0.054149814
	,-0.050944764
	,-0.024574788
	,-0.043178756
	,-0.0640678
	,0.011580297
	,-0.04711204
	,-0.040288612
	,0.03263678
	,-0.075608708
	,-0.03806334
	,-0.019619107
	,-0.025995478
	,-0.04823222
	,-0.03446557
	,-0.058159318
	,0.016521046
	,0.012601093
	,0.039257005
	,0.019056076
	,-0.0195329
	,0.020348305
	,0.05110633
	,-0.038253959
	,0.01520081
	,0.045692775
	,0.019897928
	,0.0079867477
	,0.042603683
	,0.016478768
	,-0.0057271109
	,0.027638506
	,0.0096045639
	,-0.035069138
	,-0.023559744
	,0.0018653774
	,0.043403417
	,-0.047711037
	,-0.047144905
	,-0.00020688021
	,-0.041443858
	,-0.037603647
	,0.03293173
	,0.038055111
	,-0.020645536
	,0.038228676
	,-0.037698962
	,0.0086939549
	,0.040349148
	,-0.02067191
	,-0.0017496564
	,-0.0042836457
	,-0.050390888
	,-0.03309102
	,-0.0093556093
	,0.0092655243
	,-0.023303917
	,-0.020146122
	,0.0060736695
	,0.02371756
	,-0.072654627
	,-0.0052627581
	,0.028469261
	,0.0070116427
	,-0.042259116
	,0.017488075
	,0.023720529
	,0.046650372
	,-0.015436792
	,0.0026176732
	,0.000649279
	,0.02835289
	,-0.061086111
	,0.0025536949
	,-0.0089249695
	,0.02664018
	,0.041469961
	,0.008892905
	,-0.06969972
	,0.020739585
	,0.066332981
	,-0.021256471
	,0.0022338545
	,0.02190711
	,0.010254036
	,0.019946022
	,-0.028155593
	,0.026953245
	,0.0079763308
	,0.034568563
	,0.034089338
	,-0.030497063
	,0.054511197
	,0.010826446
	,-0.015834719
	,-0.010969488
	,-0.0594773
	,0.033783447
	,-0.056984156
	,-0.056446392
	,0.0028436545
	,-0.074858531
	,-0.068941288
	,-0.024930391
	,-0.029913044
	,-0.089267433
	,-0.044063389
	,-0.037104268
	,-0.069190837
	,-0.084019445
	,-0.11018048
	,-0.028002243
	,-0.0049802987
	,-0.045428652
	,-0.048523743
	,0.0093228333
	,-0.028026497
	,-0.01586093
	,0.015512306
	,0.029395154
	,-0.0064169616
	,-0.023070669
	,0.017304171
	,0.024061361
	,-0.011915782
	,-0.052092381
	,0.039347932
	,0.058333412
	,-0.029819129
	,-0.037177935
	,-0.063526854
	,0.056669634
	,0.03343102
	,0.02832498
	,-0.048437055
	,-0.03713759
	,0.03704337
	,-0.025469871
	,0.0080341734
	,-0.012387768
	,-0.01816632
	,0.01449651
	,0.045333404
	,-0.0072165239
	,0.004076317
	,0.0013665372
	,-0.045393746
	,-0.022673104
	,0.038141962
	,0.043452229
	,0.084833167
	,0.038991835
	,-0.080331966
	,0.047109269
	,0.099675387
	,0.017267045
	,-0.015380801
	,-0.042147622
	,0.04624347
	,-0.0058165248
	,0.025637949
	,-0.088024691
	,-0.038132563
	,0.024673382
	,0.0082345121
	,-0.03849601
	,0.0330901
	,0.0091530243
	,-0.027360374
	,0.030903598
	,-0.025834853
	,0.026620293
	,-0.024943121
	,-0.034198646
	,-0.013048298
	,-0.0052601104
	,0.036514085
	,-0.023716439
	,0.043732479
	,-0.040146437
	,0.042897481
	,0.047470659
	,0.0098185809
	,-0.026935793
	,0.038694873
	,-0.04212261
	,-0.02560948
	,0.014463001
	,-0.022762902
	,0.049129251
	,0.03841427
	,0.04205215
	,0.0052247834
	,-0.023436517
	,-0.041874986
	,0.0079361424
	,-0.0008853692
	,-0.00868802
	,0.0024338842
	,0.023837829
	,-0.042567033
	,0.0077510369
	,-0.0251036
	,-0.019202663
	,0.023592742
	,0.068968832
	,0.073010549
	,-0.064042531
	,-0.048291087
	,0.023106264
	,-0.013339782
	,-0.0086952792
	,-0.063440733
	,-0.054524474
	,0.03004433
	,0.032212488
	,-0.052015688
	,0.040257934
	,0.02483822
	,-0.056228604
	,0.011313189
	,0.016779972
	,-0.0099540949
	,0.047374863
	,0.037777189
	,0.074709587
	,-0.034159023
	,-0.0030018187
	,0.042205483
	,0.041867588
	,0.034516487
	,-0.012089528
	,-0.020724969
	,0.0062401076
	,-0.012397131
	,0.001335913
	,0.0064570829
	,0.03811061
	,-0.027341906
	,-0.06077797
	,-0.044279937
	,0.014434381
	,-0.053420555
	,0.024540976
	,-0.041254513
	,-0.0395875
	,-0.04852261
	,-0.056344442
	,0.041856747
	,0.0012894663
	,-0.0073346063
	,0.032691158
	,0.0053718486
	,-0.03788539
	,-0.04710272
	,0.019200865
	,0.04680286
	,-0.028994821
	,-0.044346958
	,0.0092451209
	,0.085591927
	,-0.030360151
	,-0.059192479
	,-0.00083228707
	,0.049159821
	,-0.0039181318
	,-0.051926471
	,-0.021374002
	,0.001234667
	,0.0057225702
	,0.015394695
	,0.04534683
	,-0.0029282519
	,0.043327279
	,-0.081441917
	,0.056697935
	,-0.021909002
	,0.0082923127
	,-0.043787453
	,-0.0019310327
	,0.095796824
	,-0.011967327
	,-0.078747444
	,0.036581557
	,0.053803541
	,0.039076596
	,0.0243506
	,-0.049883734
	,-0.022266435
	,-0.025679829
	,0.017269
	,-0.009453157
	,0.021676524
	,0.029344711
	,-0.00086229097
	,-0.040893834
	,-0.030553902
	,-0.045783736
	,-0.027928183
	,0.054219943
	,-0.018064231
	,-0.020553933
	,0.062535442
	,0.020235706
	,0.037783943
	,0.043592785
	,0.060562011
	,-0.032917015
	,-0.034407105
	,-0.03560517
	,0.041565258
	,-0.017798655
	,-0.068315595
	,-0.018729722
	,0.054752372
	,0.060000278
	,-0.0079735937
	,0.0430265
	,-0.0078116418
	,0.034824964
	,0.026214339
	,-0.065676242
	,-0.044924464
	,0.005610608
	,0.075183421
	,0.03602938
	,0.0057891966
	,0.016080538
	,0.056486413
	,0.01512528
	,-0.034556892
	,-0.015823333
	,0.071893185
	,0.017885674
	,0.013495811
	,-0.016795395
	,0.038535763
	,-0.014002714
	,-0.0035641543
	,-0.0016865022
	,-0.073118925
	,0.046466894
	,0.03213105
	,0.061004777
	,-0.054104097
	,0.017674593
	,-0.0098598832
	,-0.022430995
	,0.010009509
	,-0.074260786
	,-0.1003135
	,-0.018196778
	,0.094411448
	,-0.10234772
	,-0.050737105
	,-0.089320607
	,0.0906412
	,0.02721237
	,-0.013811368
	,-0.061966047
	,0.044348862
	,0.039536554
	,-0.060845464
	,-0.01016295
	,0.016843202
	,0.073430836
	,0.043795113
	,0.011861903
	,0.049648214
	,0.040560298
	,0.02374522
	,0.02891537
	,0.018261945
	,0.044408705
	,0.01546396
	,-0.015471055
	,-0.010670287
	,-0.0057472051
	,-0.06781517
	,0.0052233641
	,0.014567786
	,-0.02426694
	,0.0064963391
	,-0.0799148
	,-0.061064105
	,-0.0066794991
	,0.0072487975
	,-0.077850305
	,-0.021181913
	,-0.0063247266
	,0.054445583
	,0.022925055
	,-0.027402019
	,0.054520104
	,0.026324594
	,0.057209313
	,-0.040582228
	,-0.00447846
	,0.0010752376
	,-0.041361932
	,0.0047803256
	,-0.05626614
	,-0.014237205
	,-0.055681914
	,0.0088218013
	,-0.054862645
	,-0.0029275978
	,-0.051699478
	,-0.028759472
	,-0.092410021
	,-0.033500966
	,-0.0012112575
	,-0.07349509
	,-0.018730901
	,0.019033903
	,0.023880208
	,0.013622398
	,-0.022122055
	,0.022624956
	,0.042084742
	,0.037821863
	,0.023780672
	,0.013584697
	,-0.017617973
	,0.020483423
	,-0.049931604
	,0.0054029408
	,0.032263592
	,0.031563882
	,-0.024720758
	,-0.022642072
	,-0.035678692
	,0.042878877
	,-0.017212657
	,-0.060293972
	,-0.067364648
	,-0.022453558
	,-0.028236924
	,0.0038086164
	,-0.0090465769
	,-0.034365285
	,0.011901298
	,-0.028318673
	,0.016473539
	,0.0168305
	,-0.021471526
	,-0.0089996532
	,-0.03057128
	,0.011814376
	,-0.0028591857
	,-0.045580976
	,-0.061442606
	,-0.058161888
	,-0.041947138
	,0.0043312758
	,-0.090520114
	,-0.063914329
	,-0.047200173
	,-0.038204946
	,-0.018558539
	,0.060666464
	,-0.025321467
	,0.071181096
	,-0.0022925087
	,0.023657778
	,0.041734949
	,-0.0097987605
	,0.049572043
	,-0.025552444
	,-0.069030553
	,-0.037717063
	,-0.024943996
	,0.04324032
	,-0.034016561
	,0.035221551
	,-0.02400477
	,-0.050352912
	,0.019781332
	,-0.015166438
	,-0.0026807936
	,-0.013531799
	,-0.065369263
	,0.0023874352
	,0.042957917
	,0.0042096791
	,-0.044258315
	,0.050695766
	,-0.0088332705
	,0.05437354
	,0.013894898
	,-0.043369804
	,0.045822695
	,-0.0057815304
	,0.029073969
	,0.0034448507
	,0.026935754
	,0.051798664
	,-0.041009717
	,0.032101955
	,0.024052911
	,0.019550925
	,-0.056168612
	,0.02170114
	,-0.03094941
	,0.045135889
	,-0.003507399
	,0.00013058087
	,-0.010773312
	,-0.034842741
	,-0.040042218
	,0.041655242
	,-0.045430917
	,0.023191258
	,0.026999218
	,-0.035096414
	,-0.042244833
	,-0.059528459
	,0.023266248
	,-0.056984819
	,8.8220913e-05
	,-0.03544635
	,-0.043185562
	,0.043373644
	,-0.010265626
	,0.021240832
	,0.024239147
	,-0.043898083
	,-0.0071658418
	,0.047002297
	,0.0081029274
	,-0.0087171774
	,-0.030881632
	,0.0045824666
	,0.013858361
	,0.053344306
	,-0.0021377567
	,0.067819968
	,-0.021702152
	,-0.025867885
	,0.038579307
	,0.017316118
	,-0.024639156
	,-0.0086855367
	,-0.022440724
	,0.030479411
	,0.00392069
	,0.0031827425
	,0.034988306
	,-0.02536408
	,-0.0027215225
	,-0.038687903
	,-0.032312781
	,-0.023059094
	,0.017634163
	,-0.040747788
	,0.031866785
	,-0.045412131
	,-0.022647724
	,-0.037089046
	,8.8724191e-05
	,0.023692131
	,0.042375289
	,-0.015601046
	,0.030863546
	,0.031326324
	,0.061123423
	,0.011790543
	,0.050333172
	,0.011091253
	,-0.015841959
	,0.042075194
	,0.021429969
	,0.0021878316
	,0.045381933
	,-0.0097464258
	,0.0081988443
	,0.062128842
	,0.010893773
	,-0.055440769
	,0.00857001
	,0.028672339
	,-0.061544895
	,-0.076491266
	,-0.034724236
	,0.029870534
	,-0.055173628
	,0.0047991779
	,0.069400489
	,0.044387467
	,-0.01151377
	,0.030405145
	,0.0054622684
	,0.066706456
	,-0.058381669
	,0.019578896
	,-0.059238497
	,0.0065032803
	,0.058189474
	,0.03553319
	,0.027423251
	,-0.012455733
	,0.02324507
	,-0.047919556
	,-0.013773157
	,0.054603864
	,0.028920991
	,0.0016953271
	,0.0025575443
	,-0.047616169
	,-0.074810781
	,-0.031342618
	,-0.030590381
	,-0.050097551
	,-0.049901243
	,0.0094014071
	,-0.039328367
	,-0.061291061
	,-0.025589796
	,-0.070766181
	,0.050923605
	,0.050015505
	,0.02226536
	,0.049905781
	,-0.019825131
	,0.03204276
	,-0.03622885
	,-0.016895665
	,0.048391793
	,0.062070448
	,0.019004708
	,-0.026791671
	,-0.038225062
	,-0.0027307468
	,0.069482878
	,-0.0038716667
	,-0.01941913
	,-0.026009087
	,-0.014000562
	,0.03163857
	,-0.030395323
	,0.080896825
	,-0.040632
	,0.040847648
	,0.049563747
	,-0.00091733603
	,0.024673086
	,0.038753204
	,-0.049066588
	,0.0035395874
	,0.04251647
	,-0.0078541376
	,-0.016476404
	,-0.017208457
	,0.0038418949
	,0.070724636
	,-0.019867962
	,0.025653103
	,-0.0035193788
	,-0.013613985
	,-0.033643343
	,-0.030354716
	,0.030877363
	,0.042888131
	,0.02717693
	,-0.0089114849
	,0.018118683
	,0.037543468
	,-0.014535503
	,-0.053543545
	,-0.010617397
	,0.0093641309
	,0.03310876
	,0.067537308
	,-0.058674481
	,0.016135763
	,0.011486672
	,-0.037639044
	,0.0021692137
	,0.050385784
	,0.044279415
	,-0.020913336
	,-0.023389813
	,0.00040481996
	,0.00034807937
	,-0.041773867
	,0.046417851
	,-0.040680174
	,0.033533461
	,-0.050663449
	,-0.045954131
	,-0.0059377234
	,-0.024181172
	,0.014017886
	,0.0049467715
	,0.014541166
	,0.0010691332
	,-0.046008009
	,0.022684384
	,-0.041108735
	,-0.045535136
	,-0.027743129
	,-0.0069984645
	,-0.010506139
	,-0.035741191
	,0.022994885
	,0.018193264
	,-0.064753525
	,-0.0054362305
	,-0.055451579
	,-0.024338605
	,0.0065854504
	,-0.019753022
	,0.041466519
	,-0.0059582936
	,-0.0068996851
	,0.015512979
	,0.020103475
	,0.0053733294
	,0.044018529
	,0.034051895
	,-0.041923665
	,0.028584579
	,-0.010301542
	,-0.0043434091
	,0.01908063
	,0.0071039186
	,0.049146269
	,0.023335462
	,-0.014272497
	,0.04161505
	,-0.021891564
	,-0.049925625
	,-0.054845162
	,0.018501647
	,0.056616213
	,0.038760014
	,0.051955823
	,0.040345598
	,0.025721321
	,0.034607649
	,0.060937122
	,0.079298325
	,0.04866631
	,0.018018458
	,-0.026082987
	,0.017639792
	,0.0099356622
	,-0.004120585
	,-0.0032350256
	,-0.0046501039
	,-0.023512717
	,0.035986479
	,0.021761039
	,0.01736453
	,0.025103232
	,-0.030965757
	,0.036650058
	,-0.030915082
	,-0.04073358
	,-0.033910468
	,-0.021020336
	,-0.0043580704
	,0.001391386
	,-0.00013595962
	,0.029405011
	,-0.055083774
	,-0.041380279
	,0.020786734
	,0.038494889
	,0.0574402
	,-0.065909535
	,0.0031881717
	,0.026316028
	,0.04984083
	,0.0047717015
	,0.0129318
	,0.034937873
	,-0.047677979
	,-0.05834198
	,-0.011822064
	,-0.029210879
	,-0.050544318
	,-0.07785631
	,-0.024408894
	,-0.029240919
	,-0.0014412795
	,-0.038813371
	,-0.030353853
	,0.017056985
	,-0.014176073
	,-0.0071917535
	,0.013660189
	,0.00687165
	,-0.046784155
	,-0.026868751
	,-0.029330013
	,0.0048514009
	,0.0016688773
	,-0.0036998177
	,-0.04057233
	,-0.027100127
	,-0.037493315
	,0.047738582
	,0.015655998
	,-0.045510244
	,0.035697743
	,-0.029303269
	,0.0396469
	,0.05180376
	,0.057720922
	,0.030516315
	,-0.044658754
	,0.016215518
	,-0.02382526
	,0.050122138
	,-0.03813345
	,0.036061704
	,0.039482437
	,0.012187335
	,-0.035420761
	,0.028802749
	,-0.051736109
	,-0.054292928
	,0.040482689
	,0.061865963
	,0.054551188
	,-0.068975322
	,-0.041596692
	,0.058251854
	,0.03889636
	,-0.033994891
	,0.042642523
	,0.008927268
	,0.034929417
	,0.010185816
	,0.04742403
	,0.05400287
	,0.041799948
	,0.037464529
	,-0.014492863
	,-0.013538554
	,0.044142976
	,0.02299295
	,-0.02906861
	,-0.026801871
	,0.00014681606
	,-0.027182119
	,-0.035565794
	,0.053479157
	,-0.069105409
	,0.039001439
	,0.0624276
	,0.07361687
	,0.025472656
	,-0.00077661162
	,0.03485395
	,0.023174454
	,-0.027681215
	,-0.077984728
	,-0.036029443
	,-0.0060670022
	,-0.0035655643
	,-0.018035289
	,-0.043994088
	,-0.026895737
	,-0.037834775
	,-0.072906077
	,-0.027240146
	,0.0720458
	,0.031342722
	,0.055034477
	,-0.074850164
	,0.030721724
	,0.045321591
	,-0.013076026
	,-0.030166063
	,-0.0048723514
	,0.058593091
	,-0.016503144
	,-0.042283747
	,-0.081494272
	,-0.063965343
	,0.041388988
	,0.038008031
	,0.017479029
	,-0.037689682
	,0.0041277232
	,-0.055781968
	,-0.00017778183
	,0.046284609
	,-0.022052845
	,-0.015008479
	,-0.043715525
	,0.0096125072
	,-0.0032153297
	,-0.043181006
	,-0.0711757
	,-0.01293133
	,0.081965983
	,-0.022746304
	,-0.047040038
	,0.0029887063
	,0.023969535
	,-0.033215221
	,-0.055770036
	,0.029235383
	,0.027118856
	,-0.015970662
	,0.0018852045
	,-0.056969389
	,-0.036319077
	,-0.018631212
	,0.017750707
	,0.014022539
	,0.025584564
	,0.042524491
	,-0.023536747
	,-0.010382405
	,0.0066741244
	,0.016793085
	,0.032022163
	,-0.0047526695
	,0.019798921
	,0.0081252391
	,-0.036056463
	,0.0088734142
	,-0.044979606
	,0.023265973
	,0.0055833184
	,-0.053780388
	,0.021726461
	,-0.038722049
	,-0.0090316609
	,-0.046330653
	,0.026825136
	,-0.027468011
	,-0.036674596
	,0.045604385
	,-0.052581836
	,0.018424295
	,-0.049167421
	,0.05309755
	,0.012261664
	,-0.026910752
	,-0.071148552
	,-0.042117361
	,-0.0050824732
	,0.037219275
	,-0.016256237
	,0.043162227
	,-0.069331288
	,0.037460178
	,0.070478149
	,0.020266902
	,-0.079519443
	,-0.011731992
	,-0.038694214
	,-0.021879509
	,-0.023616558
	,-0.027461922
	,-0.05084759
	,-0.063786283
	,0.015428859
	,-0.0838895
	,-0.065798871
	,-0.12096362
	,-0.089159913
	,0.056690875
	,0.0072479704
	,-0.039849941
	,-0.10003586
	,0.040643837
	,-0.0314125
	,0.065467171
	,-0.05415054
	,-0.023567285
	,0.040829074
	,0.070167951
	,-0.052834574
	,-0.042976808
	,-0.0008502641
	,-0.047656704
	,0.046725117
	,0.047152247
	,-0.010417988
	,0.026034523
	,-0.038520481
	,0.020518953
	,0.01568239
	,-0.076720655
	,-0.026078489
	,-0.018340873
	,0.036024991
	,-0.0051208464
	,0.029395044
	,-0.052637406
	,-0.00081858726
	,-0.037145451
	,0.0064316872
	,0.017690161
	,-0.072253644
	,-0.025622884
	,-0.071329489
	,-0.060403109
	,0.0018122493
	,0.0055478946
	,0.019758042
	,-0.0079518314
	,-0.0073878639
	,0.036663357
	,-0.015336249
	,-0.026783418
	,0.0059448974
	,-0.0043354831
	,-0.013141737
	,0.051465765
	,0.04673256
	,-0.034845296
	,-0.02125809
	,-0.025299108
	,0.012735366
	,0.07625328
	,-0.0030471997
	,0.000934964
	,0.012569139
	,-0.060580321
	,-0.019711751
	,0.044365682
	,-0.014540402
	,-0.025769867
	,-0.047731128
	,0.032554496
	,0.03399986
	,-0.043175563
	,-0.01017384
	,0.0061258064
	,-0.080476344
	,0.04978779
	,0.0048861834
	,0.05257871
	,-0.0872142
	,-0.045568068
	,-0.014494156
	,0.026888967
	,-0.034003984
	,0.039457224
	,0.031398695
	,-0.0048695714
	,0.012033341
	,-0.0021469221
	,0.0030184642
	,-0.02100895
	,-0.037142023
	,-0.034226883
	,-0.059617054
	,-0.041998584
	,-0.062594943
	,-0.060897976
	,-0.079275645
	,-0.078486212
	,0.022143761
	,0.033880241
	,-0.044723433
	,-0.05616048
	,-0.046135593
	,-0.05871493
	,-0.032302089
	,0.040288869
	,-0.036045205
	,-0.021906819
	,-0.013021733
	,-0.042708289
	,0.043437473
	,0.0055446364
	,-0.071410857
	,-0.022704406
	,-0.018397426
	,-0.013023308
	,0.055662125
	,-0.043256395
	,-0.050753035
	,0.0097000729
	,0.016063282
	,0.020906569
	,-0.070776068
	,-0.032653287
	,0.072200462
	,-0.044367746
	,-0.029396031
	,-0.084463328
	,0.059336226
	,0.0558323
	,-0.0817714
	,-0.095835574
	,0.019324191
	,-0.011256741
	,0.031362765
	,-0.085035086
	,-0.016242774
	,0.010470588
	,-0.053714931
	,-0.065567352
	,-0.072734974
	,-0.051543731
	,-0.034835421
	,-0.014255109
	,-0.019897932
	,-0.057646878
	,-0.0011778835
	,-0.051134266
	,0.013303978
	,0.037777077
	,-0.011958387
	,0.031526837
	,-0.015646774
	,0.045206521
	,-0.022020275
	,-0.069442056
	,-0.039477553
	,-0.060468968
	,-0.02693619
	,0.055315055
	,-0.036173392
	,-0.072676949
	,0.060796384
	,-0.048868939
	,-0.04475503
	,-0.0047890157
	,-0.0062521221
	,0.015761955
	,-0.04548458
	,0.0084962957
	,0.02451089
	,0.037105467
	,-0.019627303
	,-0.022912363
	,-0.022949765
	,-0.013859219
	,-0.0035926774
	,0.057527605
	,-0.00045392374
	,-0.028250804
	,0.048583787
	,0.040023729
	,-0.010282281
	,-0.0091029527
	,-0.033362795
	,0.053415872
	,-0.0325978
	,-0.0088899285
	,0.035518359
	,0.078964636
	,-0.02709136
	,-0.04847037
	,-0.056611318
	,0.075061113
	,0.030045742
	,0.0019843192
	,-0.031950958
	,-0.045229029
	,0.027049394
	,0.084248878
	,-0.0175792
	,0.012189392
	,-0.06584391
	,0.061794072
	,0.077347919
	,0.0064277356
	,0.016647859
	,0.041375365
	,0.047997013
	,0.040223159
	,-0.0626349
	,0.042936176
	,0.03196932
	,0.017448358
	,-0.01437813
	,-0.029923666
	,-0.017533986
	,-0.038923826
	,0.062467374
	,0.0061492859
	,-0.033864647
	,-0.00065513776
	,-0.023271255
	,0.0414377
	,0.0084467484
	,0.03062959
	,-0.0097916005
	,0.01478045
	,0.024449412
	,-0.0056595048
	,0.040091891
	,-0.037101671
	,0.015755236
	,-0.035540655
	,-0.041102227
	,-0.0030442821
	,-0.026071623
	,0.0043080519
	,-0.036643349
	,-0.060337976
	,0.049118109
	,0.057562172
	,-0.042866651
	,-0.089564942
	,0.032656178
	,0.0036443693
	,-0.037702348
	,-0.066994891
	,-0.068009637
	,-0.0014210679
	,-0.024864072
	,0.0063614752
	,-0.036675911
	,-0.0685868
	,-0.019047521
	,-0.02088581
	,0.0014293186
	,-0.0021192357
	,-0.074612364
	,-0.029150134
	,-0.048581496
	,-0.0026508479
	,-0.013731369
	,0.024419913
	,0.02781019
	,0.025819903
	,-0.015608858
	,-0.055121824
	,-0.016774869
	,0.028072825
	,0.0030029155
	,-0.0081678526
	,0.00687582
	,-0.0085238907
	,-0.019623984
	,0.0057877563
	,-0.03580391
	,-0.037234426
	,-0.022641817
	,-0.038611535
	,0.0036090387
	,0.019560831
	,0.053194843
	,0.049043473
	,-0.030893162
	,0.031280261
	,0.017353408
	,0.030567039
	,-0.052985005
	,0.026080258
	,-0.00053956144
	,-0.018600615
	,-0.007467506
	,-0.034603637
	,0.091840737
	,0.025556115
	,0.016046196
	,-0.039276961
	,-0.074719526
	,0.08042831
	,0.057591423
	,0.0019150393
	,-0.10154514
	,0.0047493502
	,0.013611828
	,-0.059131064
	,-0.0038815092
	,-0.071333505
	,-0.07133615
	,0.0017358928
	,-0.060043529
	,-0.10809477
	,-0.0038781592
	,0.053108376
	,0.014561074
	,0.02439959
	,0.015048753
	,0.0042581349
	,0.049679343
	,-0.02672866
	,-0.021015394
	,0.0079434877
	,-0.05720856
	,0.089322388
	,0.044172078
	,-0.02214135
	,0.013265721
	,-0.036156986
	,0.027817374
	,0.061358538
	,-0.067647725
	,0.0011770639
	,-0.080332682
	,0.075464055
	,0.0014815499
	,-0.056337684
	,-0.037070114
	,0.013968065
	,0.001457487
	,-0.055806763
	,-0.07289131
	,0.013629352
	,0.03806844
	,0.018270046
	,0.031565495
	,-0.038651444
	,-0.0019896284
	,0.048170004
	,0.016523026
	,0.027067071
	,0.066880606
	,0.017675968
	,0.042477407
	,-0.018646874
	,0.010694729
	,0.0018342515
	,0.029850645
	,0.059804644
	,-0.0060650455
	,-0.0027642059
	,-0.042723484
	,-0.019965036
	,-0.038213342
	,-0.027256051
	,0.058448091
	,0.0066662892
	,-0.024374632
	,0.028876336
	,-0.047785863
	,0.0031991675
	,-0.079248033
	,-0.02869009
	,0.041047432
	,-0.025235258
	,-0.046349347
	,0.010305384
	,0.027464708
	,0.0087238308
	,-0.0052096564
	,-0.017951926
	,0.021664014
	,0.051263586
	,0.071120813
	,-0.036131956
	,-0.0087779872
	,0.020271312
	,0.066056333
	,0.068270229
	,0.010308708
	,-0.033804152
	,0.050080575
	,-0.054520067
	,0.027166707
	,-0.049192175
	,-0.079055853
	,0.094471827
	,-0.022983775
	,-0.018675981
	,-0.030048052
	,0.006691488
	,0.10261846
	,0.059491213
	,0.014934073
	,-0.088655747
	,0.019741168
	,0.025166839
	,-0.036688585
	,0.047848526
	,-0.081865884
	,0.014635042
	,-0.0092273233
	,-0.046596572
	,0.021605456
	,-0.031834073
	,0.025092548
	,-0.041241653
	,-0.060382266
	,-0.049415085
	,-0.036992345
	,-0.014245439
	,0.013669902
	,-0.04453237
	,-0.025748512
	,-0.11042194
	,0.02499219
	,0.00135478
	,-0.02185763
	,-0.013387615
	,-0.10049278
	,0.065022275
	,0.086495675
	,-0.051303722
	,0.014501918
	,-0.012622163
	,0.026748361
	,0.0052294871
	,0.036101919
	,-0.064782239
	,-0.035548445
	,-0.011821964
	,-0.044750355
	,-0.0044032214
	,0.02320879
	,-0.040607054
	,0.016281353
	,-0.063894287
	,-0.0396686
	,0.010639975
	,0.010797542
	,0.054353822
	,0.028122324
	,-0.010430106
	,-0.011625454
	,0.026662912
	,0.014359634
	,-0.048164681
	,0.029685544
	,0.00032990347
	,0.0022047153
	,0.030012643
	,-0.038088154
	,0.025296649
	,-0.061350647
	,0.054535702
	,-0.02361723
	,0.01516709
	,0.011784291
	,0.063983396
	,0.066864036
	,0.010201418
	,0.056907378
	,-0.023366908
	,-0.0071458584
	,0.030490145
	,0.022418693
	,0.0335664
	,-0.05576738
	,0.010778028
	,-0.01307617
	,-0.063509807
	,-0.0044431663
	,-0.055799417
	,0.0044914777
	,-0.0475529
	,-0.037976023
	,-0.059458829
	,-0.05057776
	,-0.02892063
	,0.015409506
	,0.0042355834
	,-0.0096382592
	,0.026339933
	,0.015429676
	,-0.017235447
	,-0.011260349
	,0.017645884
	,-0.034101408
	,0.031455778
	,-0.044126838
	,-0.01091059
	,0.020490317
	,0.038592212
	,-0.01684358
	,-0.081608914
	,-0.038045868
	,-0.048000012
	,-0.0040966971
	,0.034246784
	,0.0221125
	,-0.012557648
	,-0.0572923
	,0.0028263845
	,-0.02935618
	,0.038082857
	,-0.036294382
	,-0.029164802
	,0.048304625
	,-0.020229237
	,-0.0080160946
	,-0.0412692
	,-0.041178778
	,0.033905618
	,0.0022332654
	,0.019429967
	,-0.045225084
	,0.0061635422
	,-0.026825782
	,0.0056833406
	,-0.0007532711
	,-0.017286647
	,-0.059746698
	,0.0049113673
	,-0.0092389509
	,0.00052055006
	,-0.048224848
	,-0.041102603
	,-0.00063100632
	,0.0077818832
	,0.021638451
	,0.048930254
	,0.036835339
	,0.0040387521
	,0.0097191511
	,-0.025025221
	,-0.00089546148
	,-0.030122595
	,0.0077245967
	,0.043898642
	,0.016490163
	,-0.052138854
	,0.02385916
	,-0.028493196
	,0.044674642
	,-0.0013740003
	,0.070723213
	,0.046775926
	,0.027463039
	,0.022706484
	,0.017012568
	,0.052612677
	,-0.044057429
	,0.010506665
	,0.019385947
	,-0.072418846
	,-0.015284666
	,0.032949161
	,-0.048503626
	,-0.013302895
	,-0.00039365157
	,0.012239222
	,0.0073985192
	,-0.014455701
	,0.035440456
	,0.010426594
	,0.026125433
	,0.021727415
	,-0.031113062
	,-0.0414002
	,-0.0044812509
	,-0.071636222
	,-0.011761306
	,0.00044871718
	,0.024711546
	,-0.032089271
	,-0.043752726
	,0.058847986
	,-0.00834084
	,0.028524166
	,-0.0055299024
	,-0.050719157
	,-0.02417681
	,-0.05193701
	,-0.014350234
	,0.015455796
	,0.023528771
	,-0.065334089
	,-0.033835508
	,0.039033871
	,-0.040026184
	,-0.028312432
	,0.032755993
	,0.042240843
	,0.031806074
	,-0.053148396
	,-0.022381689
	,-0.026346676
	,-0.014182992
	,-0.020394539
	,-0.043981906
	,-0.0037794381
	,0.021110121
	,-0.039443184
	,0.047749661
	,0.050065741
	,0.00149733
	,-0.048080191
	,0.0611402
	,0.014250866
	,-0.034308597
	,-0.052023336
	,-0.0060828468
	,-0.017162153
	,0.042291343
	,0.01324672
	,0.011631247
	,0.0013375621
	,0.052251138
	,-0.024381796
	,0.0035963608
	,0.0083285365
	,-0.0014759101
	,0.0062566767
	,0.010170246
	,0.035676025
	,-0.040985908
	,-0.082417212
	,-0.056020487
	,-0.00948217
	,-0.014628385
	,0.027052864
	,0.038025051
	,-0.02074788
	,0.046839088
	,0.090113193
	,-0.027643932
	,0.027408581
	,0.0074786837
	,-0.049130026
	,0.014468517
	,0.011290127
	,-0.094158508
	,-0.052626651
	,0.00413731
	,0.077304721
	,0.062854104
	,0.017025767
	,-0.042523429
	,-0.03379602
	,-0.044528924
	,0.018083017
	,0.058223378
	,0.042769309
	,-0.021408223
	,-0.016585309
	,0.057541505
	,-0.006353905
	,0.068459809
	,0.02473017
	,0.031276897
	,-0.0038209807
	,-0.022321992
	,0.019726515
	,-0.039086569
	,0.045851517
	,0.0061204694
	,0.0050382973
	,0.038400136
	,0.01627088
	,-0.041918185
	,-0.0055860123
	,0.0089086024
	,-0.051587455
	,0.012632514
	,-0.022975868
	,-0.031864546
	,-0.026621345
	,-0.050214846
	,-0.0056484845
	,-0.068358079
	,-0.015208851
	,-0.06423524
	,-0.057680454
	,-0.030564379
	,-0.01938789
	,0.043493178
	,-0.018598555
	,-0.0209216
	,0.049581312
	,-0.014924446
	,-0.033192817
	,-0.034042083
	,-0.00069256069
	,-0.013820679
	,0.0019293599
	,-0.029714873
	,0.0088740457
	,-0.014971962
	,-0.037063569
	,0.022570221
	,-0.02749351
	,0.013260634
	,0.025167426
	,-0.046787385
	,-0.013861948
	,0.016424103
	,-0.026482506
	,-0.039073225
	,-0.011087777
	,-0.03889522
	,-0.00022156276
	,0.019509424
	,0.017110307
	,-0.023667485
	,0.043665662
	,-0.030242004
	,0.043889318
	,-0.022178162
	,-0.015360628
	,0.020354707
	,0.015846714
	,0.051607579
	,0.021788165
	,0.031552594
	,0.0075350394
	,-0.045010429
	,0.032203421
	,-0.0099711195
	,0.047346108
	,-0.011900527
	,0.049469773
	,-0.030509794
	,0.02567941
	,0.013231062
	,-0.034739714
	,0.026110012
	,-0.028426507
	,0.028236579
	,0.049401272
	,-0.015691457
	,0.022791533
	,0.0083542764
	,-0.030105671
	,-0.033861123
	,0.015563016
	,-0.03269035
	,-0.014000877
	,-0.036084119
	,-0.050352771
	,0.01169889
	,0.041704964
	,-0.043774616
	,0.0075603342
	,0.010259537
	,-0.0011924489
	,0.0015402472
	,-0.026272308
	,0.040926296
	,-0.01215987
	,-0.044229679
	,-0.018224427
	,-0.028482348
	,0.022611644
	,-0.0039780564
	,0.039381962
	,-0.033930086
	,0.021799905
	,0.016860224
	,-0.0014187037
	,-0.015900351
	,-0.057330664
	,-0.02500128
	,0.030492997
	,0.0058493572
	,0.055332147
	,-0.011993264
	,-0.0076256068
	,0.046823326
	,0.077871464
	,0.085419171
	,0.068851523
	,0.0846459
	,-0.0055971788
	,0.0015041134
	,-0.0014056906
	,0.040866997
	,0.04411862
	,-1.673378e-05
	,-0.067893848
	,-0.012426551
	,0.014055287
	,0.039375354
	,-0.047580145
	,-0.050771479
	,0.023029651
	,0.021215295
	,0.018180806
	,0.020167207
	,-0.055075511
	,-0.056020908
	,-0.044781663
	,-0.014822886
	,-0.040933628
	,0.020213699
	,-0.027813647
	,-0.013786726
	,-0.034006037
	,0.010360995
	,0.010037701
	,-0.034520052
	,-0.0089938054
	,-0.0067379354
	,0.014545529
	,-0.029129313
	,-0.033917271
	,-0.035422936
	,0.03118819
	,-0.03572448
	,-0.054309733
	,-0.0049857586
	,-0.017797265
	,0.023702458
	,0.032234423
	,-0.041633449
	,-0.028410038
	,-0.041174505
	,-0.0155333
	,-0.069058031
	,-0.032004807
	,-0.010645811
	,0.042685743
	,0.014569683
	,-0.046559613
	,-0.051585518
	,0.0056926897
	,-0.044957314
	,0.027954562
	,-0.047910649
	,-0.025946196
	,-0.02234434
	,0.044673588
	,-0.017584087
	,-0.055096377
	,0.014997157
	,-0.050679237
	,-0.063170329
	,-0.044841066
	,-0.049620327
	,-0.012883551
	,0.037807569
	,-0.049679507
	,-0.02279708
	,-0.020641861
	,-0.05493968
	,-0.042570319
	,0.02887591
	,-0.026882941
	,0.021019595
	,-0.053853262
	,0.032973491
	,0.034641933
	,0.026171478
	,0.06134712
	,-0.0059594307
	,0.034549091
	,-0.029917337
	,-0.026152413
	,0.00073415809
	,0.017815869
	,-0.043371785
	,0.030990116
	,-0.0054027941
	,-0.050138555
	,0.063055515
	,0.0059522372
	,-0.052231025
	,-0.0037161491
	,0.011523283
	,-0.0062977113
	,-0.018184012
	,-0.015474466
	,0.024299471
	,-0.0069797365
	,0.039377246
	,0.011903054
	,0.044372462
	,-0.0046550534
	,-0.036727443
	,-0.041582596
	,-0.043833848
	,0.0051829237
	,0.04593268
	,0.015463727
	,0.023074767
	,-0.028218502
	,-0.060753953
	,-0.059927564
	,-0.019946404
	,-0.015530698
	,-0.057984937
	,-0.046670165
	,0.0098753376
	,0.010577902
	,0.016158428
	,0.024158876
	,0.037581652
	,-0.00014985193
	,-0.010065832
	,-0.01391541
	,0.029849183
	,0.046735495
	,-0.01630866
	,0.044896387
	,-0.051797368
	,-0.039577283
	,-0.0054105609
	,0.0049938955
	,-0.018458726
	,0.011039491
	,0.010353833
	,0.010689458
	,-0.030236367
	,-0.057682965
	,0.061234351
	,0.011313343
	,0.024560552
	,-0.048860978
	,-0.061082527
	,0.047974952
	,0.0064250343
	,0.022012647
	,-0.018169118
	,-0.020615516
	,0.058154926
	,-0.016709013
	,-0.0048543322
	,-0.039984148
	,-0.023305003
	,-0.040991955
	,-0.038674623
	,-0.029564431
	,0.028347537
	,0.0074640447
	,0.041364174
	,0.025561675
	,-0.021934655
	,-0.046755362
	,0.012880905
	,0.0068757785
	,-0.0089133093
	,-0.035491738
	,-0.034301542
	,-0.022058476
	,-0.0009582839
	,-0.037060324
	,0.01559108
	,-0.013146383
	,0.001055638
	,-0.010163601
	,-0.03456768
	,0.033357874
	,-0.059006363
	,0.046228543
	,0.0491532
	,-0.017789157
	,0.048422363
	,-0.0072007971
	,0.030962849
	,0.048878621
	,0.056720972
	,0.029124757
	,0.026057262
	,-0.027601993
	,-0.04281991
	,-0.029736996
	,0.034000453
	,0.022332076
	,0.064282075
	,-0.068130419
	,0.0090760235
	,0.034515671
	,0.018171608
	,0.027969474
	,-0.046838716
	,-0.065831862
	,0.012644436
	,-0.047386907
	,-0.030771496
	,0.0040622894
	,-0.0091973888
	,-0.076541074
	,0.0034628422
	,0.038407829
	,0.036988519
	,0.16928415
	,0.19436066
	,0.081129685
	,0.043641526
	,-0.053443518
	,0.068339251
	,0.0032832085
	,-0.0642889
	,-0.022012079
	,-0.0096594188
	,-0.035816111
	,-0.014971736
	,0.015612269
	,-0.0045668222
	,-0.018531112
	,0.050859369
	,-0.051234849
	,-0.003673421
	,0.051726345
	,0.023161585
	,0.030891
	,-0.020351553
	,-0.0013524181
	,0.0081259087
	,0.072327673
	,0.12230092
	,0.12874265
	,0.024306688
	,-0.027531134
	,0.035739779
	,4.3824915e-05
	,-0.027287636
	,0.016616952
	,-0.048648234
	,-0.010246274
	,0.02873851
	,-0.00035420636
	,0.0041340603
	,0.023267591
	,-0.063867584
	,-0.031977069
	,0.076798812
	,0.068416245
	,0.0014079938
	,-0.070476972
	,0.0027638881
	,-0.025086736
	,-0.045522075
	,0.014583914
	,-0.02183635
	,-0.073033594
	,-0.013059094
	,0.02725504
	,-0.0613697
	,0.06145712
	,0.063793592
	,0.037509106
	,-0.03721017
	,-0.032937746
	,-0.029755326
	,0.022422403
	,0.044415031
	,0.027401071
	,-0.038970888
	,0.020602427
	,-0.026396515
	,-0.026846426
	,-0.030171515
	,0.03438215
	,0.028821161
	,0.038477845
	,-0.00077119382
	,-0.019607743
	,-0.024954472
	,0.0922889
	,0.081453018
	,0.041945666
	,-0.011081512
	,0.038577642
	,-0.045376237
	,-0.048486222
	,-0.052985448
	,-0.053978384
	,-0.0025957148
	,-0.059535071
	,0.030370826
	,0.016887132
	,-0.0035334392
	,0.023393942
	,-0.03762329
	,-0.029963471
	,-0.00714287
	,-0.015222988
	,0.0048631313
	,0.024414403
	,-0.01220946
	,-0.02784914
	,0.056420241
	,0.062353212
	,0.026990224
	,0.060208481
	,0.045703135
	,0.059955742
	,0.012484975
	,0.02068614
	,0.058561396
	,-0.03813706
	,-0.069426581
	,0.035144731
	,-0.0225513
	,0.038034793
	,-0.044487681
	,0.02316393
	,0.020250678
	,-0.058048837
	,0.021293182
	,-0.02837511
	,-0.015337594
	,-0.02808016
	,0.00072993169
	,-0.059920546
	,-0.059818324
	,-0.053433247
	,-0.034633167
	,-0.036598962
	,0.054082874
	,0.10455383
	,0.028044002
	,0.0779137
	,-0.031857971
	,0.0049893474
	,-0.0023285307
	,-0.021455748
	,-0.020033725
	,-0.017312152
	,0.035862021
	,-0.0041540856
	,0.038835406
	,0.042075057
	,-0.059412736
	,-0.016925329
	,0.033316325
	,-0.00961324
	,0.013538616
	,-0.0934152
	,-0.037275951
	,0.077682458
	,0.036354762
	,0.0024420512
	,0.076251052
	,-0.098103367
	,-0.07246203
	,0.00797251
	,0.0045329649
	,0.097828969
	,0.1524771
	,0.091590084
	,0.032191586
	,-0.026432324
	,0.014737066
	,0.048327137
	,-0.013069716
	,0.045457888
	,-0.040000919
	,0.024558654
	,0.0057094507
	,-0.011909529
	,0.020110682
	,-0.043141272
	,0.0066152546
	,0.012344184
	,0.017291849
	,-0.056387167
	,-0.060988102
	,0.0057962243
	,0.065722451
	,0.010960709
	,-0.010210298
	,-0.036779493
	,-0.045260914
	,-0.023891307
	,0.0019486896
	,0.0056805913
	,-0.024207292
	,0.04571753
	,-0.0097709559
	,0.0015757978
	,-0.059166506
	,-0.01078655
	,-0.055383772
	,0.014522693
	,0.028818857
	,-0.0024854809
	,-0.061113819
	,0.0042056716
	,-0.041420318
	,0.000747573
	,-0.017668836
	,0.054243866
	,0.061226409
	,-0.060687251
	,-0.067420267
	,-0.0078074248
	,-0.0019965309
	,0.025803257
	,-0.034073412
	,-0.068112314
	,-0.0676525
	,-0.035467479
	,-0.0041715028
	,0.022376591
	,-0.038338829
	,-0.018084129
	,0.0066568442
	,-0.051423144
	,-0.018359095
	,-0.028862298
	,0.0041547352
	,0.036426064
	,-0.021862928
	,0.068260476
	,0.036671519
	,0.036643934
	,-0.044652734
	,0.0053096497
	,-0.0038938152
	,0.04935351
	,-0.017550018
	,-0.056795713
	,-0.059461094
	,0.032010544
	,0.00080812234
	,0.038739603
	,-0.02676384
	,0.016467957
	,-0.056482524
	,-0.019593613
	,0.015814569
	,0.0007063573
	,0.046719715
	,-0.0016180153
	,0.027148237
	,-0.066763863
	,-0.0070717712
	,-0.04631637
	,-0.03527879
	,-0.021569097
	,0.00059972453
	,0.039402034
	,-0.0057208748
	,0.0091229836
	,0.0049272138
	,0.063560762
	,0.053967874
	,-0.0074388077
	,-0.012302842
	,0.011094512
	,0.033407357
	,0.010872171
	,-0.014553251
	,-0.025788862
	,0.029442301
	,0.012862515
	,-0.00721437
	,0.05158098
	,0.031042868
	,0.0051965327
	,-0.025811203
	,0.044326577
	,-0.038823169
	,0.035676647
	,0.035643615
	,-0.03920041
	,0.0626637
	,-0.031282734
	,0.065784194
	,0.034840923
	,-0.014336172
	,0.00059465587
	,-0.038686361
	,-0.054909788
	,-0.0871259
	,-0.05202736
	,-0.031765372
	,0.027174586
	,-0.036852796
	,0.028617205
	,0.033075452
	,-0.016646324
	,0.0075343372
	,-0.038620815
	,0.015689394
	,0.025366686
	,-0.040220678
	,-0.0016348675
	,0.023602013
	,-0.043990061
	,-0.065919779
	,-0.010896496
	,-0.012995488
	,-0.086555108
	,0.0048619462
	,0.022267802
	,-0.021201378
	,0.070513882
	,0.10787326
	,0.096656248
	,0.090381294
	,-0.004468787
	,0.04293048
	,0.0107517
	,-0.020130847
	,0.014577032
	,-0.052963313
	,0.0055620866
	,0.009278086
	,-0.024338542
	,0.0032193796
	,-0.065705918
	,-0.0021885538
	,-0.011501173
	,-0.041832983
	,-0.042006053
	,0.031264305
	,0.020313516
	,-0.032862853
	,0.039225843
	,-0.0068061454
	,-0.01028759
	,0.017985895
	,0.043872211
	,0.0043132692
	,0.0099803759
	,-0.0061776522
	,0.043120146
	,0.029935664
	,0.022467634
	,0.047275946
	,-0.031823747
	,0.016489262
	,0.032564633
	,-0.0090973862
	,-0.021639075
	,-0.057110541
	,0.01446287
	,0.0031159946
	,0.012177357
	,-0.06026135
	,-0.053100944
	,-0.055732675
	,0.045883466
	,0.020145111
	,0.021859439
	,0.039493371
	,-0.065843806
	,-0.033148985
	,0.046357855
	,0.025786374
	,9.4837305e-05
	,0.049486347
	,0.032498121
	,0.011922666
	,0.027930403
	,0.058500037
	,-0.009616591
	,0.046729952
	,0.022912782
	,0.042953733
	,0.066191733
	,0.035048053
	,0.0038113256
	,0.026839113
	,-0.00079196261
	,0.022069408
	,0.030887112
	,-0.0026288079
	,0.058271587
	,0.02232418
	,0.020354239
	,0.020649623
	,-0.0696345
	,-0.00047690797
	,-0.033575092
	,0.0857765
	,-0.098234333
	,0.011367291
	,0.037610341
	,-0.033004794
	,-0.014207899
	,-0.024892438
	,0.0041515334
	,-0.076541424
	,-0.058073267
	,-0.01091947
	,-0.039246883
	,0.036135081
	,0.00087011675
	,-0.10990166
	,-0.049586918
	,0.0033127624
	,-0.037406076
	,-0.059547823
	,-0.016777461
	,0.02905215
	,-0.018064858
	,0.008230024
	,-0.0052403812
	,0.063471109
	,0.043680254
	,-0.049576625
	,0.0036182485
	,-0.0037013369
	,0.016194765
	,0.0070100906
	,-0.066367753
	,-0.028965838
	,-0.0057441019
	,-0.027773852
	,-0.007719181
	,0.060103312
	,-0.033127576
	,-0.068850636
	,-0.020692019
	,0.0046539474
	,0.043756127
	,0.12091511
	,0.052057873
	,0.022130469
	,-0.019907836
	,-0.037781343
	,0.023307059
	,0.0592093
	,-0.012848429
	,0.017124973
	,-0.026383882
	,-0.043748315
	,0.050671328
	,-0.014584564
	,-0.00687863
	,-0.054621506
	,-0.054820854
	,0.028189681
	,-0.014544155
	,0.017782319
	,-0.042194769
	,-0.014682343
	,0.041643839
	,-0.028415143
	,0.0073860283
	,0.073368222
	,-0.012972227
	,-0.0232034
	,-0.014820729
	,-0.055819776
	,-0.030519491
	,0.11519229
	,0.10574699
	,0.025504962
	,-0.016763438
	,-0.03590684
	,0.027696066
	,-0.059951354
	,-0.060600445
	,-0.031853557
	,-0.0095875505
	,-0.029739052
	,0.0014865021
	,0.012902797
	,0.041911442
	,-0.034729991
	,-0.022450382
	,-0.033801705
	,0.02262057
	,-0.029899053
	,-0.040735453
	,-0.030920893
	,-0.051014327
	,-0.024570713
	,-0.058982987
	,-0.0071348893
	,0.030205071
	,-0.029666204
	,-0.05075625
	,0.019377416
	,-0.068696089
	,-0.055920083
	,-0.081087023
	,-0.04705888
	,-0.034612931
	,0.026896453
	,-0.056530703
	,-0.078303918
	,0.0039416719
	,-0.020151358
	,0.036544617
	,-0.023744803
	,-0.10768694
	,0.01524693
	,0.00031372451
	,0.031919528
	,-0.026001135
	,-0.059509482
	,-0.012914168
	,0.03893625
	,-0.052158646
	,-0.066049971
	,-0.0068000974
	,-0.0069033466
	,-0.02898201
	,-0.023764569
	,0.0058963979
	,-0.047947023
	,0.016669419
	,-0.03041227
	,-0.058940627
	,-0.032925744
	,-0.0100347
	,-0.049324166
	,-0.054909308
	,-0.017210314
	,-0.035898365
	,0.026684329
	,0.033401616
	,-0.030273419
	,0.005413481
	,0.036102775
	,-0.014857403
	,0.03205971
	,-0.039578162
	,0.045803331
	,0.042266525
	,0.036442004
	,-0.0091763828
	,-0.0016934716
	,0.0042573828
	,0.010529658
	,-0.052466251
	,-0.025543652
	,-0.040053569
	,-0.023371557
	,-0.099642545
	,-0.046887126
	,-0.015748752
	,0.016872419
	,-0.085494913
	,-0.011750238
	,-0.029557269
	,0.01663295
	,0.0022136092
	,-0.084258042
	,-0.030535698
	,-0.046346076
	,-0.0096443323
	,-0.033186439
	,-0.025637053
	,-0.019275406
	,-0.012632412
	,-0.052500531
	,-0.058813512
	,-0.03248867
	,-0.054115795
	,-0.042112675
	,-0.067892522
	,-0.00044879175
	,-0.0055797319
	,-0.061165683
	,-0.10696819
	,-0.065337442
	,0.053324983
	,-0.0056984029
	,-0.028123394
	,-0.1068597
	,0.036337774
	,-0.018195944
	,0.040188853
	,-0.058463071
	,0.0077047357
	,0.0021451004
	,0.022454727
	,-0.008294858
	,-0.03846753
	,0.0056067663
	,-0.010432603
	,0.065737
	,-0.054114733
	,-0.0124649
	,0.017068736
	,0.023998311
	,-0.054697849
	,-0.01113333
	,-0.073937036
	,-0.0306183
	,0.0069735595
	,-0.062648766
	,-0.014044913
	,-0.0032065364
	,-0.046405062
	,-0.028290508
	,-0.037769489
	,-0.026203424
	,-0.0076372987
	,-0.026185008
	,-0.050199449
	,0.023495415
	,-0.016683988
	,0.0056865313
	,-0.069433592
	,-0.0099268695
	,-0.045744494
	,0.045946024
	,-0.051837362
	,-0.0061533675
	,0.060862113
	,0.038119677
	,-0.012351657
	,0.018563621
	,0.01650341
	,-0.0087885307
	,-0.026646743
	,-0.096209042
	,-0.0034371694
	,0.093974277
	,-0.041894618
	,-0.038888734
	,0.018309539
	,0.10514003
	,0.02754348
	,0.0046735075
	,-0.084711835
	,0.050020862
	,0.0806122
	,-0.020702869
	,-0.0475022
	,-0.048290398
	,-0.029118275
	,-0.029262874
	,-0.0950564
	,-0.058237892
	,-0.08502204
	,-0.021412944
	,-0.025184145
	,-0.12086638
	,-0.11187198
	,-0.058478341
	,-0.05306207
	,-0.092646621
	,-0.034561165
	,-0.041854363
	,0.023107635
	,-0.081424773
	,-0.067796208
	,-0.027023062
	,-0.023560388
	,0.0063633551
	,0.013313252
	,-0.078292832
	,-0.0292609
	,-0.032713275
	,-3.3428696e-05
	,-0.024927977
	,-0.049484581
	,-0.037344068
	,-0.025970323
	,-0.038224015
	,-0.02313799
	,-0.049707506
	,-0.059428971
	,-0.012723745
	,-0.0081317732
	,0.056045264
	,0.01661572
	,-0.02390931
	,0.051817421
	,0.0358659
	,-0.017511521
	,-0.04399842
	,-0.063264087
	,0.017128235
	,-0.025794653
	,0.020276554
	,0.0058478508
	,-0.049043875
	,0.062378891
	,0.056185193
	,-0.013229741
	,0.036117829
	,0.10673303
	,0.0013260979
	,-0.0042407913
	,-0.067925461
	,0.0048427144
	,0.095277168
	,0.031427477
	,-0.078533523
	,0.021151435
	,0.044679094
	,0.079159662
	,-0.052448306
	,-0.08742065
	,-0.029482741
	,0.013178623
	,0.048813608
	,-0.022211915
	,-0.07498014
	,-0.027158987
	,0.021040438
	,0.038118038
	,-0.084685266
	,-0.085328162
	,0.010788083
	,0.0049774856
	,-0.040586609
	,0.022578882
	,0.021124531
	,-0.019764666
	,0.044457003
	,0.019599812
	,-0.048303142
	,-0.032888625
	,-0.0098333247
	,-0.022266561
	,-0.046793412
	,-0.0079073468
	,0.058883213
	,-0.022358757
	,0.04849983
	,-0.0069389679
	,-0.028416133
	,0.02785119
	,0.017050998
	,-0.034768824
	,0.029012235
	,-0.011014293
	,-0.023253543
	,-0.063656531
	,0.01426953
	,0.0064301519
	,-0.0089918738
	,0.071174532
	,-0.028540542
	,-0.048045512
	,0.01682209
	,0.021491798
	,0.033581477
	,-0.018502276
	,0.011426334
	,0.017206311
	,0.047710836
	,-0.074145243
	,0.0028023699
	,0.045780804
	,-0.025704358
	,0.014456275
	,-0.056130286
	,0.040470671
	,-0.046631128
	,0.024401506
	,8.11526e-05
	,0.01535102
	,-0.055791195
	,-0.00720697
	,-0.028547395
	,-0.015845684
	,-0.068741947
	,0.046729248
	,0.076108322
	,-0.0098766712
	,0.011037542
	,-0.000357235
	,-0.0011387665
	,0.045398496
	,-0.049978353
	,-0.065713495
	,-0.047515586
	,-0.027653119
	,-0.037532479
	,0.027589547
	,-0.012289613
	,-0.036138486
	,0.034214962
	,0.011372047
	,-0.086318254
	,0.000462172
	,0.039092746
	,-0.069833
	,-0.10784409
	,0.008361157
	,0.0021969271
	,0.053748444
	,-0.082497761
	,-0.12839942
	,0.043822765
	,0.091928683
	,0.045299377
	,-0.091792077
	,-0.074636184
	,0.096639067
	,0.0037561189
	,-0.081540227
	,-0.030209949
	,0.0022416322
	,0.080849178
	,0.0051036952
	,-0.033381194
	,-0.011621716
	,0.057409205
	,0.033756908
	,-0.040586252
	,-0.047348324
	,-0.038420808
	,-0.014206027
	,0.067631058
	,0.07866127
	,-0.016300932
	,-0.018187767
	,0.031599771
	,0.070056207
	,0.05905094
	,-0.0899486
	,-0.049658254
	,0.091365092
	,0.083576038
	,-0.004096387
	,-0.066888846
	,-0.056753069
	,0.070097737
	,0.044233683
	,-0.080712609
	,-0.067929886
	,-0.011305322
	,0.073100127
	,0.055646796
	,-0.0041893772
	,-0.034790721
	,0.014411082
	,0.012551866
	,-0.051072903
	,-0.037976272
	,-0.015851077
	,0.080007
	,0.011238116
	,-0.049280528
	,0.063616522
	,0.080806628
	,0.059661109
	,-0.017378736
	,0.021183012
	,0.0092770951
	,0.012030774
	,0.020066645
	,0.038524918
	,0.015725909
	,0.015833475
	,0.067607537
	,-0.044414427
	,0.035717905
	,0.067187794
	,0.0039816741
	,0.052422617
	,0.072336666
	,0.054943096
	,-0.021800878
	,-0.030146709
	,-0.034624044
	,0.091900431
	,0.0057659959
	,0.0017334117
	,-0.089932546
	,0.007189536
	,0.078496866
	,-0.018098786
	,-0.11621698
	,-0.078306466
	,0.054357618
	,-0.0011523201
	,-0.034912407
	,-0.065631494
	,-0.055524785
	,0.00428864
	,0.053288721
	,-0.05227188
	,-0.054802496
	,0.01309739
	,0.019411875
	,-0.073984586
	,-0.082002141
	,-0.057763446
	,0.013227263
	,0.025614124
	,-0.041157752
	,-0.073236406
	,-0.10282791
	,0.10582276
	,0.056267291
	,-0.020351132
	,-0.05184212
	,-0.015965497
	,0.1385981
	,0.075348265
	,-0.021837851
	,-0.084620774
	,0.06749022
	,0.032320574
	,0.029784214
	,-0.020709645
	,0.0036675388
	,0.056451414
	,0.025644589
	,0.018499386
	,-0.011412607
	,-0.045529518
	,-0.01300317
	,-0.041303221
	,0.0096839527
	,-0.048116524
	,-0.059030142
	,0.01121514
	,-0.022450494
	,0.023489427
	,-0.0061295824
	,-0.020398378
	,0.011882838
	,0.029386429
	,0.059442516
	,-0.020297166
	,-0.095571652
	,0.017676363
	,0.025374299
	,0.0065922723
	,-0.014258579
	,0.018367685
	,0.00897145
	,0.0068867952
	,-0.043479465
	,-0.017884258
	,-0.066041224
	,-0.011093924
	,-0.062859178
	,-0.060281705
	,-0.049861591
	,-0.014813458
	,-0.078523852
	,-0.064676136
	,-0.046577729
	,-0.031732231
	,-0.021874936
	,-0.013639746
	,-0.034031171
	,-0.028110513
	,-0.082356177
	,-0.027915809
	,0.045734037
	,-0.029120743
	,-0.021685159
	,-0.009643143
	,-0.0019975791
	,0.049410697
	,-0.048471238
	,0.021681724
	,-0.027978458
	,0.0025638319
	,-0.014498531
	,0.025116934
	,0.022728529
	,0.021273147
	,0.039048623
	,0.055220868
	,0.048513655
	,-0.0391805
	,0.035309173
	,0.037870336
	,-0.041560482
	,0.032008048
	,-0.061347637
	,-0.018253323
	,-0.036700524
	,0.020657692
	,-0.040887363
	,-0.044208676
	,-0.061407194
	,0.015207368
	,0.018909823
	,0.011745808
	,-0.05915248
	,-0.073867276
	,-0.068521693
	,0.046987429
	,0.043493327
	,-0.0083981883
	,0.018124182
	,-0.016240595
	,-0.0018183409
	,0.027289864
	,-0.063007116
	,-0.086889565
	,-0.076500393
	,-0.011437225
	,-0.00639592
	,-0.077595226
	,-0.030807992
	,-0.10063212
	,-0.029917035
	,-0.043444928
	,-0.075708434
	,-0.02566582
	,-0.049035545
	,-0.084305882
	,-0.038102809
	,-0.023052048
	,0.021302719
	,0.017395865
	,0.063255467
	,-0.028167853
	,0.011453252
	,0.022817742
	,-0.02876596
	,-0.012621486
	,-0.040671084
	,0.040680021
	,-0.026658578
	,-0.050946523
	,-0.0012113069
	,0.031141916
	,0.03777096
	,-0.035968591
	,-0.023941798
	,-0.032202717
	,0.027055938
	,0.035648525
	,0.033729706
	,-0.040011823
	,-0.01727131
	,-0.038697373
	,-0.017388478
	,-0.034264859
	,-0.06582313
	,0.015823595
	,-0.033703703
	,0.01278917
	,-0.038841743
	,-0.040262803
	,-0.083249785
	,-0.032479037
	,0.038339213
	,0.04923743
	,-0.043976709
	,0.019976504
	,-0.040924713
	,-0.0037299672
	,0.014235521
	,-0.027363852
	,0.024158444
	,-0.048138574
	,0.026832972
	,-0.064058736
	,-0.023772949
	,-0.020976607
	,0.0012898061
	,-0.018832654
	,0.023651948
	,-0.051352579
	,0.015925417
	,0.030958539
	,0.03650808
	,0.041849684
	,-0.083399758
	,-0.043532204
	,-0.056061838
	,-0.028025849
	,-0.02183233
	,-0.033923522
	,-0.034326233
	,0.037440084
	,-0.0065411665
	,-0.012674524
	,-0.0053805513
	,-0.026573747
	,0.052353177
	,0.024512207
	,0.044199288
	,-0.039241519
	,0.04572409
	,0.052925393
	,-0.026758432
	,0.022308696
	,-0.020213855
	,-0.022530792
	,0.03620315
	,-0.030607305
	,0.020664848
	,0.0095034894
	,-0.028529229
	,0.011717341
	,-0.043943271
	,0.0001217782
	,0.010526204
	,-0.0075104767
	,-0.06394358
	,-0.012989104
	,0.011050736
	,-0.028675172
	,0.017446306
	,0.030193957
	,0.035209507
	,-0.010145379
	,-0.04932775
	,-0.072049096
	,-0.015812224
	,-0.029254861
	,-0.0051946561
	,-0.022613818
	,0.051943626
	,0.0096939234
	,0.0057000918
	,0.0073591997
	,0.074611768
	,0.027053602
	,-0.020883415
	,-0.056234468
	,0.0086202882
	,0.057542719
	,0.0017513144
	,-0.019526225
	,-0.069430016
	,-0.07245817
	,0.021316633
	,-0.037629355
	,-0.00787889
	,-0.041006986
	,-0.034787174
	,0.032163847
	,-0.020563351
	,-0.089172348
	,-0.0078955228
	,0.016420186
	,-0.043235116
	,-0.11013538
	,-0.069254749
	,0.0037783398
	,0.045344178
	,-0.010129155
	,-0.034985289
	,-0.030476362
	,-0.054015312
	,-0.024322914
	,0.0948222
	,-0.029520987
	,-0.085906357
	,0.015454394
	,-0.028480133
	,0.0549571
	,0.048005708
	,-0.069014512
	,-0.024943711
	,-0.0057254531
	,0.03616241
	,0.081539996
	,0.025781319
	,0.0011802083
	,-0.04701924
	,-0.033983905
	,-0.029493256
	,0.013469372
	,0.017262135
	,0.0059286393
	,-0.025543582
	,-0.034795921
	,-0.020828294
	,-0.027478544
	,0.018280769
	,-0.067528926
	,-0.049279783
	,0.039973687
	,0.030803377
	,0.019680558
	,-0.0042234887
	,0.0018353482
	,0.052205049
	,0.052379072
	,0.01854513
	,-0.030278286
	,-0.018323543
	,0.035976164
	,0.020218791
	,-0.024294861
	,0.054510951
	,0.045456577
	,0.00841091
	,-0.024421105
	,-0.036507513
	,-0.031103292
	,-0.0088016689
	,-0.037562266
	,-0.053829152
	,-0.014753528
	,0.033964608
	,-0.020105725
	,-0.0059577078
	,-0.018505944
	,0.039733086
	,0.078737445
	,-0.0041470397
	,-0.071374685
	,0.025988054
	,0.045366466
	,0.0046632513
	,-0.018433413
	,0.060058024
	,-0.057175256
	,-0.0045072017
	,-0.012869338
	,0.014445404
	,0.024249198
	,0.021625726
	,0.037564855
	,-0.017682664
	,0.0058733542
	,0.042543758
	,0.043267343
	,-0.0051346631
	,-0.041538488
	,0.024631247
	,0.02659544
	,0.050181605
	,-0.01768546
	,0.0092285648
	,-0.020845985
	,0.017088041
	,0.016169325
	,-0.03387427
	,-0.037527841
	,-0.049307935
	,0.0020282713
	,0.039112121
	,-0.023314001
	,-0.027727472
	,0.018487183
	,0.058278132
	,0.035382643
	,-0.025102019
	,0.0098429807
	,-0.00866684
	,-0.0071314415
	,-0.037463818
	,-0.044870038
	,-0.033214912
	,0.018952953
	,-0.02320729
	,-0.018190382
	,-0.066741839
	,0.003871971
	,-0.02390806
	,0.010444691
	,-0.00847792
	,-0.0050898166
	,-0.0072314115
	,0.046129744
	,-0.00055565848
	,-0.010444709
	,0.045790438
	,-0.01841964
	,0.040688913
	,0.058718517
	,-0.028167009
	,0.021102868
	,-0.026904024
	,-0.052382592
	,-0.019358709
	,-0.026534503
	,-0.0075773848
	,-0.026709449
	,-0.0045485287
	,-0.02625503
	,-0.041136395
	,0.015322815
	,0.036557514
	,-0.015504562
	,-0.045643397
	,0.057604358
	,0.055307258
	,-0.036929987
	,0.0024138037
	,-0.019225968
	,-0.010492287
	,0.0055419747
	,-0.045720484
	,0.059497602
	,-0.029894557
	,-0.01800368
	,-0.0099400477
	,0.037415531
	,0.0838101
	,0.046090242
	,-0.04062888
	,-0.032287847
	,0.014375448
	,0.079697378
	,0.014011367
	,-0.0634991
	,-0.070278592
	,-0.028788975
	,0.0025632277
	,0.019004323
	,-0.048911113
	,-0.049440462
	,-0.036858909
	,-0.025608083
	,0.022121778
	,-0.090389743
	,-0.033619128
	,-0.022048574
	,-0.035401192
	,0.013920386
	,0.039369091
	,-0.044761557
	,0.050913144
	,0.0028097183
	,-0.014687869
	,-0.045406416
	,-0.066870056
	,-0.027795471
	,0.031163668
	,-0.039351579
	,-0.070233405
	,-0.012202172
	,0.032177843
	,0.050889153
	,-0.068361893
	,-0.039697416
	,-0.0047070412
	,-0.014598817
	,-0.01692079
	,-0.050246913
	,-0.085565425
	,-0.01293239
	,0.0031767364
	,-0.046026692
	,0.0071670758
	,-0.0031471963
	,0.03740152
	,0.017841747
	,0.038441624
	,0.059067652
	,-0.039177895
	,0.012804097
	,-0.016644739
	,0.011629694
	,0.016731847
	,-0.012900552
	,-0.01820815
	,-0.0083777774
	,0.037823159
	,0.023978634
	,0.047383469
	,-0.02973539
	,0.039992627
	,0.022627147
	,-0.025297923
	,-0.051865187
	,-0.042351693
	,0.002140119
	,0.022582285
	,-0.058085036
	,0.026002327
	,-0.017472869
	,-0.066284232
	,-0.048756182
	,0.0085028792
	,0.034710445
	,0.010748573
	,0.003420071
	,-0.021924097
	,-0.031023772
	,-0.032884046
	,-0.001320543
	,0.0010556004
	,-0.04225529
	,0.060980868
	,0.017480666
	,-0.014971513
	,-0.041968782
	,-0.034196258
	,0.037184935
	,0.013894766
	,-0.0547749
	,-0.059493762
	,0.046792034
	,0.010969497
	,-0.013980982
	,-0.018528931
	,-0.00083044334
	,0.0628721
	,0.041899163
	,0.046790112
	,-0.034033876
	,-0.077578694
	,0.061737884
	,0.063821167
	,0.030940216
	,-0.038072035
	,-0.093961723
	,0.0058959457
	,0.009776514
	,-0.075163066
	,0.014924785
	,-0.077122025
	,-0.032232463
	,0.00077223906
	,-0.024850719
	,-0.011829923
	,0.034216337
	,0.064607874
	,-0.010483419
	,0.013029895
	,0.054042004
	,-0.014692822
	,0.051367976
	,0.037519407
	,-0.030616112
	,-0.064714476
	,-0.060363788
	,0.061022993
	,-0.018640302
	,0.013453746
	,-0.029848384
	,-0.11273363
	,0.056439519
	,0.091585293
	,-0.015918825
	,-0.065386362
	,-0.017730953
	,0.0098767346
	,0.04864167
	,-0.011050356
	,-0.011174121
	,-0.0095019639
	,-0.01133936
	,-0.021595642
	,-0.056734324
	,-0.036581744
	,-0.023467395
	,-0.0089478437
	,-0.010793605
	,-0.0037456797
	,-0.034170296
	,-0.0022122234
	,0.032043274
	,0.040102549
	,-0.03106866
	,0.020085081
	,0.022431716
	,0.032084819
	,-0.021583188
	,-0.02132437
	,0.007272148
	,-0.010055157
	,0.00019364289
	,0.052824713
	,-0.026341766
	,-0.007006451
	,-0.067973621
	,-0.035549913
	,0.017719518
	,0.025558984
	,0.018725237
	,-0.028366968
	,-0.072330132
	,-0.090015307
	,-0.013478491
	,-0.02658234
	,0.0013599105
	,0.00379865
	,-0.034102216
	,0.041858617
	,0.0018608413
	,-0.0391943
	,0.054302171
	,-0.0088797668
	,-0.039269257
	,0.0018079312
	,0.010004378
	,0.071426287
	,-0.023843873
	,0.04737154
	,-0.020430857
	,-0.0628559
	,-0.050863162
	,-0.10603208
	,-0.12487206
	,0.11653993
	,0.086921275
	,0.053474568
	,0.026461426
	,-0.057258409
	,0.02033972
	,0.0058422433
	,0.051349789
	,0.087697089
	,-0.01144331
	,-0.010079019
	,-0.010855761
	,0.080591813
	,0.030285718
	,0.0035610052
	,-0.082287595
	,-0.062245425
	,0.0091162762
	,0.030427216
	,0.020401921
	,0.032815721
	,-0.053525832
	,-0.02351024
	,-0.037763461
	,-0.086630039
	,-0.011020137
	,0.036848396
	,-0.0029540141
	,0.051722635
	,-0.044934988
	,-0.021526825
	,0.014406268
	,-0.036631133
	,0.050145634
	,0.0028976696
	,0.02330905
	,0.045987722
	,-0.0065816189
	,0.047221288
	,0.035411526
	,0.018579774
	,-0.027466848
	,0.016747897
	,0.034940954
	,0.078717344
	,0.025125137
	,-0.010461993
	,0.045668684
	,0.083026379
	,0.061566833
	,-0.061552852
	,-0.024274662
	,-0.057590555
	,-0.021668445
	,0.026579313
	,0.048958924
	,-0.029648066
	,0.059066296
	,-0.031714443
	,-0.004045336
	,0.01645444
	,0.026726175
	,0.053415645
	,-0.014225953
	,0.034231585
	,-0.0058166222
	,0.011601826
	,-0.048596065
	,0.00018014785
	,0.01697938
	,-0.042572651
	,-0.0060876743
	,-0.040864926
	,-0.0427115
	,-0.019638237
	,0.017639983
	,0.059487067
	,0.096096173
	,0.0827495
	,0.043554354
	,-0.051332086
	,0.045475535
	,0.014607213
	,-0.014135853
	,0.0012487312
	,-0.0072452649
	,0.038660571
	,-0.020706404
	,0.0294073
	,0.025112521
	,-0.0070498106
	,-0.050948665
	,0.012631554
	,-0.0014677087
	,0.046279218
	,-0.0072418633
	,-0.026059177
	,0.026248017
	,0.027758848
	,-0.022093825
	,0.066727877
	,0.0074023185
	,-0.010324718
	,0.011273696
	,0.0007216676
	,-0.029633818
	,-0.02762218
	,-0.027786143
	,0.047919329
	,-0.0086512128
	,0.019051628
	,-0.0035181853
	,0.033703178
	,0.066712685
	,-0.0070424518
	,0.043258071
	,0.0357418
	,-0.035215005
	,-0.028579859
	,0.019145388
	,0.0080769081
	,-0.08126156
	,-0.018308703
	,0.0017249784
	,-0.093181454
	,-0.0065215356
	,-0.014820199
	,-0.02531804
	,-0.015642509
	,0.00095758768
	,-0.039168131
	,-0.0028036432
	,-0.054446958
	,-0.066964984
	,-0.042863287
	,0.036634132
	,0.045121554
	,-0.04723708
	,-0.012941409
	,-0.060691334
	,0.038496207
	,0.016757296
	,-0.06565927
	,0.033816561
	,-0.024601862
	,-0.060099769
	,-0.0068402141
	,0.011015406
	,0.066534288
	,0.11021298
	,-0.033122595
	,-0.053886969
	,-0.038355045
	,-0.0389741
	,0.044137616
	,-0.0078131044
	,0.0017151857
	,0.0052907942
	,0.0074811447
	,0.026235387
	,0.052928869
	,-0.025961746
	,0.041005667
	,0.062037829
	,0.00013254283
	,0.072422072
	,0.015677171
	,-0.0012688258
	,-0.058480833
	,-0.032526538
	,-0.03795461
	,-0.062179353
	,-0.069951184
	,-0.044220719
	,-0.061214689
	,-0.017965857
	,0.027396431
	,-0.039599542
	,-0.022989703
	,0.0016157549
	,-0.045031223
	,0.03091469
	,0.038814597
	,-0.022550195
	,0.058883805
	,-0.0072544403
	,-0.0031442994
	,0.053775612
	,0.055227697
	,0.013599717
	,-8.2856386e-05
	,0.043010928
	,0.028468383
	,0.053686924
	,0.063258067
	,-0.061726525
	,-0.0091558369
	,0.023694394
	,0.031571306
	,0.035897732
	,0.028982555
	,-0.041871507
	,-0.029259933
	,0.027348183
	,-0.0533221
	,-0.066044949
	,-0.0061519342
	,0.014608694
	,-0.07545653
	,-0.05755097
	,0.049195454
	,0.0064624744
	,0.040793005
	,0.052575115
	,0.00021171162
	,0.015489905
	,0.045779984
	,-0.046201937
	,0.044131022
	,0.018992221
	,-0.016062289
	,0.0030351565
	,-0.034617819
	,-0.055824269
	,0.017724097
	,-0.021012202
	,0.04426863
	,0.035551812
	,-0.056994963
	,0.033671156
	,-0.021715969
	,-0.031707272
	,0.029776165
	,0.011408439
	,0.014242897
	,0.050263096
	,0.049317211
	,-0.029723519
	,0.01234742
	,-0.0040164236
	,-0.014997382
	,0.00041741406
	,0.0510711
	,0.0050224895
	,0.054443393
	,-0.061433826
	,0.0025916141
	,-0.05269156
	,-0.036564492
	,-0.063764222
	,0.048315987
	,0.014718057
	,0.033254426
	,-0.042531021
	,-0.057916474
	,0.050074019
	,-0.006450267
	,-0.043522343
	,0.011109334
	,-0.075599991
	,-0.046895735
	,0.041681904
	,-0.018054571
	,-0.0086381733
	,0.016192935
	,0.008125837
	,0.0021014248
	,0.02925566
	,-0.030042918
	,0.035629932
	,0.0033004137
	,0.025512271
	,-0.0395826
	,0.0024493234
	,0.028749395
	,-0.041559119
	,0.066982217
	,0.035610847
	,0.024532804
	,0.031168943
	,0.0015274334
	,-0.036132876
	,-0.0001005353
	,0.0044694883
	,0.069787525
	,-0.023434326
	,-0.057781227
	,-0.008393852
	,0.0046365545
	,0.054181147
	,-0.012561835
	,0.037405718
	,0.026024396
	,-0.013847542
	,-0.019499216
	,-0.0964995
	,-0.08197508
	,-0.03424352
	,-0.015514507
	,0.0046558077
	,-0.036994994
	,-0.091127872
	,-0.044906605
	,-0.040343389
	,-0.081370316
	,-0.016804067
	,0.036654837
	,-0.017755564
	,-0.070538521
	,-0.078435637
	,0.04366735
	,0.044907592
	,0.031096909
	,0.020081403
	,-0.044125624
	,0.022666877
	,0.054568015
	,-0.019010492
	,0.059641965
	,-0.0062708044
	,0.010559448
	,-0.049560048
	,-0.0350154
	,-0.090236105
	,-0.042450134
	,-0.070098959
	,-0.018792136
	,-0.073904723
	,-0.05998626
	,-0.05263757
	,-0.045245588
	,-0.043117218
	,-0.004517375
	,0.00050842605
	,0.033734567
	,0.03072869
	,0.061114185
	,-0.00792423
	,-0.018955339
	,0.055460349
	,0.013264344
	,-0.011008459
	,-0.015311552
	,0.057837214
	,0.01975501
	,0.017725084
	,0.027421568
	,-0.049295954
	,-0.03350579
	,-0.0069980365
	,0.035169352
	,0.054708555
	,0.052077875
	,0.0068742251
	,-0.021789368
	,-0.0051221019
	,-0.0139521
	,-0.025185695
	,0.050612632
	,0.046995159
	,-0.042961128
	,0.0057381908
	,0.019590661
	,-0.029878711
	,-0.02727757
	,0.01664331
	,-0.039180849
	,0.010286872
	,-0.03536259
	,0.065593295
	,-0.013876639
	,-0.025674891
	,0.01059523
	,0.022642717
	,0.061799295
	,-0.054464418
	,0.063121393
	,0.027839974
	,0.024524275
	,0.029281924
	,-0.025639195
	,-0.017653879
	,-0.01251106
	,-0.049648277
	,-0.022784572
	,0.010628155
	,0.027102057
	,-0.045555554
	,-0.042714056
	,0.016487373
	,0.016023409
	,0.02137888
	,-0.019816665
	,-0.058622
	,-0.02762671
	,-0.06866125
	,-0.059354208
	,-0.039451156
	,-0.065246738
	,-0.053310875
	,0.0027807788
	,0.018788714
	,-0.0092909606
	,-0.058774121
	,-0.10764866
	,0.025167292
	,0.023576783
	,-0.055925075
	,0.027246725
	,-0.027268859
	,-0.034728687
	,0.011565779
	,-0.0077640191
	,-0.011530612
	,0.041723792
	,0.016852096
	,-0.050208922
	,0.024311164
	,-0.0009376682
	,0.068996653
	,0.012723009
	,-0.051611524
	,-0.01593123
	,0.011543453
	,-0.016342349
	,0.010283662
	,-0.017795227
	,0.0043291254
	,-0.011379258
	,-0.062026352
	,-0.042286925
	,0.061643235
	,-0.0004585663
	,-0.00823588
	,-0.028979953
	,0.0075766412
	,0.045722757
	,0.059261005
	,-0.014970361
	,0.061889634
	,-0.054625679
	,-0.017892245
	,0.091990232
	,-0.028556902
	,0.037289545
	,-0.022736829
	,-0.0079592457
	,0.025965296
	,0.015394894
	,0.013544274
	,0.0023988718
	,-0.048187677
	,-0.059795436
	,0.013417134
	,-0.071054474
	,0.046391807
	,0.0061148815
	,-0.016494133
	,0.00029578325
	,-0.032369286
	,0.045370724
	,0.051290229
	,0.039394539
	,0.064273208
	,0.015728813
	,0.028490856
	,0.077257372
	,-0.0063152811
	,-0.0078722117
	,0.05180103
	,-0.0020775183
	,-0.066887982
	,-0.02426957
	,-0.046084225
	,-0.06066975
	,-0.018495729
	,0.0040068044
	,-0.04662158
	,-0.0096332133
	,-0.0047986158
	,0.035854362
	,0.0076048523
	,-0.040497474
	,-0.012775337
	,-0.024711706
	,0.050426446
	,0.021075366
	,0.035366405
	,-0.032765295
	,0.041690174
	,-0.0010297394
	,-0.014199832
	,-0.005961048
	,-0.020276994
	,0.036715303
	,-0.040794916
	,0.04282026
	,0.0030434756
	,-0.020746792
	,0.0098305568
	,0.091899373
	,0.13394144
	,0.0774774
	,0.10827845
	,0.07267797
	,0.032498784
	,0.0607824
	,0.11747044
	,0.14869648
	,0.039111096
	,-0.059805606
	,-0.023247138
	,-0.083568409
	,0.020689199
	,0.01269293
	,-0.0050872252
	,-0.057407495
	,-0.042980712
	,-0.11090085
	,0.011545077
	,-0.022507546
	,0.0042204354
	,-0.035701144
	,-0.062739231
	,0.029421741
	,0.038373068
	,-0.0065373844
	,0.032783076
	,-0.0034475166
	,0.037418444
	,0.019770931
	,0.0499835
	,0.015622186
	,0.023303051
	,0.019048717
	,0.013408189
	,-0.06524843
	,-0.054605056
	,-0.057440206
	,0.013136807
	,-0.024579532
	,-0.042718794
	,-0.013610855
	,0.045553934
	,-0.067013793
	,0.0097657768
	,-0.058220137
	,-0.030928209
	,-0.010200522
	,-0.059963539
	,-0.035306681
	,-0.033171352
	,-0.042467192
	,0.023183012
	,0.043925043
	,0.046066649
	,0.077709
	,0.057485651
	,-0.071590059
	,-0.059584368
	,0.079505391
	,0.037331082
	,0.073623158
	,0.057670392
	,0.051732257
	,0.024932571
	,0.0048691551
	,0.037870735
	,0.017531414
	,0.027993325
	,0.049344454
	,0.044220138
	,-0.061564289
	,-0.041905034
	,0.0088274376
	,-0.015919184
	,0.043014042
	,0.022567812
	,0.044415142
	,-0.023542698
	,-0.077270947
	,-0.069956541
	,0.052239589
	,0.10622621
	,-0.020881208
	,-0.018428383
	,-0.041813903
	,-0.021308508
	,0.028516097
	,-0.0080582127
	,0.011176906
	,0.043068111
	,-0.012852709
	,0.023846783
	,0.016526064
	,0.019359643
	,0.033535816
	,0.015132259
	,-0.027203657
	,0.0029010067
	,0.051897995
	,0.04970317
	,0.012761267
	,-0.010562566
	,-0.047949892
	,-0.018956874
	,-0.027161459
	,0.074012011
	,0.081465006
	,0.010944068
	,0.0060376953
	,-0.050326776
	,-0.057489533
	,-0.017103817
	,0.02660008
	,-0.015931152
	,0.047549475
	,-0.015546895
	,-0.023323879
	,-0.053934444
	,-0.051221978
	,0.02324765
	,-0.032836486
	,-0.097440012
	,-0.013822086
	,0.024605837
	,0.034058426
	,0.02728454
	,0.020457713
	,0.018036559
	,0.043850578
	,0.035245977
	,0.040972304
	,-0.05416692
	,0.027635764
	,0.0010762889
	,-0.02904859
	,-0.060572341
	,-0.027769431
	,-0.051837318
	,-0.057264894
	,-0.016630216
	,0.021254078
	,0.015291865
	,-0.022633674
	,-0.06225352
	,-0.049142066
	,0.022279847
	,-0.010066306
	,0.028334394
	,-0.061194383
	,-0.049989831
	,-0.12221251
	,-0.017580582
	,-0.026575556
	,-0.011439036
	,0.026305219
	,0.089297481
	,0.030020529
	,0.025940362
	,0.011545686
	,0.076627977
	,0.063693047
	,0.097647794
	,-0.019994402
	,0.013632385
	,0.018329447
	,-0.030458413
	,-0.001080571
	,-0.0054170303
	,0.053852852
	,-0.013653396
	,0.0054977867
	,-0.064963765
	,0.0031964702
	,-0.017141951
	,-0.020947209
	,-0.053547271
	,-0.02507481
	,-0.062013835
	,-0.025276167
	,-0.083815813
	,0.03914427
	,0.0064229988
	,-0.0420427
	,0.0032059839
	,-0.051445972
	,0.0098352181
	,0.0087139579
	,0.050659623
	,-0.032922607
	,-0.035258248
	,-0.026358202
	,-0.018654237
	,-0.0073102536
	,0.03828492
	,-0.014670238
	,0.014954151
	,-0.041241944
	,0.061340068
	,-0.0027172859
	,-0.025424207
	,-0.065038435
	,-0.023523185
	,-0.021623166
	,-0.019238358
	,-0.027271707
	,-0.067069292
	,-0.11066929
	,-0.0022759258
	,-0.07228028
	,-0.030180195
	,0.032922387
	,0.032119993
	,-0.017948605
	,-0.023119105
	,0.016239334
	,0.040095165
	,0.042374529
	,-0.025684986
	,0.0090510892
	,-0.043016523
	,-0.04359106
	,-0.018658245
	,-0.03410634
	,0.041084122
	,0.0034584182
	,0.045778763
	,-0.020839214
	,-0.015060463
	,0.030933656
	,0.018750926
	,0.040525358
	,0.001965486
	,0.0057572438
	,-0.061246619
	,-0.025786491
	,-0.00076812255
	,-0.031394854
	,-0.032637913
	,-0.054937318
	,-0.029578218
	,-0.065079555
	,-0.032708611
	,-0.01919888
	,-0.03602415
	,-0.020726958
	,-0.0053824442
	,-0.050645381
	,0.015055077
	,0.046500612
	,0.035111364
	,-0.049461063
	,-0.036366329
	,0.052379567
	,-0.016234644
	,0.006844582
	,0.016405925
	,-0.0050481721
	,-0.025048325
	,-0.0021809347
	,-0.0065350602
	,-0.046411674
	,0.018345512
	,0.019447085
	,-0.0431981
	,-0.0055781272
	,0.03546096
	,-0.038704503
	,-0.012995002
	,0.0074707204
	,0.0042651794
	,0.025885634
	,-0.0028445439
	,-0.0015388842
	,0.018341713
	,0.018196734
	,0.0084846793
	,0.004918267
	,0.056605183
	,0.011167195
	,0.041783623
	,-0.055357456
	,-0.057105932
	,-0.038670044
	,0.01208089
	,0.0072497316
	,0.016852543
	,-0.071804434
	,-0.011903886
	,-0.039308593
	,0.0096629616
	,0.029025415
	,-0.044056244
	,-0.02462017
	,-0.051164687
	,-0.030191237
	,0.010164463
	,0.0086150123
	,-0.0018556335
	,0.016788043
	,-0.063311376
	,-0.025655529
	,-0.080538191
	,-0.078409463
	,-0.0071839555
	,0.074261792
	,0.021831436
	,0.025976276
	,-0.057235859
	,0.058141492
	,0.0874924
	,0.085978873
	,0.0488045
	,0.068448067
	,-0.059483759
	,0.0036454597
	,0.021497531
	,0.0078902524
	,0.042372361
	,-0.0061544571
	,0.018651392
	,-0.00090380688
	,-0.07083866
	,0.027648583
	,-0.071851388
	,-0.049667589
	,-0.04109621
	,-0.086342558
	,0.0089859143
	,-0.040334344
	,-0.027420178
	,-0.05484375
	,0.012652862
	,0.015234299
	,-0.012740867
	,-0.025859699
	,-0.002070094
	,0.043118991
	,-0.02018507
	,-0.029423358
	,0.011047503
	,-0.041211154
	,0.025251167
	,-0.026719356
	,-0.054664932
	,0.037729714
	,0.03285899
	,-0.039019872
	,-0.021756841
	,-0.0089678625
	,-0.062065978
	,-0.041107468
	,0.064410359
	,-0.0032071471
	,-0.023318144
	,-0.039832387
	,0.0070922971
	,0.051028926
	,-0.014376828
	,-0.028624978
	,0.022666182
	,-0.0193492
	,-0.025893822
	,0.0454398
	,-0.00029654655
	,-0.012722255
	,-0.036611412
	,0.0032252185
	,0.034385443
	,0.06228542
	,-0.007739956
	,0.066360585
	,0.067430384
	,0.006344913
	,0.056848481
	,0.0094878552
	,-0.028075002
	,0.049871221
	,-0.00823929
	,0.031227738
	,-0.049061019
	,-0.040694591
	,-0.020968268
	,-0.052695531
	,-0.023534205
	,-0.01672673
	,-0.043488987
	,0.00640692
	,0.029126996
	,0.024186606
	,0.027710669
	,0.0094507691
	,-0.0092273634
	,0.041428998
	,-0.043125752
	,-0.082131274
	,-0.069858551
	,-0.063376673
	,-0.06872499
	,-0.023615459
	,-0.019534817
	,-0.017147779
	,-0.0057288827
	,-0.045176089
	,0.0057819425
	,0.00034335622
	,0.0329432
	,0.043060943
	,-0.0012898848
	,0.0074733752
	,0.030914037
	,0.00070364046
	,0.025214199
	,0.03611923
	,-0.088243693
	,-0.092178777
	,-0.023815244
	,-0.062827259
	,-0.0295933
	,-0.043910988
	,0.0028391788
	,-0.078684047
	,-0.039398555
	,-0.054713711
	,-0.039581936
	,-0.038168874
	,-0.020341245
	,-0.041069295
	,-0.077863358
	,-0.00078501494
	,-0.010444633
	,0.049946126
	,0.025089856
	,0.068101585
	,-0.034928128
	,-0.0552802
	,-0.059373654
	,-0.021451689
	,0.010056332
	,0.013992715
	,-0.066122219
	,-0.091112971
	,-0.063371755
	,0.037886869
	,-0.056063619
	,-0.046144918
	,0.0038401242
	,-0.070099786
	,0.0079464037
	,-0.057800237
	,-0.06735234
	,0.0087540653
	,-0.089461565
	,-0.010949505
	,0.00548828
	,0.029149696
	,-0.019616617
	,0.062350847
	,-0.025484988
	,0.061040718
	,-0.04801292
	,0.0037441386
	,0.053820819
	,0.078675412
	,0.024342747
	,-0.062761
	,-0.059674922
	,-0.025828714
	,-0.025683958
	,0.019172579
	,0.02605073
	,-0.0079285158
	,0.028678093
	,0.049821317
	,0.043950155
	,-0.035670079
	,-0.0022703896
	,-0.040230051
	,0.0366793
	,0.042268232
	,-0.025234137
	,0.052327882
	,-0.04715934
	,0.01438279
	,0.014543674
	,0.014874305
	,0.030793797
	,-0.073075987
	,-0.059136249
	,-0.022849666
	,0.0077242367
	,0.005581222
	,-0.063025624
	,0.0018857284
	,0.0081118392
	,0.0031911372
	,-0.050792597
	,-0.049882773
	,-0.038750194
	,-0.081458822
	,0.010686809
	,0.0099192457
	,-0.047179572
	,-0.0068094372
	,0.0086414339
	,0.027246285
	,-0.056378171
	,-0.02645883
	,-0.11439011
	,0.0087610735
	,0.012285517
	,0.00936445
	,0.010366474
	,-0.11581918
	,-0.019371536
	,-0.075032748
	,0.060086709
	,0.053484008
	,0.0084586972
	,-0.013735197
	,-0.061240863
	,-0.0072337333
	,-0.023229981
	,-0.029268129
	,-0.029365169
	,-0.039254677
	,0.010287525
	,0.0099940049
	,-0.042209148
	,-0.001145976
	,-0.059406344
	,0.034846019
	,-0.02838609
	,-0.029439658
	,-0.026198419
	,-0.04954607
	,-0.072402835
	,-0.041533045
	,-0.077438146
	,0.02782971
	,-0.0083290217
	,0.01396252
	,-0.040935107
	,0.01385732
	,-0.0095677786
	,0.033094049
	,-0.052438438
	,0.029615292
	,-0.020561827
	,-0.0090878662
	,0.038950704
	,-0.024278406
	,0.035564221
	,0.063993745
	,-0.0011338005
	,0.010280693
	,0.047799747
	,-0.015071684
	,0.023569254
	,0.059637908
	,0.030692704
	,0.0043495307
	,0.015682545
	,-0.020568011
	,0.060487185
	,-0.0025091141
	,0.033719219
	,-0.025752744
	,-0.064357571
	,-0.054701261
	,0.032130606
	,-0.035615969
	,-0.05095249
	,-0.0078444062
	,-0.020045951
	,0.046324838
	,0.058300007
	,0.049440894
	,-0.062700681
	,0.0093400814
	,0.041147836
	,0.041976217
	,0.038917519
	,-0.0028864157
	,-0.035884842
	,0.018333683
	,0.020619145
	,-0.03934022
	,-0.064810537
	,0.051351085
	,-0.040299553
	,0.032898694
	,0.051428434
	,0.06055373
	,0.055804726
	,0.042658329
	,-0.022784622
	,-0.016000321
	,0.0093630962
	,0.035887077
	,-0.023929568
	,-0.036827762
	,-0.021558555
	,-0.0001030723
	,0.011134838
	,-0.046891667
	,-0.019676026
	,-0.036684085
	,0.016941609
	,-0.019038159
	,0.030177992
	,0.032421343
	,0.017447546
	,-0.040947493
	,0.064677678
	,-0.043433335
	,0.024311624
	,0.039543904
	,-0.014826087
	,0.075301707
	,0.035025954
	,-0.024377638
	,0.044031706
	,-0.03016652
	,-0.0080515631
	,0.0066619366
	,-0.069124095
	,0.056958385
	,0.08656051
	,-0.012290903
	,0.0099925883
	,-0.02943976
	,-0.037343785
	,0.025452495
	,0.042544127
	,0.013554365
	,-0.03159311
	,-0.058718756
	,-0.023532454
	,-0.04332044
	,-0.029047642
	,-0.0082747806
	,-0.045673296
	,-0.042974144
	,-0.013473433
	,-0.0073312838
	,0.014369499
	,0.044813368
	,-0.0499488
	,0.080472879
	,0.046321876
	,3.9243434e-05
	,-0.043737933
	,0.026240164
	,-0.048096403
	,0.038567349
	,-0.048107371
	,-0.023646113
	,0.0065632835
	,0.0351838
	,0.043409962
	,0.012704281
	,0.03860344
	,0.042102933
	,0.010337503
	,0.055039547
	,0.0058080424
	,0.0039519556
	,-0.068685561
	,-0.024238264
	,0.033560388
	,0.0022394252
	,0.047940139
	,-0.051885527
	,-0.039233819
	,0.038936857
	,-0.032835972
	,0.048670214
	,-0.032406539
	,0.029136565
	,-0.018779803
	,0.020670412
	,-0.049007487
	,-0.095184051
	,0.031298429
	,-0.026132708
	,0.0030766178
	,-0.040985964
	,-0.032264683
	,-0.015030017
	,-0.0015069684
	,-0.020834744
	,0.039451372
	,0.047646973
	,0.057242431
	,-0.021552881
	,0.017432235
	,0.010055183
	,0.0739394
	,0.014866325
	,0.032096181
	,-0.010868439
	,0.056932077
	,0.090007477
	,-0.011370514
	,0.042379968
	,-0.036034547
	,0.0038043922
	,0.03593928
	,-0.027517749
	,0.01254
	,0.01933822
	,-0.030033622
	,-0.0022935953
	,0.0028272213
	,0.069137432
	,-0.024674103
	,-0.042603143
	,-0.040959693
	,0.031200854
	,-0.00024886386
	,0.039076552
	,0.035624836
	,0.026828222
	,-0.03699011
	,0.0020779464
	,0.023147248
	,-0.037270855
	,0.028427156
	,-0.046830986
	,-0.020499414
	,-0.050917953
	,-0.032453824
	,-0.023605937
	,-0.034998015
	,0.0032069618
	,0.037941668
	,-0.028454503
	,-0.0069875186
	,0.0443218
	,-0.037972827
	,0.036909018
	,0.011231826
	,-0.043434888
	,0.063994266
	,0.012939373
	,-0.03177727
	,-0.055058211
	,-0.0062062596
	,0.036797792
	,-0.019008504
	,-0.01460313
	,-0.052865233
	,0.047341444
	,0.035294209
	,0.029486
	,0.040342297
	,-0.02836976
	,0.008420201
	,-0.019952735
	,-0.015291515
	,-0.033653479
	,-0.021899724
	,0.010446416
	,-0.0371331
	,0.0089510344
	,0.043070916
	,-0.049750939
	,0.0019674264
	,-0.036248494
	,5.5514138e-06
	,-0.018018007
	,0.026016224
	,0.05143423
	,-0.055052403
	,-0.039811064
	,0.047043346
	,0.074670136
	,-0.0079055084
	,-0.0082439743
	,-0.00029260665
	,0.027454736
	,0.0634784
	,-0.037373181
	,0.017928956
	,0.0086106621
	,0.021518564
	,0.0157454
	,-0.060217831
	,-0.030284163
	,-0.05403398
	,0.025513086
	,0.03626214
	,0.0062817968
	,0.01720891
	,0.031333927
	,-0.0055304104
	,-0.027978759
	,-0.013527712
	,0.041179381
	,0.05466957
	,-0.015921712
	,-0.06711778
	,-0.017514065
	,0.024895277
	,0.040086593
	,0.014303808
	,-0.056333136
	,0.086956076
	,0.026081849
	,-0.058009245
	,-0.050516225
	,-0.092190981
	,-0.036840696
	,-0.00017402237
	,0.053044222
	,-0.071038671
	,-0.089980513
	,-0.099940553
	,-0.032878779
	,0.018995138
	,-0.030095711
	,0.040098045
	,0.030347487
	,0.028783837
	,-0.013875232
	,-0.0035273212
	,-0.035693962
	,0.047336966
	,-0.022619478
	,-0.032872703
	,-0.027512457
	,0.017119292
	,-0.031625479
	,0.050266873
	,-0.025415523
	,-0.076754309
	,0.0011274718
	,-0.024443615
	,-0.0080464305
	,0.050180256
	,-0.015279
	,-0.029074848
	,0.0031472081
	,-0.027669696
	,0.00839537
	,0.043767937
	,0.010306779
	,0.019696862
	,-0.025259102
	,-0.010610256
	,-0.018872527
	,-0.010606333
	,0.020169072
	,-0.042314675
	,-0.034637939
	,0.0078582047
	,0.019036174
	,-0.01107461
	,-0.0038545337
	,-0.037276339
	,-0.020768274
	,-0.011122636
	,-0.0091532674
	,-0.05654702
	,0.020012677
	,0.013233517
	,0.022380102
	,0.021147126
	,0.0068928609
	,-0.010867544
	,-0.020268882
	,-0.026244571
	,-0.01638086
	,-0.056520615
	,0.058008477
	,0.041661628
	,0.071971133
	,0.0039349119
	,-0.026427487
	,-0.017773591
	,0.01163037
	,-0.025431842
	,-0.0055137593
	,0.035835285
	,-0.042317409
	,0.042745363
	,-0.037376534
	,0.021908676
	,0.0080682589
	,0.028428318
	,0.036147606
	,-0.030866744
	,-0.045172404
	,0.020868175
	,0.046992347
	,0.003513658
	,-0.048166994
	,-0.019310575
	,-0.05513528
	,-0.016769925
	,0.069836177
	,-0.037926149
	,-0.027232897
	,-0.048303492
	,-0.034076579
	,0.03807994
	,-0.026785966
	,-0.050477479
	,-0.044983491
	,0.035361528
	,-0.00065504364
	,-0.05081895
	,-0.068937019
	,-0.031876255
	,-0.070268609
	,-0.01488358
	,-0.092770331
	,-0.069457293
	,-0.039502013
	,0.049872994
	,-0.0060914704
	,-0.041053314
	,0.0045560622
	,0.020443924
	,0.049221262
	,0.059559498
	,-0.038036548
	,0.044577867
	,0.031013317
	,-0.032842234
	,0.00024698197
	,-0.066487856
	,-0.072245292
	,-0.050703045
	,0.0011277152
	,0.053262394
	,-0.078632906
	,-0.0022901602
	,0.033431958
	,-0.029356904
	,0.033043478
	,-0.012015047
	,0.04082093
	,-0.034280274
	,0.048992757
	,-0.0082962494
	,-0.002905786
	,-0.051671691
	,0.044689473
	,-0.017324129
	,0.0039695883
	,0.022735678
	,-0.039957836
	,-0.020742366
	,-0.049471565
	,-0.0053196456
	,0.031933676
	,-0.011045906
	,0.0087753488
	,0.055264242
	,-0.032366015
	,-0.0454724
	,-0.028946174
	,0.047868293
	,0.031815771
	,0.0096702939
	,-0.043221444
	,-0.038485687
	,-0.029399276
	,-0.018060332
	,0.016485682
	,-0.032247093
	,-0.016392808
	,-0.033573993
	,-0.033621728
	,-0.033933468
	,0.038169637
	,-0.027057365
	,-0.082618527
	,0.0066410797
	,0.015576728
	,-0.0031316006
	,0.056122962
	,-0.0429051
	,-0.069143683
	,-0.073300973
	,-0.052120872
	,0.0062003303
	,-0.019540124
	,-0.1089975
	,-0.049105331
	,-0.056726437
	,-0.011279435
	,-0.023130506
	,0.049805384
	,0.061628
	,0.032931432
	,-0.008686481
	,0.039503358
	,0.13902605
	,0.19440009
	,0.1802962
	,0.16453458
	,-0.019470055
	,-0.033151053
	,0.08575163
	,0.10667724
	,0.08906322
	,-0.066767722
	,-0.091354169
	,-0.059154447
	,-0.092391305
	,-0.058530897
	,0.017370375
	,-0.00034511383
	,0.068159886
	,-0.027414924
	,-0.089294679
	,-0.057142261
	,0.012846196
	,0.03549676
	,0.052982856
	,0.034480453
	,-0.032962356
	,-0.012362875
	,0.11803216
	,0.15083309
	,0.1157092
	,-0.043411165
	,-0.015963444
	,0.017081399
	,-0.049279209
	,0.026587289
	,0.016309496
	,-0.068311095
	,-0.063051917
	,-0.056180831
	,-0.079999015
	,0.021935964
	,-0.030342212
	,0.093665771
	,-0.0069405418
	,0.012971158
	,-0.017837817
	,-0.02434607
	,-0.032006137
	,0.029288135
	,0.024293104
	,-0.038790058
	,0.060760505
	,-0.05623899
	,-0.079821907
	,-0.061888531
	,-0.020666342
	,0.10984789
	,0.14739619
	,0.0834038
	,0.029183585
	,0.055496149
	,0.036357708
	,0.057254519
	,0.098465376
	,0.0076771183
	,-0.060471781
	,0.0042466545
	,-0.026850779
	,0.027646981
	,-0.070918113
	,0.011892372
	,0.067127123
	,0.075905822
	,-0.028297083
	,0.03713046
	,0.0074741067
	,0.082278386
	,0.11267019
	,0.099607661
	,0.072248951
	,-0.022372603
	,-0.065640263
	,-0.071261249
	,-0.0043978291
	,-0.046028871
	,-0.064128064
	,-0.011532627
	,-0.011070668
	,-0.070784248
	,-0.05391556
	,-0.0066375006
	,0.051855311
	,0.050479196
	,-0.046412356
	,-0.013939639
	,-0.0073795095
	,-0.037213873
	,-0.034153763
	,-0.00673158
	,-0.016460175
	,0.05076785
	,0.035842903
	,0.052900843
	,0.043442916
	,0.035928246
	,-0.058309153
	,0.030624995
	,0.049871128
	,0.057704184
	,-0.047920704
	,0.022600034
	,0.026318505
	,-0.053507756
	,-0.063640893
	,-0.057595141
	,0.023045434
	,0.070895173
	,0.0073901615
	,-0.0010282592
	,0.011805879
	,-0.038891554
	,0.0158666
	,-0.091689944
	,-0.041179832
	,-0.03162894
	,0.045496378
	,0.018133506
	,-0.032756846
	,0.064181328
	,0.016917281
	,-0.043932684
	,-0.018079834
	,0.045221079
	,-0.041188959
	,0.0468969
	,-0.03948405
	,-0.13539667
	,-0.066392519
	,-0.14083481
	,-0.1373487
	,-0.041237317
	,-0.021788543
	,-0.0051593171
	,-0.014890296
	,0.024452729
	,-0.02445107
	,-0.031543117
	,-0.080188632
	,-0.051666047
	,-0.037655804
	,0.041215409
	,0.023045339
	,-0.041633729
	,-0.048079975
	,-0.059319902
	,-0.03504144
	,0.15871419
	,0.1817732
	,0.15854618
	,0.0095494315
	,0.06178958
	,0.14748777
	,0.18757
	,0.24259397
	,0.20172238
	,-0.036126185
	,-0.058573797
	,-0.11151752
	,-0.068580456
	,0.018017808
	,-0.027544295
	,-0.0075403121
	,-0.058988143
	,-0.046833679
	,-0.053352322
	,-0.059186805
	,0.01846021
	,0.035575371
	,-0.0077988859
	,-0.036799673
	,-0.02436268
	,-0.039561696
	,-0.0040553315
	,0.044391744
	,0.029124454
	,-0.044483405
	,-0.037844624
	,-0.045501243
	,-0.084135346
	,0.010492601
	,-0.032615315
	,-0.029291546
	,0.0014092147
	,-0.011849357
	,-0.084442683
	,-0.053243522
	,-0.043290988
	,-0.020721676
	,-0.047308967
	,0.01285766
	,0.024453197
	,0.0093192542
	,0.027613936
	,-0.074946217
	,-0.050167613
	,-0.065532789
	,-0.09537375
	,-0.060203452
	,-0.11828411
	,-0.039399762
	,0.0021290467
	,-0.088362031
	,0.013534041
	,-0.029044902
	,-0.057703454
	,0.042069074
	,-0.018483276
	,-0.00045502232
	,-0.028125986
	,-0.03526596
	,0.062061734
	,0.036138937
	,0.042634066
	,0.021626862
	,-0.027199071
	,0.044474814
	,0.0723636
	,0.042165894
	,0.066018321
	,0.030320013
	,-0.056057326
	,-0.038240314
	,-0.023262678
	,-0.025718283
	,-0.046098784
	,-0.069536604
	,0.0043671695
	,-0.039697405
	,-0.031728897
	,-0.062487405
	,-0.026486484
	,-0.022459691
	,-0.0014272655
	,-0.053414531
	,-0.0085797934
	,-0.049141854
	,0.016888225
	,-0.04604689
	,-0.016007282
	,-0.066879407
	,0.001256344
	,0.057433013
	,-0.040941529
	,-0.004055032
	,-0.023568429
	,-0.059292521
	,0.033492986
	,0.020628607
	,-0.052843165
	,-0.0062901876
	,-0.072664164
	,-0.08864598
	,-0.044063944
	,-0.082869053
	,-0.046910238
	,-0.02746396
	,-0.052822851
	,-0.011906863
	,-0.0015798449
	,-0.016457275
	,-0.021357581
	,-0.039905079
	,-0.043318104
	,0.022517635
	,0.047224686
	,-0.031510651
	,-0.058082204
	,-0.022448514
	,-0.018114803
	,-0.0057599149
	,-0.075166821
	,-0.082906157
	,-0.0768492
	,-0.042299028
	,-0.066928543
	,-0.067103229
	,0.0043700333
	,-0.014719022
	,-0.044081304
	,-0.036766384
	,-0.0022806586
	,-0.013649256
	,0.048792925
	,0.027507499
	,0.028928757
	,-0.032468013
	,0.0027949715
	,-0.017765703
	,-0.026143704
	,-0.04312399
	,-0.016424639
	,-0.031758487
	,0.0071237087
	,-0.087055139
	,-0.04716254
	,0.058545116
	,0.042795297
	,0.095962726
	,0.019704239
	,0.10498956
	,-0.0743361
	,-0.0096358461
	,-0.046768669
	,-0.012603253
	,-0.016478276
	,-0.13201669
	,-0.060961265
	,-0.11942849
	,-0.12281346
	,-0.015216266
	,-0.037719794
	,0.045563947
	,-0.015717179
	,0.014125867
	,-0.056313328
	,0.024623675
	,0.027007243
	,-0.03097978
	,0.012752364
	,-0.052084632
	,-0.025498994
	,0.011189104
	,0.0061243796
	,-0.089003287
	,-0.074319668
	,-0.012193813
	,-0.050528951
	,-0.0099006034
	,-0.051618394
	,-0.037991848
	,-0.10749771
	,-0.11175387
	,-0.099200428
	,-0.0034253814
	,-0.059856746
	,-0.024780426
	,-0.022390557
	,-0.015966699
	,-0.0025123281
	,0.030316785
	,-0.088404879
	,-0.035293646
	,-0.0064576333
	,0.00579107
	,0.0030507192
	,-0.04454188
	,-0.07572414
	,-0.074568614
	,-0.016097628
	,0.014976276
	,-0.01716275
	,-0.060882576
	,-0.029549347
	,-0.069344863
	,-0.0053205634
	,0.025165051
	,0.012615883
	,0.021034308
	,0.0418568
	,0.012171573
	,-0.018479342
	,0.0046679974
	,-0.032964248
	,-0.048206422
	,0.073931
	,0.004760243
	,-0.061408307
	,-0.0032319075
	,-0.01944915
	,0.064725168
	,-0.062701635
	,-0.085298412
	,-0.082238041
	,-0.048435934
	,-0.0745606
	,0.0017149767
	,0.0087546511
	,0.020110628
	,-0.033451669
	,0.0654705
	,0.028108917
	,0.076272696
	,0.10626882
	,0.024152352
	,0.028343806
	,-0.0042783562
	,0.00050523371
	,0.0097637121
	,0.043914795
	,-0.026826141
	,-0.070831984
	,-0.034818288
	,-0.028833501
	,0.025917044
	,-0.011415623
	,0.010275554
	,0.000146372
	,-0.0057430379
	,-0.073462516
	,0.031945091
	,-0.011628363
	,-0.084619366
	,-0.093033873
	,-0.062246058
	,-0.08419399
	,-0.032156274
	,-0.10504219
	,-0.1458784
	,-0.095836706
	,-0.08601141
	,-0.0026305933
	,0.096220061
	,0.07808204
	,0.0066480562
	,-0.02716771
	,0.0022407174
	,0.0500465
	,0.15752144
	,0.0974304
	,0.070801444
	,-0.043580815
	,-0.10307932
	,0.032725826
	,0.0002620118
	,0.074908294
	,-0.059669487
	,-0.077847891
	,-0.12266253
	,-0.052427571
	,-0.093164012
	,-0.0079047391
	,-0.003407005
	,-0.09692847
	,-0.060822882
	,-0.10767145
	,-0.0060271304
	,-0.045153014
	,-0.066802956
	,-0.021487931
	,-0.057930373
	,0.035657506
	,0.0627685
	,0.082045496
	,-0.023469688
	,-0.00090589013
	,-0.03242049
	,-0.031908166
	,0.031256247
	,0.11683027
	,0.008469631
	,-0.027549757
	,-0.015109781
	,0.0074459892
	,-0.0045029749
	,0.059351034
	,-0.02349952
	,-0.035398949
	,-0.09793748
	,-0.0057901628
	,-0.08787521
	,0.055258278
	,-0.019998798
	,0.025535062
	,0.032279052
	,0.036330622
	,-0.057021555
	,0.029777925
	,0.030745745
	,-0.011253495
	,0.0023879348
	,0.030002173
	,0.044986729
	,0.0012351242
	,0.047794379
	,-0.022806756
	,0.038038168
	,-0.077884711
	,-0.0627858
	,-0.0016258546
	,-0.041041717
	,-0.021230275
	,-0.040484387
	,-0.024127785
	,-0.018521251
	,-0.01850578
	,0.066594638
	,0.014589441
	,0.004959119
	,0.033501748
	,0.056086849
	,0.014781489
	,0.018263925
	,-0.0081738811
	,-0.0078734728
	,0.021247443
	,-0.012894876
	,-0.028506478
	,-0.0764145
	,0.03592217
	,0.030910833
	,0.031174837
	,-0.021214498
	,0.023580272
	,-0.079533584
	,-0.0095965993
	,0.099192426
	,-0.038746748
	,-0.021440884
	,-0.075405307
	,-0.023633555
	,-0.016893646
	,0.0045608212
	,0.014631849
	,0.032821752
	,0.033626508
	,-0.016233196
	,0.042662583
	,-0.051412258
	,-0.042744551
	,-0.032250479
	,0.00239412
	,-0.032809671
	,0.034048703
	,0.06278345
	,-0.014408145
	,0.029104948
	,0.023901682
	,-0.051713906
	,0.032711316
	,0.0068944017
	,0.053145811
	,-0.0083534643
	,0.00046290434
	,0.0090596853
	,-0.026698031
	,-0.033888482
	,-0.054477148
	,-0.020213725
	,-0.021644166
	,0.034118671
	,0.040322084
	,0.013801199
	,-0.058157396
	,-0.022185208
	,0.015225658
	,0.011562797
	,0.0013386467
	,0.00041669738
	,-0.046509057
	,0.0038698022
	,-0.060594473
	,-0.011775708
	,0.017420402
	,-0.028593503
	,-0.027088359
	,0.035846695
	,0.0037707135
	,-0.052911784
	,-0.0034222433
	,0.079000719
	,0.020655032
	,0.070076905
	,0.0055284328
	,-0.047953755
	,0.037615173
	,0.025731193
	,-0.047811974
	,-0.061193198
	,-0.0086553143
	,-0.019216757
	,0.02357284
	,-0.055581328
	,-0.020956414
	,-0.0033435556
	,-0.0038929482
	,0.03342228
	,-0.0005325026
	,-0.038900491
	,-0.010787669
	,-0.034647916
	,0.032875676
	,0.023103863
	,0.0079541011
	,0.0030942445
	,-0.071136378
	,0.0082578026
	,0.039852694
	,-0.0095553957
	,-0.0081359912
	,-0.046158433
	,0.012420763
	,-0.00012784632
	,-0.020724844
	,-0.051300526
	,-0.03651686
	,-0.030983485
	,-0.036465764
	,0.046926551
	,0.0039523407
	,-0.050564729
	,-0.0049723079
	,-0.019492913
	,-0.030988131
	,0.021220606
	,0.040542662
	,-0.042023573
	,0.04834066
	,0.038251895
	,0.0041548284
	,0.040643808
	,-0.0079472587
	,-0.0016677619
	,0.010265904
	,0.057936642
	,0.040691823
	,-0.015535326
	,-0.019337256
	,0.00902067
	,0.057100423
	,0.011668247
	,0.0039691632
	,-0.048179187
	,0.0040652133
	,0.028445162
	,4.6507419e-05
	,0.058667056
	,0.036409397
	,0.011214867
	,0.059677672
	,0.000666353
	,0.037614454
	,0.060795646
	,-0.010620041
	,-0.017287811
	,-0.025553618
	,-0.033169638
	,-0.041462086
	,-0.061965771
	,-0.0070688589
	,-0.036842018
	,-0.020240165
	,0.017001873
	,0.012546472
	,0.06425032
	,0.050849766
	,0.0932654
	,0.092893727
	,0.097459137
	,0.0095107518
	,0.014420475
	,0.0045958711
	,-0.05188188
	,-0.024736641
	,-0.00573683
	,-0.046066809
	,-0.049365394
	,-0.038707219
	,0.0015871337
	,-0.0059204572
	,0.021940358
	,0.0094660511
	,0.01512398
	,-0.029454298
	,-0.0014595392
	,-0.0051257075
	,0.01206209
	,-0.0044804187
	,0.030435544
	,0.037322126
	,-0.027288955
	,-0.066121437
	,-0.037564754
	,-0.030175306
	,0.047936186
	,-3.92281e-05
	,0.012243181
	,-0.053484216
	,-0.0024198019
	,-0.064950354
	,0.016260879
	,0.046823177
	,-0.038437326
	,0.0022075935
	,0.011126158
	,0.023693187
	,-0.0055799372
	,-0.034978762
	,-0.020198658
	,-0.021831876
	,-0.034223869
	,-0.056126162
	,-0.033212602
	,-0.016195111
	,-0.01799494
	,0.023674848
	,0.044074297
	,-0.039991781
	,0.067936338
	,0.074797846
	,-0.050336733
	,-0.017633513
	,0.048269391
	,-0.037587628
	,-0.022365537
	,-0.039217271
	,-0.0055727763
	,0.025782986
	,-0.053696107
	,-0.030458085
	,-0.020795358
	,0.01241635
	,0.060645364
	,0.008988983
	,-0.044996444
	,-0.043085575
	,-0.048298255
	,0.034575492
	,-0.051195271
	,0.0514285
	,0.02528251
	,0.016244249
	,0.018327029
	,0.002325641
	,-0.000953319
	,-0.031206759
	,-0.00816818
	,0.00022892152
	,-0.058217015
	,0.043099124
	,0.03272488
	,0.060598694
	,-0.0049270955
	,-0.010605254
	,0.016563268
	,-0.053552907
	,0.00907098
	,-0.046907082
	,0.036129594
	,0.036454607
	,0.059435654
	,0.025837395
	,0.034942538
	,-0.028952947
	,0.025877777
	,-0.011357773
	,-0.028946161
	,-0.037658636
	,0.0089969365
	,-0.021215314
	,-0.02051208
	,-0.042310566
	,-0.036139533
	,0.016663574
	,-0.032700963
	,0.015474198
	,0.0608532
	,0.017779835
	,0.0069800504
	,-0.004892651
	,0.02797132
	,0.053744324
	,0.067259967
	,-0.029194342
	,-0.013488223
	,0.04943515
	,0.027098551
	,-0.0023210715
	,-0.030826835
	,0.050883204
	,0.052019063
	,0.0048762439
	,0.03070006
	,-0.026365941
	,0.050895207
	,-0.037895471
	,0.059619918
	,-0.023420753
	,-0.02280964
	,-0.046236929
	,-0.050830003
	,0.0684061
	,0.054765176
	,0.031218227
	,0.005267648
	,-0.053464387
	,-0.021358367
	,-0.030977616
	,-0.054613121
	,-0.011676331
	,0.028614489
	,-0.0028421339
	,0.00996265
	,0.051583949
	,0.043621026
	,0.048322245
	,0.022943415
	,-0.025002889
	,-0.044588882
	,0.0044193245
	,0.0031253963
	,-0.078438677
	,-0.060286868
	,-0.00404816
	,-0.0042709187
	,0.080541432
	,0.056498971
	,0.005290376
	,-0.00815554
	,-0.030932575
	,0.059444983
	,-0.007815484
	,0.015457626
	,-0.013555943
	,-0.051555648
	,-0.0080596665
	,-0.0045396094
	,0.026759328
	,-0.028550724
	,0.044856198
	,0.06332615
	,-0.00086388586
	,0.0018584194
	,0.028553311
	,0.049890246
	,-0.022822112
	,-0.037093364
	,-0.011484991
	,-0.021770412
	,0.0452127
	,0.032741044
	,0.011300075
	,0.022333831
	,-0.071167447
	,0.054335032
	,-0.026212482
	,0.057128124
	,-0.028692504
	,0.059353027
	,0.012261139
	,-0.039352681
	,-0.049489073
	,-0.030596983
	,-0.0026728816
	,-0.010700013
	,0.014835512
	,0.033711169
	,0.026759302
	,-0.049377058
	,0.03039974
	,0.032902777
	,0.022881117
	,0.017102607
	,-0.0021107842
	,-0.039627466
	,0.0175029
	,0.035369229
	,0.024808496
	,0.046842966
	,-0.030050511
	,-0.035207648
	,-0.01218666
	,0.05832044
	,0.02135141
	,0.05267952
	,-0.018930575
	,0.013599824
	,-0.04668713
	,-0.008146598
	,0.0091024255
	,-0.043792941
	,0.040156052
	,-0.0029152778
	,0.019824557
	,0.036242809
	,0.012052044
	,0.019350775
	,-0.00736933
	,0.0069055967
	,-0.0011493027
	,0.044080332
	,-0.021707352
	,-0.039682847
	,0.057776738
	,0.055417951
	,0.03022195
	,0.017862294
	,-0.048046995
	,0.022823008
	,-0.034752004
	,-0.037210669
	,0.02485946
	,0.014358384
	,0.0540123
	,-0.0010378581
	,0.0368916
	,0.012085463
	,-0.028149206
	,0.0036764047
	,-0.06770239
	,-0.0040201065
	,-0.029958231
	,-0.036847427
	,-0.061149448
	,-0.011886137
	,0.021704983
	,-0.023683086
	,0.019083966
	,0.05018495
	,-0.067229211
	,-0.030036675
	,0.028068371
	,0.049956817
	,-0.0449515
	,-0.041527711
	,0.013220624
	,0.0039032488
	,-0.010250952
	,0.020951351
	,-0.044988092
	,0.041222177
	,-0.083108321
	,-0.028436918
	,0.026055189
	,-0.053688738
	,0.05835133
	,0.024843035
	,-0.0040335222
	,-0.04248976
	,-0.031128354
	,-0.019870995
	,0.03653447
	,0.036319252
	,-0.028981725
	,-0.0675379
	,0.028363604
	,0.017816536
	,-0.054825239
	,-0.027287291
	,-0.0056134528
	,-0.031589177
	,0.049439777
	,0.064097852
	,0.058958732
	,-0.011234803
	,-0.047104429
	,-0.032747082
	,0.027883295
	,-0.0010851166
	,0.023477422
	,0.028560113
	,0.044049393
	,-0.051072441
	,-0.0076577864
	,-0.038443629
	,-0.015977388
	,-0.047491323
	,0.021638116
	,-0.017795203
	,-0.0066458895
	,0.0096285809
	,-0.066514805
	,-0.065690637
	,0.016988607
	,-0.014168723
	,-0.042010318
	,-0.046468846
	,-0.039489266
	,-0.026171122
	,-0.047400739
	,-0.016134955
	,-0.05672837
	,0.034428328
	,-0.038624674
	,0.0057953238
	,0.0014237489
	,0.0077124694
	,-0.04222434
	,-0.029481892
	,-0.014634857
	,-0.031308703
	,-0.019699994
	,-0.051229954
	,0.010892066
	,-0.052414846
	,-0.014613427
	,0.020540286
	,0.031092474
	,-0.067565262
	,-0.016113924
	,-0.0479876
	,-0.049720522
	,-0.094843678
	,-0.059155785
	,0.0099821789
	,0.028289324
	,-0.027928486
	,-0.091036342
	,-0.02482184
	,-0.0058692712
	,0.013974756
	,0.012008253
	,-0.0570707
	,-0.033067416
	,-0.024483427
	,-0.014454882
	,0.003916271
	,-0.092119947
	,-0.068443961
	,0.035866048
	,-0.018145949
	,-0.0060535753
	,0.010068724
	,-0.055452686
	,0.038135212
	,-0.041643441
	,-0.051860411
	,0.012434481
	,0.024142466
	,-0.044320554
	,-0.042380452
	,-0.024152305
	,-0.058882367
	,-0.012375575
	,-0.059244018
	,0.0042732926
	,0.015705405
	,-0.0097048646
	,-0.061474048
	,0.023716204
	,-0.0068875025
	,-0.026042081
	,-0.015868636
	,-0.048030034
	,-0.023784511
	,-0.020149041
	,-0.0041574817
	,-0.00087085133
	,-0.062545493
	,-0.0034737876
	,-0.038716484
	,0.020294445
	,-0.036002215
	,-0.04292769
	,0.0039259056
	,-0.049342688
	,-0.041789532
	,-0.028943947
	,-0.016928418
	,-0.01857016
	,0.0064419322
	,-0.023376802
	,-0.010679672
	,-0.027144581
	,-8.3479252e-05
	,0.00565809
	,-0.073936984
	,0.013349262
	,0.030696113
	,0.03940047
	,0.022961818
	,0.035237379
	,0.0066082259
	,-0.051767912
	,0.0013154502
	,0.033898957
	,0.017253229
	,0.0063160961
	,-0.040585477
	,-0.0057465569
	,0.0068151853
	,0.012482922
	,-0.065341942
	,-0.020821216
	,0.030115493
	,0.021638561
	,0.032410938
	,-0.051744014
	,-0.079800531
	,0.015689634
	,0.019470343
	,0.047092617
	,0.023779172
	,-0.06652835
	,-0.016561696
	,0.082325779
	,-0.013043331
	,-0.058458507
	,-0.022060666
	,-0.014694717
	,-0.02367847
	,-0.0018907684
	,-0.064046137
	,-0.037509535
	,-0.024844462
	,-0.046125147
	,-0.020044003
	,0.0051262439
	,-0.012939996
	,0.029530149
	,-0.0023633672
	,-0.040782042
	,-0.0327818
	,0.0091884211
	,-0.037631307
	,-0.011533512
	,-0.060703464
	,-0.031906012
	,-0.060731988
	,-0.011892541
	,0.0098508941
	,-0.022868194
	,-0.060367364
	,-0.066780247
	,0.0082752481
	,-0.032243717
	,-0.05343283
	,-0.037135195
	,0.053915467
	,0.061499588
	,-0.01006567
	,-0.032079469
	,-0.021249039
	,0.049163248
	,-0.0344171
	,-0.079043187
	,-0.023718322
	,-0.012668955
	,0.042077351
	,0.0115258
	,-0.061490554
	,-0.055728886
	,-0.051398635
	,0.075556614
	,-0.040742207
	,-0.086363561
	,-0.027583124
	,-0.030107651
	,-0.028929779
	,0.024468044
	,0.003146644
	,-0.089427009
	,-0.041087046
	,-0.06777899
	,-0.078138724
	,0.0059258579
	,-0.053226475
	,-0.043927487
	,-0.015818108
	,-0.071922265
	,-0.023618015
	,-0.053545952
	,-0.038872652
	,-0.065923028
	,-0.044178423
	,-0.079887554
	,-0.04522885
	,-0.015527117
	,0.022089163
	,-0.015664939
	,-0.072853141
	,0.060220003
	,0.043434754
	,-0.034931287
	,-0.053303547
	,-0.037339091
	,-0.026612025
	,-0.030889865
	,-0.010012521
	,-0.0072091697
	,0.038868368
	,-0.01164199
	,0.0479859
	,0.0045622783
	,-0.018200224
	,0.037327457
	,-0.038366865
	,0.025384901
	,-0.020701291
	,0.0471495
	,-0.0010392343
	,0.055171
	,0.063236438
	,0.007413845
	,0.073031992
	,0.053304315
	,-0.0069265044
	,-0.01347404
	,0.036672227
	,0.05165809
	,-0.023729779
	,-0.069606692
	,0.016423726
	,0.045100216
	,0.029462574
	,-0.020420237
	,0.012191037
	,0.0012928323
	,0.11243674
	,0.040259402
	,-0.055179697
	,-0.028783809
	,0.03448439
	,0.024952866
	,0.013888887
	,-0.046998255
	,-0.021503717
	,-0.00824347
	,0.038369577
	,0.029766599
	,-0.035961915
	,-0.024802815
	,0.038836688
	,-0.0017584934
	,0.018574547
	,0.042090487
	,-0.058946192
	,-0.042796664
	,0.03675152
	,-0.034310434
	,-0.0177642
	,-0.017310053
	,-0.0057918625
	,0.0055091828
	,0.025385689
	,0.0082521513
	,-0.058886409
	,0.028482551
	,0.0088151013
	,-0.012960906
	,0.041850567
	,0.0028527491
	,-0.031019727
	,0.0067709628
	,0.037450582
	,0.0094429329
	,0.016186599
	,0.0093373489
	,-0.016948652
	,-0.0099570928
	,0.032661349
	,-0.041341886
	,-0.00030317792
	,-0.034311567
	,0.052801568
	,-0.00098085438
	,-0.012706997
	,0.0037699346
	,-0.033216413
	,0.021659955
	,-0.053380683
	,-0.057342071
	,-0.078341082
	,0.01179511
	,-0.026782054
	,0.0094960267
	,0.034695115
	,-0.059417453
	,-0.047127411
	,0.035443045
	,-0.013000783
	,-0.023033243
	,-0.007847975
	,0.051820382
	,0.055998486
	,0.010950891
	,0.013823029
	,-0.046302337
	,0.051585466
	,-0.016579706
	,0.01228544
	,-0.039658438
	,-0.0027018792
	,0.05667584
	,-0.0079953019
	,0.011897041
	,0.024266206
	,0.02841676
	,0.012428013
	,-0.031067934
	,0.019772911
	,-0.024778929
	,-0.014986245
	,0.000955923
	,-0.071076311
	,0.0004597381
	,0.0062073953
	,-0.022655685
	,0.011058316
	,0.0097105242
	,-0.01995872
	,-0.042135764
	,0.0083419383
	,0.03264007
	,0.040727425
	,-0.012422394
	,-0.051481828
	,-0.082562029
	,-0.020912396
	,0.011883475
	,-1.8143148e-05
	,-0.020566339
	,-0.071561694
	,0.030890338
	,-0.010549285
	,-0.055860341
	,-0.028304705
	,-0.065870658
	,0.053730085
	,-0.034156445
	,-0.0047663669
	,-0.017255215
	,0.032678962
	,0.02219831
	,-0.011604953
	,0.055084575
	,0.015917182
	,-0.038259733
	,0.037184577
	,-0.032455672
	,-0.022599814
	,0.00097607169
	,-0.030110741
	,0.045731328
	,0.038333528
	,-0.036110543
	,-0.097864471
	,-0.051411308
	,0.067343391
	,-0.024788117
	,-0.089553207
	,0.026597654
	,0.050025392
	,0.037621565
