w_t _weights_ip1[3200] = {
	0.008459108
	,-0.041172858
	,0.22479419
	,0.12896824
	,-0.052545667
	,0.025888335
	,-0.095011458
	,0.082407266
	,-0.08424966
	,-0.018080877
	,-0.12375768
	,0.038146086
	,-0.30162156
	,-0.053437285
	,-0.045225352
	,-0.061717186
	,-0.17651966
	,-0.15539105
	,-0.085259885
	,0.0030683135
	,0.021105176
	,-0.006329021
	,-0.026142338
	,-0.2682116
	,-0.26900834
	,-0.063484982
	,-0.1354311
	,-0.13098422
	,-0.07841754
	,0.089883864
	,0.02648684
	,0.025653504
	,0.030003985
	,-0.010881741
	,-0.059637077
	,-0.11457247
	,0.017399617
	,0.14853187
	,-0.051720221
	,0.065301612
	,-0.12462742
	,0.050297841
	,-0.064717442
	,-0.017518707
	,-0.17853543
	,-0.049863536
	,0.073946059
	,-0.033703823
	,-0.0801611
	,-0.01949887
	,-0.11484783
	,0.11243545
	,-0.041908283
	,-0.098785378
	,0.054580815
	,-0.047486529
	,0.079704165
	,0.00791148
	,-0.013101852
	,-0.10650167
	,-0.13651522
	,-0.050501537
	,-0.024173984
	,-0.15883404
	,0.064489581
	,-0.00014573321
	,0.19657387
	,-0.12122436
	,-0.0262308
	,-0.0093685361
	,0.17096867
	,-0.17872645
	,0.26536021
	,-0.0373568
	,0.042436738
	,-0.30044776
	,0.18448196
	,-0.10561929
	,-0.12639859
	,-0.0084846532
	,-0.0083278874
	,0.071132272
	,0.042556625
	,0.037903093
	,0.13293074
	,0.013465433
	,-0.068023324
	,-0.14375079
	,0.11235071
	,-0.10492536
	,-0.23114157
	,0.15386197
	,-0.0868227
	,-0.083280534
	,0.21737462
	,0.24965511
	,-0.083866671
	,0.1521439
	,-0.024330869
	,0.018968074
	,0.069800407
	,0.0027341028
	,-0.0076079229
	,0.0075793331
	,0.23867336
	,-0.064388342
	,0.11907045
	,0.18573239
	,-0.17172857
	,-0.029998953
	,-0.014854521
	,0.033942726
	,0.14075136
	,0.22075547
	,0.060418446
	,-0.079532936
	,-0.060453538
	,-0.068221606
	,0.10908233
	,-0.018056268
	,-0.090324819
	,0.044031471
	,-0.079561152
	,0.037084688
	,0.1236316
	,-0.022906262
	,-0.0010831042
	,-0.032449108
	,0.026054712
	,-0.087528788
	,0.0081245275
	,0.23404443
	,-0.14049782
	,0.010068254
	,0.080139346
	,-0.0013265909
	,0.031685788
	,-0.084152751
	,0.010104302
	,-0.05777951
	,-0.027705565
	,0.11215534
	,-0.037011974
	,-0.073332764
	,0.099234268
	,-0.033854462
	,-0.11164921
	,0.011103866
	,-0.21988453
	,-0.11127397
	,0.026543459
	,0.024013694
	,-0.05910011
	,0.2694318
	,0.071775734
	,-0.15433207
	,0.15005215
	,0.076150708
	,0.089286253
	,-0.12613125
	,0.085426934
	,-0.20249963
	,0.044796981
	,-0.10301677
	,0.22617781
	,0.012484175
	,-0.097329766
	,-0.11956163
	,0.016333696
	,0.028746264
	,0.15782781
	,0.12170126
	,-0.15662244
	,-0.016544756
	,-0.0051907394
	,0.021591581
	,0.13105188
	,-0.016857827
	,-0.021025356
	,0.082666948
	,-0.18851225
	,-0.29547426
	,-0.24518897
	,-0.12607761
	,-0.030500589
	,-0.11050612
	,0.1319447
	,0.18954998
	,0.023057982
	,-0.050579488
	,0.033588536
	,0.20405897
	,-0.17080753
	,0.036558423
	,-0.23437087
	,-0.13308968
	,0.041371476
	,0.24471577
	,0.2417392
	,0.012545643
	,-0.0088617206
	,-0.067829765
	,0.19837715
	,0.16344
	,-0.045518428
	,0.023812536
	,0.060543209
	,-0.017602647
	,0.15203206
	,0.077123165
	,0.24051586
	,0.015714966
	,-0.01318654
	,0.095957659
	,-0.024255738
	,-0.14490853
	,-0.0054325084
	,0.092691384
	,-0.097919427
	,-0.02893226
	,-0.079765894
	,0.10442767
	,0.1392979
	,-0.12653577
	,-0.090644114
	,-0.076668389
	,0.057221096
	,-0.00063564221
	,-0.047631908
	,-0.22600907
	,-0.047630545
	,-0.082618326
	,0.23031764
	,-0.1155302
	,-0.0981554
	,-0.069421455
	,-0.19486345
	,-0.063369222
	,-0.066611335
	,-0.023653459
	,0.12786506
	,0.085590929
	,0.048070565
	,-0.13650957
	,-0.096421547
	,0.091414027
	,0.04317119
	,0.16167535
	,0.065960445
	,-0.026903503
	,0.15261561
	,-0.011978348
	,0.022557922
	,0.21950163
	,0.034595396
	,-0.10123021
	,-0.012478146
	,0.055002604
	,0.13434532
	,0.037054375
	,-0.017590085
	,-0.21004209
	,0.16928296
	,-0.0027492703
	,0.12002104
	,0.070332527
	,0.11392767
	,0.08017195
	,0.12229338
	,0.024882821
	,0.028956864
	,-0.082806967
	,-0.073394381
	,0.16500066
	,0.074173592
	,-0.02850192
	,0.0051314607
	,0.20119721
	,0.18560711
	,0.04694638
	,0.048059687
	,0.11184022
	,-0.03873476
	,0.078863151
	,-0.011619681
	,0.023259306
	,-0.18696973
	,-0.21589522
	,0.0090508647
	,-0.058967065
	,-0.1126529
	,-0.0723298
	,0.062808573
	,-0.0013514335
	,0.0859848
	,-0.059992325
	,-0.0084045408
	,0.076088123
	,-0.047143906
	,0.097888544
	,-0.056047879
	,-0.052726917
	,0.011599611
	,0.1995537
	,0.098939545
	,-0.1241069
	,0.0063897832
	,-0.021441305
	,0.016871104
	,0.18907517
	,0.031968035
	,-0.02141775
	,-0.090780146
	,0.18274762
	,-0.12078585
	,-0.2170487
	,-0.15146109
	,0.20110308
	,0.10545408
	,0.0982527
	,0.20431082
	,0.2462249
	,0.14614187
	,-0.038842335
	,-0.022618083
	,-0.080511354
	,-0.12096284
	,-0.14079054
	,-0.12654662
	,-0.21715507
	,-0.087788
	,-0.15121713
	,0.083748057
	,0.17113578
	,-0.11445107
	,0.074630663
	,0.15221135
	,0.055137988
	,-0.01992958
	,0.010143435
	,0.21777117
	,0.18868348
	,-0.0026624645
	,-0.25942597
	,0.053999167
	,0.020595634
	,0.090506576
	,-0.20243555
	,0.18722682
	,-0.0004394197
	,0.036171395
	,0.1459813
	,0.15675586
	,-0.0760453
	,-0.25670424
	,-0.18431163
	,0.0025677201
	,0.014546214
	,-0.043381553
	,-0.11348126
	,0.19321749
	,0.1062234
	,0.013881414
	,0.10778482
	,0.17801161
	,-0.16054305
	,-0.11440361
	,0.26183328
	,-0.034115531
	,-0.24206246
	,0.2134839
	,0.34828603
	,-0.010403301
	,0.12758221
	,0.034615554
	,0.20871626
	,-0.14947274
	,-0.011316041
	,-0.0019020179
	,-0.033809129
	,-0.021842476
	,0.0821764
	,0.080923788
	,-0.057585455
	,-0.32755697
	,-0.042547174
	,-0.053357355
	,0.14067253
	,-0.048165184
	,-0.02898974
	,0.0795731
	,0.061792891
	,0.082032107
	,-0.048516087
	,0.049558055
	,0.14030887
	,0.0039104004
	,-0.00862877
	,0.17427753
	,-0.030383568
	,-0.15529206
	,0.019530045
	,0.051053029
	,0.22529174
	,-0.17326461
	,0.0061825863
	,0.14476253
	,0.067035273
	,0.0894655
	,0.10315257
	,-0.019698251
	,-0.017734233
	,-0.0010811158
	,-0.21160224
	,-0.054860447
	,-0.058983937
	,0.094865069
	,-0.08512976
	,0.21718821
	,-0.0450094
	,0.038855422
	,0.0080398675
	,-0.17693816
	,-0.14345993
	,-0.085733294
	,0.0726436
	,0.045627136
	,0.075662948
	,0.022382617
	,0.045781676
	,-0.030197904
	,0.018112445
	,-0.039720651
	,-0.12054917
	,-0.038800098
	,0.025186254
	,-0.12228325
	,-0.32103294
	,0.13040367
	,0.022870947
	,0.15403056
	,-0.19122311
	,-0.085602418
	,-0.029620027
	,0.13786173
	,0.22694014
	,0.0060237446
	,0.17630228
	,0.0015729954
	,-0.0856609
	,0.078346811
	,0.18957254
	,0.10849243
	,0.032554973
	,-0.10910917
	,0.099394619
	,0.16226487
	,0.012802655
	,0.091954522
	,0.01058301
	,0.09066736
	,-0.0984311
	,-0.18551317
	,-0.14119688
	,-0.095978215
	,0.1482764
	,-0.079038329
	,-0.0083352309
	,-0.13464123
	,0.05390054
	,-0.045120537
	,-0.0035883593
	,0.15278316
	,0.061664604
	,-0.11163463
	,0.18554579
	,-0.19099388
	,-0.19532712
	,-0.087643713
	,-0.18871313
	,0.096345648
	,0.00061870739
	,-0.010529577
	,-0.10568479
	,-0.064258061
	,0.12313645
	,-0.062734395
	,0.14234942
	,-0.065970771
	,0.034008637
	,0.22344941
	,-0.089933321
	,0.21337354
	,0.056961082
	,-0.1282381
	,0.01042202
	,-0.066563651
	,-0.015312727
	,-0.042748664
	,-0.048668593
	,-0.0700983
	,-0.32199064
	,0.01416215
	,-0.072554722
	,-0.20198803
	,0.046687573
	,0.003648733
	,-0.044718321
	,0.093323544
	,0.081569158
	,0.01013894
	,-0.22730696
	,-0.13055734
	,-0.033223134
	,-0.10822252
	,0.056547128
	,-0.031102974
	,0.20389782
	,0.24062406
	,0.08779788
	,-0.011732529
	,0.25582111
	,0.029870955
	,0.066867
	,0.037548278
	,0.24405915
	,-0.10992167
	,-0.11718819
	,0.083590627
	,-0.10336553
	,0.0034054543
	,0.075477876
	,0.17423049
	,0.0313904
	,-0.13556804
	,-0.091422044
	,0.13299799
	,-0.16454744
	,0.0021228208
	,0.076659039
	,0.031755414
	,-0.00089752418
	,0.075686507
	,0.10186291
	,0.021740658
	,-0.079517268
	,0.013551021
	,-0.079028241
	,0.16718137
	,0.20099191
	,0.038285814
	,-0.032138534
	,-0.12843588
	,-0.028367337
	,-0.11945841
	,0.085391022
	,-0.044901915
	,-0.18047532
	,-0.068083443
	,-0.030434508
	,-0.20598136
	,0.01097853
	,0.082081795
	,-0.072692379
	,-0.13989726
	,0.14054215
	,0.069353126
	,-0.21673727
	,0.12066612
	,0.048509117
	,-0.12652893
	,-0.13027681
	,0.016755832
	,0.059740733
	,-0.11879754
	,0.040305436
	,0.072991759
	,0.049735893
	,0.048637692
	,-0.016338188
	,0.33545443
	,0.1455633
	,0.10789984
	,-0.00080500636
	,0.069375455
	,-0.072451927
	,0.075226992
	,-0.07991977
	,0.16386434
	,0.002801192
	,-0.051042892
	,0.11878417
	,-0.083602108
	,0.057108667
	,0.043676186
	,-0.0047074221
	,0.17427245
	,0.31376374
	,-0.038997147
	,-0.0056393328
	,0.0018464085
	,0.040239073
	,0.00071086513
	,0.06344384
	,0.23253831
	,0.021172842
	,-0.10028304
	,0.024276759
	,-0.25704232
	,-0.19202477
	,-0.17612448
	,-0.0013315105
	,-0.039242983
	,-0.14162171
	,-0.023611233
	,0.094714068
	,-0.13050744
	,-0.016022813
	,0.19052355
	,0.10086253
	,0.0899417
	,0.040865771
	,0.0038055235
	,-0.1082494
	,0.076691315
	,-0.023114666
	,-0.13703765
	,-0.16522339
	,-0.096309856
	,0.016610289
	,0.085691541
	,-0.043938149
	,0.00089559134
	,0.0530444
	,-0.095260456
	,0.011915375
	,-0.017578783
	,-0.056242835
	,0.001018331
	,0.036844075
	,-0.092108786
	,-0.21427335
	,-0.086179867
	,-0.18994266
	,-0.0029025145
	,-0.16944148
	,0.025883902
	,0.0060514435
	,-0.094560377
	,-0.046337049
	,0.059879657
	,0.003492408
	,0.018965241
	,0.0026643388
	,-0.055815548
	,0.027762499
	,-0.00094769837
	,-0.037071239
	,-0.24193113
	,0.075423636
	,0.080680415
	,-0.11184967
	,-0.068074428
	,0.0092679588
	,0.078714631
	,-0.019068087
	,-0.011363812
	,-0.068244867
	,-0.015474644
	,-0.11955098
	,0.0032956011
	,0.023081878
	,0.025731934
	,-0.014293807
	,-0.096329965
	,0.013636168
	,0.089470759
	,-0.053076241
	,0.05794305
	,-0.049263243
	,0.15756164
	,-0.12750997
	,0.21152431
	,0.0010909904
	,-0.078389362
	,-0.2481643
	,0.086754709
	,0.29503915
	,0.15325788
	,0.16470221
	,0.15682709
	,-0.0038061978
	,-0.031164978
	,0.2344828
	,0.11786829
	,0.051306915
	,-0.022638412
	,-0.0052518696
	,-0.013488141
	,-0.20199797
	,0.059083719
	,0.0056717992
	,-0.18311235
	,-0.21499494
	,-0.069714472
	,-0.044696003
	,0.24225208
	,0.19610991
	,-0.20484121
	,-0.066049114
	,0.20476003
	,0.14021356
	,-0.12712421
	,0.15827464
	,0.17132913
	,-0.042301685
	,-0.091503918
	,0.15926988
	,-0.00046961126
	,-0.19132085
	,0.040619224
	,-0.011783215
	,0.087619163
	,0.022730393
	,0.26586217
	,0.012907322
	,-0.050233457
	,-0.065134309
	,-0.033301312
	,0.070717506
	,0.1388741
	,0.28576282
	,-0.086956121
	,-0.15022343
	,0.05795107
	,-0.013541861
	,0.038518369
	,0.12037924
	,0.2254668
	,-0.079821341
	,0.11387496
	,0.16742204
	,-0.021188766
	,0.059725132
	,0.0064241532
	,-0.15889291
	,0.10821053
	,0.15960632
	,-0.036545649
	,-0.0060323868
	,-0.10450526
	,0.10146476
	,0.208777
	,-0.021546191
	,0.079804868
	,0.19387959
	,0.02266971
	,0.055301487
	,-0.04236275
	,0.032166213
	,-0.18999304
	,-0.091883674
	,0.024042696
	,-0.12049957
	,0.012690324
	,0.17736645
	,0.18672578
	,-0.21097182
	,-0.11958981
	,0.12475317
	,-0.052775912
	,-0.08334481
	,0.029379318
	,0.083624423
	,0.0077587171
	,0.065044105
	,0.027405057
	,-0.10235522
	,0.031813011
	,-0.11061876
	,0.0898603
	,-0.14136407
	,-0.2481931
	,0.17098492
	,-0.11618822
	,0.012768082
	,-0.045864865
	,0.05708224
	,-0.037431747
	,0.17826472
	,-0.035445441
	,0.11404289
	,0.1273376
	,-0.0044971742
	,-0.16765572
	,-0.015977265
	,0.076227352
	,-0.034898203
	,0.059590448
	,-0.1143067
	,0.04665314
	,0.058051296
	,-0.05145121
	,-0.28915313
	,-0.012582254
	,-0.017241288
	,0.052848991
	,-0.065572545
	,0.10008716
	,0.21724254
	,0.0052304314
	,0.24831837
	,-0.023748714
	,-0.01853512
	,0.0079404656
	,0.22098187
	,0.11675716
	,0.017046509
	,-0.12531549
	,-0.12220011
	,0.31593785
	,-0.13689475
	,-0.15632476
	,0.045883071
	,0.1094988
	,-0.036688063
	,0.10373893
	,-0.0064295973
	,0.094423145
	,-0.055240847
	,0.018613232
	,-0.10143845
	,-0.10523252
	,-0.048640419
	,0.02254618
	,-0.11309926
	,0.10292691
	,0.12391876
	,0.12217475
	,0.1609247
	,0.048027173
	,0.071639635
	,0.082518488
	,0.25896674
	,0.041838225
	,0.11445872
	,0.22313786
	,0.19759285
	,0.057910766
	,0.30424416
	,0.25158575
	,-0.01747801
	,-0.0453035
	,0.12498274
	,0.068164535
	,0.066481821
	,-0.065550186
	,-0.0049134158
	,-0.023408668
	,0.067596354
	,0.002701137
	,0.048582014
	,0.017146535
	,-0.029218333
	,-0.071375154
	,-0.046210296
	,0.056854825
	,0.25241652
	,-0.24216007
	,0.11244842
	,0.010702622
	,0.076486476
	,0.057894394
	,0.056526836
	,-0.039097816
	,-0.089730941
	,-0.061750025
	,0.013519671
	,-0.057282705
	,0.01698227
	,-0.028535694
	,-0.18773623
	,-0.17493835
	,-0.28428507
	,-0.0065153241
	,0.095058523
	,-0.054248489
	,0.1345036
	,0.086611949
	,-0.05206221
	,-0.065922923
	,-0.016493494
	,0.024611112
	,0.1451195
	,-0.039382342
	,0.14024763
	,-0.155904
	,-0.0680094
	,-0.052545745
	,0.091640934
	,-0.23322088
	,-0.13635783
	,0.099911019
	,0.32244754
	,0.20909742
	,-0.13278949
	,0.11342755
	,0.00522973
	,0.014434908
	,0.11580338
	,-0.0092983935
	,-0.22328806
	,-0.088041089
	,0.037030466
	,0.072886951
	,0.0076587982
	,0.090049595
	,0.31559861
	,0.087744348
	,-0.0011049537
	,0.19032355
	,-0.077743486
	,-0.18379326
	,-0.062984124
	,-0.15391962
	,-0.084500916
	,-0.085594133
	,0.011307571
	,0.083464339
	,0.19947365
	,0.051100839
	,-0.15199357
	,0.14951007
	,-0.035853032
	,0.035786185
	,-0.0034843781
	,-0.032173276
	,0.049079809
	,0.036319844
	,-0.073926724
	,-0.060034059
	,0.0036059236
	,0.031716418
	,0.051560055
	,0.291249
	,0.20183232
	,0.18405646
	,0.088676296
	,0.098900981
	,0.069390096
	,0.18200903
	,-0.087787844
	,-0.059178915
	,0.061265294
	,0.019731052
	,-0.086765282
	,-0.097225577
	,0.2479082
	,0.17197593
	,-0.12100208
	,-0.17371075
	,-0.10700867
	,0.0086798118
	,0.20465595
	,-0.023378277
	,-0.010855046
	,-0.0911023
	,-0.15476044
	,0.019987205
	,-0.0040278742
	,-0.17704888
	,0.095394813
	,0.13479453
	,0.32330337
	,0.27684805
	,-0.032737754
	,-0.038416274
	,-0.052125651
	,-0.10160671
	,0.067546226
	,0.040184084
	,-0.038145456
	,-0.09774942
	,-0.056169778
	,0.087709747
	,-0.040250126
	,-0.088812627
	,0.0080752987
	,0.03236774
	,0.03227368
	,0.027714223
	,-0.19532216
	,0.018815171
	,0.13925686
	,0.1654067
	,-0.0817854
	,-0.088783279
	,0.39583746
	,0.13361005
	,0.0023999226
	,-0.31019783
	,0.033758208
	,-0.01903509
	,-0.029885044
	,0.04124219
	,-0.056764677
	,-0.066167086
	,-0.34247288
	,-0.056682039
	,-0.15731522
	,0.12659036
	,-0.059499037
	,-0.0883258
	,-0.060098916
	,0.1274292
	,-0.22278063
	,0.039786432
	,-0.20981269
	,-0.13199984
	,-0.070374392
	,0.043180391
	,0.12597978
	,-0.02681819
	,0.082276605
	,-0.10920826
	,-0.12137654
	,0.087089874
	,0.1123754
	,-0.060795017
	,0.094202064
	,0.10007354
	,0.003598219
	,-0.27565774
	,0.062731676
	,-0.059702519
	,-0.14966844
	,0.10567918
	,0.013232991
	,-0.017544147
	,0.10372135
	,0.08097747
	,0.017278375
	,0.12470029
	,-0.057501324
	,0.18055652
	,0.16322631
	,-0.038632788
	,-0.29090622
	,0.10449506
	,0.12294891
	,-0.012881691
	,-0.20777017
	,-0.050927706
	,-0.0080741839
	,0.1014195
	,0.15790588
	,0.064349063
	,0.10712525
	,0.038480006
	,0.036703967
	,0.31048283
	,0.037765753
	,0.092290983
	,0.13992621
	,0.02774174
	,-0.097042896
	,-0.12863216
	,0.11216959
	,-0.14806397
	,-0.0738401
	,0.009155781
	,0.13607197
	,0.074999727
	,-0.10307967
	,0.11220127
	,0.0043431842
	,0.014640787
	,-0.12806256
	,-0.060609289
	,0.1033112
	,-0.055393443
	,-0.15551274
	,0.06582468
	,0.20987141
	,-0.014626548
	,-0.041487187
	,-0.0060441066
	,0.17639329
	,-0.033502195
	,-0.0680363
	,-0.015163544
	,-0.0046357769
	,-0.18118878
	,0.0087741306
	,0.042660803
	,-0.021358825
	,-0.15845524
	,0.092869774
	,0.12972899
	,0.018703455
	,-0.10932148
	,-0.070377968
	,0.027748227
	,-0.030896045
	,-0.11076922
	,0.0083713317
	,-0.037429132
	,0.049286004
	,-0.19950691
	,-0.2282999
	,-0.0062219859
	,0.0063984594
	,0.0478087
	,0.22748762
	,-0.0066742161
	,-0.034009218
	,0.059642594
	,-0.09721633
	,-0.13849987
	,-0.20163634
	,0.060964648
	,0.28141916
	,0.17193158
	,0.065280922
	,-0.13078628
	,-0.047828354
	,-0.047407374
	,-0.074449107
	,-0.021816632
	,-0.083761536
	,-0.068153441
	,0.092880145
	,0.097209431
	,0.0712424
	,0.10284737
	,-0.029017217
	,0.27302316
	,0.052999567
	,-0.039259881
	,-0.032953523
	,0.12851645
	,0.13774085
	,-0.24726009
	,0.0038788363
	,-0.058339488
	,0.065022744
	,0.0017645871
	,-0.060718894
	,-0.0078941267
	,-0.015082746
	,-0.14213106
	,0.034165274
	,0.12483179
	,-0.13325174
	,-0.10642553
	,-0.13625571
	,0.0074002868
	,0.095722675
	,0.079568908
	,-0.057071306
	,0.11391933
	,0.07115116
	,0.058518268
	,0.0511296
	,0.038891122
	,-0.37724894
	,-0.057935316
	,0.21438007
	,-0.030320697
	,-0.081814133
	,0.16106068
	,0.21934956
	,-0.14657734
	,-0.032678235
	,-0.04278088
	,0.1061878
	,0.01200856
	,-0.041337553
	,0.1137271
	,-0.099002622
	,0.030002963
	,0.037018642
	,-0.016453099
	,0.046111152
	,-0.076714478
	,-0.17582555
	,-0.058578603
	,0.1369651
	,-0.036508128
	,0.040620882
	,0.14953862
	,0.046206631
	,-0.14685749
	,-0.05571321
	,0.25171554
	,0.025854466
	,0.07543084
	,0.11384106
	,0.18416189
	,0.061370388
	,-0.24993749
	,-0.079023182
	,-0.074920639
	,0.090943791
	,0.02252051
	,0.20668542
	,-0.031036606
	,0.086786754
	,0.0749149
	,-0.02909749
	,0.081868529
	,-0.16017772
	,-0.275677
	,-0.16903895
	,-0.074845418
	,0.018777071
	,-0.22177646
	,-0.0091551309
	,-0.030882109
	,-0.085817657
	,-0.20138335
	,-0.12044445
	,-0.0023406781
	,0.08264748
	,0.029615825
	,-0.14898941
	,0.036973979
	,0.063482761
	,-0.057300553
	,0.19945835
	,0.017398661
	,-0.06747736
	,-0.14827412
	,0.11297699
	,0.07481879
	,-0.082820736
	,0.093302533
	,0.093349084
	,0.13334626
	,0.13781826
	,-0.020268954
	,-0.056529038
	,-0.19829802
	,0.12800215
	,-0.17674571
	,-0.092818484
	,-0.10048904
	,-0.04279514
	,-0.059039507
	,0.09906292
	,0.017107086
	,-0.052276965
	,-0.0074488274
	,-0.06096651
	,-0.0097417627
	,-0.13726385
	,-0.067233391
	,-0.151778
	,0.087942764
	,-0.089957461
	,-0.061871041
	,0.01747372
	,-0.028505195
	,-0.048726536
	,0.099784762
	,0.18584225
	,-0.03472117
	,-0.10417376
	,0.11745803
	,0.043423545
	,0.019365856
	,-0.11929867
	,0.11010955
	,-0.016347565
	,-0.0080027487
	,-0.15228327
	,0.074535407
	,-0.09181527
	,-0.15305972
	,-0.00842641
	,0.066971183
	,0.27236351
	,0.092914626
	,0.21531381
	,0.12780176
	,-0.093822978
	,-0.15279247
	,-0.12770152
	,0.025203893
	,-0.028016742
	,-0.19914277
	,-0.10914405
	,-0.10578442
	,-0.037313592
	,0.11646623
	,0.19585112
	,0.13544367
	,0.14061557
	,-0.049910061
	,0.00029975286
	,0.24588947
	,0.041410398
	,-0.2509833
	,-0.18854338
	,-0.0372006
	,-0.17085931
	,0.0034447275
	,-0.10406569
	,-0.11465094
	,-0.047629569
	,0.039152846
	,0.11155047
	,0.10738092
	,-0.050379511
	,0.070471458
	,-0.16788682
	,0.18833245
	,-0.028011048
	,0.071807325
	,-0.014526898
	,-0.082312904
	,-0.13023393
	,-0.03906437
	,0.11644208
	,0.087966233
	,-0.071071945
	,0.045738012
	,0.0064191106
	,-0.012657252
	,-0.12985025
	,0.15885656
	,0.20009172
	,-0.093967617
	,0.020022441
	,0.12365603
	,0.15511617
	,-0.05801893
	,-0.049194273
	,0.017563937
	,-0.10916641
	,-0.039648205
	,0.16044433
	,0.0010593429
	,0.058914691
	,0.0076049785
	,0.0807994
	,-0.0901905
	,0.1105912
	,-0.14097406
	,-0.17653844
	,-0.066393375
	,0.026005996
	,-0.060467243
	,0.17479876
	,0.22913854
	,0.013226404
	,0.10104683
	,-0.10220432
	,0.11729516
	,0.060561042
	,-0.03878285
	,0.0086091207
	,0.05490534
	,-0.20471635
	,-0.064762138
	,-0.10862578
	,0.12958117
	,0.026895346
	,0.11170878
	,0.11774524
	,-0.061083477
	,0.030963181
	,0.33405253
	,0.065245487
	,-0.056605447
	,0.02050543
	,-0.057187952
	,0.0062759197
	,-0.037223175
	,-0.12927374
	,0.025051765
	,-0.0515726
	,0.046630949
	,0.11889446
	,0.26977926
	,0.016180977
	,0.049526602
	,-0.052697513
	,0.59776068
	,0.08920297
	,0.040188029
	,-0.12129449
	,-0.13815325
	,0.1271823
	,-0.057776745
	,0.072525732
	,-0.054383513
	,0.10625298
	,-0.019604227
	,0.082430936
	,0.2411114
	,0.16269784
	,-0.022302991
	,-0.13140342
	,0.066462025
	,-0.20210645
	,-0.13605526
	,0.074011
	,-0.017959366
	,-0.073760681
	,-0.044099469
	,0.031480357
	,0.071620092
	,-0.0089452434
	,-0.09757828
	,0.02953768
	,-0.14622355
	,-0.00023575747
	,0.055014271
	,0.061612055
	,-0.040737975
	,0.15218684
	,0.088612877
	,0.062411051
	,-0.0073831044
	,-0.01407773
	,-0.075454064
	,-0.19037648
	,-0.15711793
	,0.19304009
	,0.021848371
	,-0.093610235
	,-0.19190393
	,-0.10469295
	,-0.004915582
	,0.20380424
	,-0.14736167
	,-0.069422141
	,0.033333238
	,-0.078667969
	,0.22199853
	,-0.014995484
	,-0.036059625
	,0.13629866
	,0.13771904
	,0.046641082
	,-0.041061215
	,0.11706167
	,-0.050992578
	,-0.21223868
	,0.062184617
	,0.31243014
	,-0.12183674
	,-0.097161107
	,-0.15122317
	,-0.19410217
	,-0.1240332
	,0.1053317
	,-0.035781134
	,-0.12039972
	,0.076306686
	,0.068866536
	,0.065132745
	,-0.0050244057
	,-0.01032666
	,-0.077561028
	,-0.069469586
	,-0.032778669
	,-0.17111222
	,-0.17137446
	,0.032241188
	,0.31910387
	,0.081933945
	,0.024019603
	,0.09288238
	,0.087097868
	,-0.023093184
	,-0.23891836
	,-0.10353589
	,0.0730843
	,-0.15697111
	,-0.032336913
	,0.037670989
	,0.16781245
	,-0.080261558
	,0.067545004
	,0.13277958
	,-0.24179973
	,-0.093033873
	,0.063035622
	,0.081991725
	,0.11926761
	,-0.011572105
	,0.18398342
	,0.069520652
	,-0.031727333
	,0.04801039
	,-0.085312583
	,-0.11292177
	,0.025605377
	,0.048960503
	,-0.063302055
	,-0.10065662
	,-0.11747601
	,-0.1143014
	,-0.10174705
	,-0.078441039
	,-0.010338414
	,0.036167286
	,-0.02782877
	,-0.16239955
	,0.033264961
	,0.017869331
	,-0.050721373
	,-0.039517596
	,-0.1437739
	,-0.045120943
	,0.0095343664
	,-0.024282336
	,0.03159399
	,0.036606062
	,-0.0561295
	,-0.039310463
	,0.0050397227
	,-0.035521589
	,0.13675655
	,0.054430686
	,0.0089018531
	,-0.075720251
	,-0.073451564
	,-0.081556015
	,-0.2901811
	,0.097392634
	,0.073408976
	,-0.088248141
	,0.078689352
	,0.0057841358
	,-0.041823577
	,-0.052816227
	,0.18356021
	,-0.28511852
	,-0.11440767
	,-0.0173171
	,0.0854037
	,-0.092234135
	,0.16847262
	,0.11041404
	,-0.027234677
	,0.022718793
	,0.052551094
	,0.13089272
	,-0.043329906
	,-0.060454607
	,-0.044476017
	,-0.14618972
	,-0.073247842
	,0.052033845
	,0.36038327
	,-0.011865322
	,0.021631174
	,0.20794393
	,0.14885609
	,0.12810056
	,-0.11353051
	,-0.13496779
	,-0.045328382
	,0.024041638
	,0.016517235
	,0.16275494
	,-0.011392948
	,-0.094098292
	,-0.12387192
	,0.041240934
	,-0.040767096
	,0.071564935
	,0.070203416
	,0.091748908
	,-0.044443648
	,-0.12404505
	,0.1091781
	,0.001022958
	,-0.010299747
	,0.033568278
	,-0.0056106565
	,0.12285703
	,-0.01607658
	,0.070639968
	,0.017196264
	,0.16289674
	,-0.15781382
	,-0.081409931
	,-0.054395143
	,0.047774848
	,-0.05897525
	,-0.055808239
	,-0.17690384
	,-0.027369294
	,0.092759028
	,-0.011743355
	,-0.0038837325
	,0.010970371
	,-0.086078659
	,-0.047789067
	,0.03534488
	,-0.11340608
	,-0.04198353
	,-0.10401419
	,0.04342258
	,0.24198413
	,0.0062255315
	,0.18959293
	,0.37111458
	,0.1301533
	,0.099576794
	,-0.031941481
	,-0.16704543
	,-0.027701657
	,-0.013392863
	,-0.051394261
	,-0.090264142
	,-0.031562742
	,-0.13465989
	,0.0088203177
	,0.076604009
	,0.012363422
	,-0.052846085
	,0.061118331
	,0.013750728
	,0.016981615
	,0.12023987
	,0.048760053
	,-0.17404445
	,-0.13172206
	,0.053160053
	,-0.099345163
	,0.054429218
	,-0.13524531
	,-0.15187427
	,0.12012077
	,0.098219618
	,-0.094041556
	,0.004961763
	,-0.16815555
	,0.017085318
	,0.19678752
	,0.069628149
	,-0.12604031
	,-0.38507861
	,0.014908522
	,-0.060130082
	,-0.095732935
	,-0.0358967
	,-0.006944418
	,-0.12914537
	,-0.20103948
	,-0.18465532
	,0.0050262292
	,-0.050246097
	,0.040313851
	,0.17366375
	,0.1321494
	,-0.060188144
	,0.046168584
	,0.2268939
	,-0.025765657
	,-0.0024748412
	,-0.041213587
	,-0.18955038
	,-0.22528672
	,0.0964064
	,-0.1393733
	,-0.20912617
	,-0.031031851
	,0.092298143
	,-0.14129427
	,-0.170603
	,-0.058399122
	,-0.19845371
	,-0.012827755
	,0.19005071
	,0.035541378
	,-0.052798808
	,-0.039267566
	,-0.078814648
	,-0.023575936
	,0.03327686
	,0.097699136
	,0.035200506
	,0.036629088
	,0.013764626
	,-0.029477376
	,0.14548501
	,-0.16369055
	,-0.033511013
	,-0.043169569
	,0.064716168
	,0.083306313
	,-0.050837457
	,0.12014962
	,0.0010987381
	,-0.068449855
	,-0.082957357
	,-0.12434574
	,-0.066022649
	,-0.19478582
	,-0.070728041
	,-0.070330575
	,-0.00832409
	,0.049584568
	,0.028005509
	,0.074048
	,-0.063602552
	,-0.077925928
	,-0.063574716
	,-0.1587126
	,0.039937265
	,0.056476526
	,-0.13077365
	,-0.080718324
	,-0.0012256418
	,0.059764411
	,0.13550873
	,-0.095431395
	,0.023762653
	,-0.08468084
	,-0.019102488
	,-0.083537832
	,0.081021979
	,-0.035510156
	,0.11277609
	,-0.036462668
	,0.084978729
	,0.051334918
	,0.15608315
	,-0.069298543
	,0.01002141
	,-0.098144509
	,0.20853245
	,0.083772093
	,-0.0097914338
	,-0.17562586
	,-0.0020636963
	,0.049611118
	,-0.12206178
	,-0.18328625
	,0.0060472731
	,0.075005747
	,-0.044942226
	,0.097840749
	,0.059821356
	,0.21611452
	,-0.0017570532
	,0.23890622
	,-0.14534001
	,-0.027670782
	,0.060028482
	,-0.20818138
	,-0.10366213
	,-0.20280698
	,0.060402881
	,0.00015628137
	,-0.11135515
	,0.0033048627
	,0.168833
	,0.16469637
	,0.098805249
	,0.029788284
	,0.018612478
	,0.012874372
	,0.099749431
	,-0.048449937
	,-0.045798127
	,-0.39715987
	,-0.00934893
	,-0.012222628
	,0.042753812
	,0.20275818
	,-0.066502608
	,0.09341336
	,-0.018128287
	,0.087471582
	,-0.011495426
	,-0.1018543
	,-0.18668373
	,0.054753065
	,-0.068522088
	,-0.01462068
	,-0.046977837
	,-0.2031741
	,-0.29948547
	,-0.12354867
	,0.036794532
	,-0.029715529
	,-0.093217738
	,-0.0053336727
	,-0.0037544905
	,0.0798326
	,-0.042637452
	,0.037743285
	,-0.021499109
	,-0.078724377
	,0.025090139
	,0.20170937
	,0.12080883
	,0.012177855
	,0.18621942
	,0.16530752
	,-0.021175988
	,0.058554735
	,-0.011397909
	,0.036311321
	,0.113693
	,-0.039263744
	,-0.062397577
	,0.063768156
	,0.020601984
	,0.03190257
	,-0.01496625
	,0.070423596
	,-0.048408225
	,0.16827546
	,-0.34544086
	,-0.26140869
	,-0.0032367348
	,-0.11118477
	,0.054565791
	,-0.07642518
	,-0.060688861
	,0.02606203
	,0.020355463
	,-0.2434586
	,0.071060576
	,-0.104555
	,0.17190453
	,-0.13859977
	,0.0071313335
	,-0.043321557
	,-0.16640176
	,-0.04351791
	,-0.24712554
	,-0.24276984
	,-0.14142123
	,-0.037214119
	,0.068135619
	,-0.15036824
	,0.11714163
	,0.073443718
	,0.029242849
	,-0.010220057
	,0.045049693
	,-0.044013545
	,0.1970963
	,-0.12194151
	,0.030196995
	,0.0069495006
	,0.041916411
	,-0.021524969
	,0.11431602
	,0.037232112
	,0.15748152
	,0.035445541
	,0.033526596
	,-0.070606358
	,-0.14178033
	,0.024342654
	,0.0054847817
	,-0.11345176
	,0.0079766894
	,-0.19928008
	,0.010545711
	,-0.29372284
	,-0.31724715
	,-0.13616844
	,-0.0851687
	,0.001940666
	,-0.087045074
	,-0.0084922109
	,0.12169804
	,-0.13267367
	,-0.035727389
	,-0.21808444
	,-0.029201481
	,0.093958132
	,-0.10969476
	,0.026657406
	,0.20127571
	,0.16834381
	,0.0053870184
	,-0.037291005
	,-0.15779604
	,0.076836467
	,0.072676539
	,0.0019474208
	,-0.06113632
	,-0.0042764237
	,-0.082694791
	,-0.07526885
	,-0.10432827
	,0.18361963
	,-0.033949822
	,-0.052179947
	,-0.040032074
	,-0.15492924
	,0.08561448
	,0.22504528
	,-0.074207373
	,0.012112244
	,-0.046827815
	,-0.0077211587
	,-0.041278403
	,0.072455004
	,-0.009737608
	,0.11532389
	,0.2312196
	,-0.05644168
	,0.16606718
	,-0.017833881
	,-0.042147055
	,-0.044580594
	,-0.040321238
	,0.069414079
	,-0.025116978
	,0.1012072
	,-0.02289536
	,0.13847272
	,0.053743545
	,0.12058165
	,0.066376917
	,-0.035155807
	,0.06512633
	,0.031547561
	,0.099517368
	,0.18186091
	,-0.14947024
	,-0.038968649
	,-0.043711204
	,0.045206942
	,0.0090593779
	,0.039268024
	,0.087814815
	,0.29426357
	,0.14913477
	,0.23007786
	,-0.11659072
	,0.20420714
	,0.053838469
	,0.18651295
	,0.17262685
	,0.072286323
	,0.025803968
	,-0.082414344
	,-0.015740048
	,0.12422772
	,-0.037811764
	,0.051214963
	,-0.018326329
	,-0.041285276
	,-0.044651613
	,-0.18289374
	,0.17256857
	,0.12218069
	,0.12533258
	,0.10542744
	,0.13824552
	,-0.004714536
	,0.0028111006
	,0.0032240606
	,0.13859771
	,-0.22121638
	,-0.16582191
	,-0.012005979
	,0.057347678
	,-0.15335014
	,0.017273333
	,-0.0680083
	,0.11296465
	,-0.0098978858
	,0.065633252
	,-0.096917391
	,-0.0051669935
	,-0.15143268
	,-0.11190313
	,-0.080554031
	,-0.054092258
	,-0.10123598
	,-0.20539136
	,-0.12501948
	,-0.030628333
	,-0.14868076
	,0.046196207
	,0.12449925
	,0.019569313
	,-0.18210483
	,0.1285588
	,-0.099842995
	,-0.0089291679
	,-0.041506108
	,-0.033198364
	,-0.0010843519
	,-0.038246132
	,0.0058395509
	,-0.025018085
	,0.0082359053
	,0.12899069
	,0.0051625827
	,-0.051839266
	,-0.038867056
	,-0.17793331
	,-0.0035826233
	,0.094995059
	,-0.12737116
	,0.025387617
	,0.087015629
	,0.2237273
	,0.061348733
	,-0.21557827
	,0.15104717
	,0.13071531
	,0.0069825659
	,0.05972857
	,-0.047996961
	,0.2142453
	,-0.11226668
	,0.035618931
	,-0.19224647
	,-0.044863619
	,-0.14639217
	,0.038432546
	,-0.0074488339
	,0.088914432
	,-0.077901877
	,0.034696624
	,0.18704721
	,0.14435653
	,0.054526448
	,0.13340041
	,0.0846375
	,-0.10121001
	,-0.1412387
	,0.067519128
	,-0.098407038
	,-0.0041273292
	,0.046001334
	,-0.28804049
	,-0.024102898
	,-0.062450983
	,0.048067581
	,-0.24433522
	,-0.011797412
	,-0.1203402
	,-0.014393209
	,-0.024351079
	,-0.084255755
	,0.073518507
	,0.096815184
	,-0.12315235
	,0.11282751
	,-0.039853349
	,0.001820355
	,0.004501781
	,-0.080865175
	,0.081214927
	,0.010925239
	,0.014418984
	,-0.12829581
	,0.052964132
	,0.058438409
	,0.022940667
	,0.039283089
	,0.0046708351
	,-0.10110976
	,-0.071841128
	,-0.038114842
	,-0.051565621
	,0.066848345
	,0.020047287
	,0.034402885
	,0.0014494967
	,0.26480871
	,-0.076937206
	,-0.12642349
	,-0.10206328
	,0.10019741
	,0.094046287
	,-0.033460282
	,0.0475686
	,0.13475795
	,0.14082368
	,-0.066269577
	,0.080689676
	,0.043828286
	,0.02609589
	,-0.12939979
	,-0.1449672
	,-0.01219148
	,-0.036388837
	,0.023869513
	,-0.11684483
	,0.034063272
	,0.184299
	,-0.0095236953
	,-0.084700696
	,0.18945381
	,-0.011085792
	,-0.26124841
	,0.030252578
	,0.082143776
	,-0.027651871
	,-0.21482739
	,-0.15690181
	,-0.1354654
	,0.031888019
	,-0.096015953
	,-0.106276
	,-0.061954841
	,-0.0698717
	,0.044462636
	,-0.12637305
	,0.01333638
	,0.16912574
	,-0.057115812
	,0.12320429
	,0.12879385
	,0.14039934
	,-0.046863716
	,-0.0092141451
	,0.0085087316
	,0.052518029
	,-0.052174412
	,-0.11894257
	,-0.045853086
	,-0.040916894
	,0.039213844
	,0.035993591
	,0.077082828
	,-0.037853129
	,0.029248593
	,0.08687108
	,-0.049746949
	,-0.093309544
	,-0.14252251
	,-0.21253747
	,-0.14966494
	,-0.11245622
	,-0.24316989
	,0.03872183
	,0.0044707269
	,-0.0027410877
	,-0.16320831
	,0.022162778
	,-0.23313035
	,0.048866171
	,-0.030056382
	,0.14914571
	,-0.20649162
	,0.093004972
	,0.0075018592
	,-0.054929778
	,-0.16964544
	,-0.092532337
	,0.10368764
	,-0.036960196
	,0.038745582
	,0.042306136
	,0.021296524
	,0.020531392
	,-0.12821959
	,0.013478877
	,-0.033571217
	,-0.035378255
	,0.046851207
	,0.020278586
	,0.0080567263
	,-0.0062317052
	,-0.24056779
	,-0.1609157
	,0.028357843
	,-0.1302522
	,0.025597613
	,0.026876125
	,-0.15919681
	,0.060660962
	,0.058338542
	,0.0013875982
	,-0.13532649
	,0.10863577
	,0.085513964
	,-0.024795188
	,0.09790422
	,-0.038377084
	,0.03386575
	,-0.12605295
	,0.17743905
	,-0.0049866564
	,0.0017908794
	,0.015712177
	,0.13105418
	,-0.0082288915
	,-0.26691976
	,-0.1220964
	,-0.030552728
	,0.062024862
	,-0.088360496
	,-0.033798315
	,-0.15298188
	,-0.13314739
	,-0.067957684
	,-0.02984491
	,-0.037630551
	,0.041742653
	,0.066166408
	,-0.0385166
	,0.00027888882
	,0.090624154
	,0.13698459
	,0.043959659
	,0.13184348
	,0.058828682
	,0.075709552
	,-0.090154834
	,0.021905525
	,-0.012403116
	,0.085788071
	,-0.10810921
	,-0.0030976015
	,-0.14681867
	,0.078182161
	,0.14693001
	,-0.0074719768
	,-0.019031668
	,0.13650322
	,0.13894755
	,0.0591747
	,0.0067612319
	,0.19749108
	,0.0667718
	,-0.01317818
	,0.080569655
	,0.15460107
	,0.14181113
	,-0.27901641
	,0.018990921
	,0.12282637
	,0.1829516
	,-0.058443118
	,0.043602247
	,0.060422171
	,-0.03867333
	,0.055121116
	,-0.048875894
	,-0.1424398
	,-0.13986896
	,-0.15765955
	,-0.14057465
	,-0.1746036
	,-0.0082023414
	,-0.0036888761
	,-0.06306906
	,-0.040014312
	,-0.10310274
	,-0.2660729
	,-0.14059937
	,-0.10014691
	,-0.042980924
	,0.070902795
	,0.15815562
	,0.020060929
	,-0.13808888
	,-0.034479856
	,0.047196113
	,0.092095539
	,-0.16426052
	,-0.0024228017
	,-0.056996725
	,-0.055061374
	,-0.051044624
	,0.0018891192
	,0.14268363
	,0.17194487
	,-0.22059444
	,0.092569262
	,0.17457646
	,0.047607549
	,-0.12040127
	,-0.069478944
	,-0.1116915
	,0.015820282
	,-0.062669456
	,-0.014637615
	,-0.19569673
	,0.17417438
	,-0.014222006
	,0.040898524
	,-0.072267041
	,0.12673412
	,0.0061006513
	,0.090651453
	,-0.063901044
	,0.027444644
	,-0.053375136
	,0.0086273467
	,-0.037633933
	,0.054424062
	,-0.12766154
	,-0.088643022
	,0.083486028
	,-0.15119734
	,0.085654311
	,-0.067366004
	,-0.12515855
	,-0.12058917
	,0.12026422
	,-0.13457792
	,-0.0053860345
	,0.058411013
	,0.050647229
	,-0.06558115
	,-0.13835944
	,0.055459261
	,-0.022468105
	,-0.016952166
	,-0.030790664
	,0.24115418
	,0.094196618
	,-0.079617493
	,0.020321893
	,0.0095270313
	,-0.18225688
	,-0.040412579
	,0.084719464
	,0.036527168
	,0.15006255
	,0.028363144
	,0.15451805
	,0.068162359
	,0.13704535
	,0.10641737
	,0.0086266147
	,-0.077226445
	,-0.20332403
	,-0.053198822
	,0.027200788
	,-0.1008445
	,-0.30503973
	,-0.17574947
	,0.016947536
	,0.23281488
	,-0.16752471
	,0.087870508
	,0.057151709
	,0.005585161
	,-0.0796983
	,0.044313174
	,0.0031664509
	,-0.11187848
	,-0.099951133
	,0.007388501
	,0.19170581
	,0.26474944
	,-0.031460624
	,0.069474965
	,0.19124068
	,0.014279154
	,-0.030771391
	,-0.038839016
	,-0.18826559
	,-0.061320845
	,-0.25130117
	,-0.2246632
	,0.00184873
	,0.16597366
	,0.34038481
	,0.080810733
	,-0.13596778
	,-0.0010145518
	,-0.12452073
	,-0.02944598
	,-0.035352416
	,-0.13209118
	,-0.079488575
	,0.028092677
	,0.098567806
	,0.23821104
	,0.1301595
	,-0.19639041
	,-0.14243475
	,0.0079691382
	,-0.047236484
	,-0.066728443
	,-0.046122804
	,-0.039894007
	,-0.05716373
	,-0.11718846
	,-0.035417408
	,0.026682856
	,-0.056610856
	,-0.17341527
	,-0.090806916
	,-0.00778016
	,0.29800615
	,0.057998564
	,0.047686465
	,0.15698884
	,-0.078570627
	,0.18154649
	,0.061171114
	,-0.013683418
	,-0.19245572
	,0.1169248
	,0.11034998
	,-0.068558581
	,-0.25043809
	,-0.30797812
	,0.062977083
	,0.027579205
	,-0.04717207
	,0.041316524
	,0.26300925
	,-0.086428843
	,0.019658338
	,-0.038502727
	,0.14358075
	,-0.08491987
	,0.088656746
	,-0.0074169431
	,0.098786488
	,-0.1602518
	,0.10317092
	,-0.10745811
	,-0.12403949
	,0.10768298
	,0.15726888
	,-0.052866325
	,0.20283166
	,0.05329464
	,0.18014607
	,0.1136835
	,0.11404236
	,0.046028264
	,-0.0406117
	,-0.041045193
	,-0.0970294
	,-0.14889145
	,0.038753793
	,-0.073526673
	,-0.14580384
	,0.21447772
	,0.013701325
	,-0.0830033
	,0.0044575371
	,-0.021293739
	,-0.12471562
	,-0.1426799
	,0.080455065
	,0.15566885
	,0.049131852
	,0.092459619
	,0.02735672
	,0.0090246638
	,0.032986283
	,-0.17104538
	,0.10127102
	,0.013836973
	,-0.22401153
	,0.37224689
	,-0.050113168
	,-0.0980811
	,-0.15892912
	,0.013770641
	,-0.35460183
	,-0.03057442
	,0.22710098
	,-0.023439953
	,-0.25260144
	,0.17149039
	,0.11187641
	,0.15826769
	,0.26213956
	,0.051841445
	,0.032998294
	,-0.1121983
	,-0.14235188
	,-0.10389583
	,-0.35522524
	,0.13494445
	,0.027503338
	,-0.1059374
	,0.020690497
	,0.12725249
	,0.038172282
	,-0.028766559
	,-0.067128032
	,0.0094140172
	,-0.011360417
	,-0.10723356
	,-0.15732901
	,0.0695169
	,0.12510723
	,-0.15234326
	,0.06107337
	,-0.13142236
	,-0.12706223
	,-0.14192824
	,-0.14841922
	,0.056228321
	,0.19677246
	,0.097234949
	,-0.11564131
	,0.014940765
	,-0.017129146
	,0.069399349
	,0.16070262
	,-0.089051545
	,0.18001668
	,0.11123835
	,-0.13235734
	,0.013087079
	,-0.095470637
	,0.027440161
	,-0.048137285
	,0.037371535
	,0.13884047
	,0.23241749
	,-0.11069629
	,-0.15328187
	,-0.048592385
	,-0.078481719
	,0.1587221
	,0.23116556
	,0.28863934
	,0.27927279
	,-0.0066526295
	,0.057611749
	,0.15832083
	,0.071852326
	,0.14987469
	,0.0086534293
	,0.0555364
	,-0.096350349
	,-0.14457355
	,0.12822217
	,-0.14090547
	,-0.1900804
	,-0.00057857425
	,-0.2730037
	,-0.049598448
	,0.058576159
	,0.11480355
	,0.054976895
	,0.028397674
	,-0.024210814
	,0.015651796
	,0.032386668
	,-0.045137055
	,0.064216055
	,0.022863317
	,0.076454587
	,0.12168489
	,0.0030082793
	,-0.20292595
	,0.057568163
	,-0.07403376
	,-0.031783573
	,-0.10965561
	,-0.060218021
	,-0.12114578
	,0.062517732
	,-0.13647005
	,0.07704141
	,-0.11801428
	,-0.086800404
	,0.22192161
	,0.31743971
	,0.098524451
	,0.11973649
	,-0.047152966
	,0.013087108
	,-0.071815796
	,-0.019234598
	,0.10097286
	,0.17861587
	,-0.014817288
	,-0.014313724
	,-0.030465038
	,-0.064874485
	,0.081164
	,-0.049384162
	,0.022890532
	,0.28924525
	,0.090507731
	,-0.025946157
	,-0.21177652
	,0.055550881
	,-0.035404209
	,-0.019205669
	,0.029015368
	,0.025755547
	,-0.015903952
	,-0.050972577
	,0.036764
	,0.078508936
	,-0.0026146171
	,-0.00924116
	,-0.061113112
	,0.1067065
	,-0.054409131
	,0.029706977
	,-0.12037574
	,-0.13207749
	,-0.1060921
	,-0.1948286
	,-0.018016193
	,-0.18124771
	,-0.19308761
	,-0.079570577
	,-0.08153785
	,-0.11476091
	,-0.20429738
	,0.04393686
	,0.073533811
	,0.038500052
	,-0.012142767
	,-0.061028413
	,0.089314885
	,-0.11887343
	,0.040807236
	,-0.16127893
	,-0.17512086
	,-0.0019409175
	,0.21193172
	,-0.034323204
	,-0.093399763
	,-0.34203303
	,0.098426938
	,-0.044959631
	,-0.12806933
	,-0.12497912
	,0.069185033
	,0.080802947
	,0.03855437
	,-0.050521303
	,-0.29324535
	,0.033782072
	,-0.061018389
	,0.10992045
	,-0.064444922
	,0.02693611
	,0.25464639
	,0.0892255
	,-0.0084426105
	,-0.06357953
	,0.011056554
	,-0.083928734
	,0.0040878914
	,-0.04172419
	,0.019999988
	,0.0694143
	,-0.073000826
	,0.30602
	,0.34471023
	,0.15631098
	,-0.029071234
	,0.066043593
	,-0.08743649
	,0.0061722933
	,-0.049061336
	,0.086602062
	,-0.0034466207
	,-0.21190427
	,-0.06678848
	,0.0047112238
	,-0.043058392
	,0.025508067
	,0.12638485
	,0.15773827
	,-0.14747833
	,0.12329358
	,-0.023280986
	,0.13469553
	,-0.098414607
	,-0.019345665
	,0.038217347
	,-0.079022743
	,0.21567768
	,-0.14792626
	,0.13727725
	,-0.023986978
	,0.10076827
	,-0.13067427
	,0.02205356
	,0.078819275
	,0.11839727
	,-0.040498577
	,-0.0022691635
	,-0.012584174
	,-0.0947244
	,0.020636437
	,0.13043043
	,0.12951641
	,0.02614505
	,0.015646722
	,-0.17287187
	,-0.084515296
	,0.051179342
	,-0.18064661
	,0.068312004
	,0.032684863
	,-0.056260876
	,-0.32081172
	,0.09415067
	,-0.016872892
	,-0.017126273
	,0.022703286
	,0.27820882
	,0.028448952
	,-0.045357075
	,0.063330837
	,0.042809095
	,0.062812835
	,-0.19748111
	,-0.0493144
	,0.0075123366
	,0.083757274
	,0.00476955
	,-0.04355732
	,0.083922684
	,0.11794481
	,0.18265446
	,-0.067583367
	,-0.17628264
	,0.024018584
	,-0.17619742
	,0.20245276
	,0.050526343
	,-0.34032848
	,-0.18581831
	,-0.057847135
	,0.073491737
	,0.19680516
	,0.010377198
	,-0.24868974
	,-0.042622175
	,0.065833934
	,-0.018233387
	,-0.099892832
	,0.19046643
	,-0.11931145
	,-0.16250163
	,0.034284055
	,-0.053181045
	,-0.0087437341
	,0.036439244
	,-0.020051979
	,0.1352248
	,0.1590375
	,0.060279157
	,-0.095830485
	,-0.0095065953
	,-0.20045614
	,-0.0035007179
	,-0.13990866
	,0.16846439
	,-0.06589932
	,-0.2591337
	,-0.016955959
	,-0.1285373
	,0.060970593
	,-0.02885836
	,-0.17827888
	,-0.17817073
	,-0.29676691
	,-0.13286124
	,0.10492576
	,-0.04818368
	,-0.096246019
	,0.038147874
	,0.14031512
	,-0.022355311
	,0.038698357
	,0.044748094
	,-0.17842002
	,0.081827819
	,-0.024374418
	,0.013128209
	,0.079343766
	,0.0778904
	,0.022294296
	,-0.13494647
	,0.1018941
	,0.1211463
	,0.045722146
	,-0.09713202
	,-0.20516199
	,-0.056718849
	,0.043677509
	,0.071149595
	,-0.08775349
	,-0.13045509
	,0.16737908
	,0.076246977
	,-0.38714245
	,-0.11032447
	,0.027359884
	,0.042832136
	,-0.26364127
	,-0.049197871
	,0.072504245
	,0.076693445
	,0.06926471
	,0.18410172
	,-0.15292542
	,-0.27322587
	,-0.035361174
	,-0.0010323507
	,-0.043648284
	,0.12101788
	,-0.38511243
	,-0.15588735
	,-0.0651032
	,0.0514571
	,-0.18396993
	,-0.25094873
	,-0.060643498
	,0.087598585
	,-0.060231019
	,-0.00056584022
	,0.026668126
	,0.022596268
	,-0.080587916
	,0.096476845
	,-0.064469382
	,-0.0853503
	,-0.016857496
	,-0.054654155
	,0.092866838
	,-0.068589337
	,0.089664027
	,0.30090174
	,0.082574658
	,-0.024821471
	,-0.052670408
	,0.041599978
	,-0.25395882
	,-0.026107486
	,-0.053536303
	,0.12430053
	,0.19554214
	,0.038453702
	,-0.0025060698
	,-0.10232089
	,-0.062269758
	,-0.053979862
	,0.086013719
	,-0.028398735
	,-0.032131024
	,-0.25514495
	,0.051627047
	,0.013238483
	,0.13059545
	,0.13376145
	,0.018491384
	,-0.072493859
	,-0.025460368
	,0.1015428
	,0.335703
	,0.19896522
	,-0.078881986
	,-0.14989294
	,-0.053856272
	,-0.077329993
	,-0.031285409
	,0.029665809
	,-0.040630955
	,0.16424897
	,-0.15665442
	,0.16414845
	,0.088181391
	,-0.010744799
	,-0.053590797
	,-0.11899262
	,0.025625447
	,0.082923651
	,-0.016102092
	,0.31687438
	,0.065889731
	,0.048579037
	,-0.032641333
	,-0.07803683
	,0.098366335
	,-0.035350237
	,-0.12873623
	,-0.048834633
	,-0.062880412
	,-0.026618181
	,-0.018740963
	,0.028446227
	,0.12482123
	,0.048164953
	,0.0011787307
	,-0.032223172
	,0.0599939
	,0.12521313
	,-0.18936898
	,-0.15598789
	,-0.067950673
	,-0.061337478
	,0.043016978
	,-0.11973909
	,-0.22926201
	,0.11966307
	,-0.010305999
	,0.067257725
	,-0.1397979
	,-0.082693331
	,-0.0085411863
	,-0.10225821
	,0.089386635
	,0.19610925
	,0.057128411
	,-0.11952712
	,0.063645579
	,-0.10287929
	,0.064761318
	,-0.059184164
	,0.19455093
	,-0.13139813
	,0.033697825
	,0.10544173
	,0.0546187
	,0.036069192
	,-0.054240651
	,-0.015528442
	,-0.0058573056
	,-0.062821083
	,-0.18677402
	,-0.020295713
	,0.049309041
	,-0.05937738
	,-0.077853151
	,0.011517973
	,0.1862258
	,-0.071340591
	,-0.040793031
	,0.12929402
	,0.14455599
	,-0.28813741
	,-0.0343314
	,0.12994461
	,-0.14725126
	,-0.19389139
	,0.064909235
	,-0.077147059
	,0.033809736
	,0.30197346
	,-0.020030821
	,-0.146298
	,0.27894017
	,-0.095128812
	,-0.069153704
	,-0.12418147
	,-0.011670636
	,-0.059396405
	,0.070075013
	,0.34036523
	,0.091146559
	,0.079073757
	,0.16365297
	,0.047303304
	,0.28706822
	,0.082022749
	,0.074156828
	,0.11296117
	,-0.42461616
	,-0.11828728
	,0.023547873
	,-0.0099818259
	,-0.010042514
	,0.045195386
	,0.15549403
	,0.12060113
	,-0.079870582
	,0.042975459
	,0.079065472
	,0.065814637
	,-0.10886883
	,-0.24831899
	,-0.025415141
	,-0.063969135
	,-0.087562017
	,-0.0989153
	,0.035180766
	,-0.030178228
	,0.11309168
	,-0.01075522
	,0.091330811
	,0.2198697
	,0.013691781
	,-0.046081875
	,-0.041441824
	,0.082850382
	,-0.088123418
	,0.18383868
	,0.11899799
	,-0.076942585
	,-0.18975119
	,0.11330669
	,0.091318786
	,-0.071988031
	,0.075800508
	,0.089800008
	,-0.049699616
	,-0.094852574
	,0.14420442
	,-0.016456844
	,-0.10679889
	,0.057650048
	,-0.04167841
	,0.063708507
	,0.0025827815
	,-0.053133965
	,-0.018403992
	,-0.088287994
	,0.21978375
	,0.091695614
	,0.288225
	,0.0027130332
	,-0.060960546
	,-0.10953653
	,0.0024884581
	,-0.18192831
	,-0.11212897
	,0.11864019
	,0.032524269
	,0.018995894
	,0.20947847
	,-0.076951839
	,0.028999019
	,-0.061830424
	,-0.15989889
	,0.025370702
	,-0.0029796415
	,-0.06601125
	,-0.017463598
	,-0.19157197
	,0.14835617
	,0.049431123
	,-0.12238915
	,-0.011456564
	,-0.075679749
	,-0.14280824
	,-0.10496786
	,-0.032240868
	,0.040797029
	,-0.15463616
	,-0.011241075
	,-0.21550767
	,0.13243239
	,0.055446558
	,-0.033438232
	,0.0822044
	,-0.071064018
	,0.00083791319
	,-0.021693381
	,0.057587396
	,-0.060957756
	,-0.0041202777
	,-0.0982039
	,-0.0020758118
	,0.1986403
	,0.037308458
	,0.20525923
	,0.052195355
	,0.066093311
	,0.10026477
	,0.098341219
	,0.055409793
	,0.10584771
	,-0.11031091
	,-0.059422381
	,0.036592707
	,-0.087984793
	,-0.12064794
	,-0.12144961
	,-0.090349957
	,-0.17483737
	,-0.56060719
	,-0.087768428
	,-0.10527618
	,0.00867329
	,-0.055124156
	,0.0062704212
	,-0.15594047
	,0.10296166
	,0.13170572
	,0.047981158
	,0.011390125
	,0.049166627
	,-0.10340089
	,-0.30282152
	,-0.22680552
	,0.12358453
	,0.01129365
	,-0.00463109
	,-0.17094339
	,-0.14275241
	,0.13961099
	,0.067322738
	,0.11104916
	,-0.027794039
	,-0.19273645
	,0.15687592
	,-0.030705085
	,-0.021320978
	,-0.020946523
	,0.047380526
	,-0.069372885
	,0.18249448
	,0.25350928
	,0.13578588
	,0.10673954
	,0.011526837
	,0.20110899
	,-0.0043132016
	,0.098804943
	,0.12629114
	,-0.022793788
	,0.1485149
	,-0.082157657
	,-0.015878659
	,-0.13637546
	,-0.13910641
	,0.028903967
	,0.040114827
	,-0.11953187
	,0.073676221
	,0.13761342
	,0.032707378
	,0.03254525
	,-0.025780704
	,-0.047486249
	,0.17373884
	,0.099337831
	,0.043211564
	,-0.032482069
	,0.15534577
	,0.11947419
	,-0.058995862
	,-0.15611827
	,-0.12088966
	,0.10308571
	,0.15646596
	,0.092347391
	,-0.027056674
	,-0.13070531
	,-0.16496933
	,0.05907679
	,-0.0024188941
	,0.13934588
	,0.21479754
	,0.012674218
	,0.066512294
	,-0.027134249
	,-0.090276189
	,0.10151923
	,-0.0910623
	,-0.13320363
	,-0.11958358
	,0.21235563
	,-0.043590069
	,-0.04869109
	,0.0419673
	,0.030822204
	,0.071629167
	,-0.14889459
	,-0.067670546
	,0.21183871
	,0.075377412
	,-0.11379222
	,0.064415991
	,-0.10559238
	,0.072664261
	,0.094774351
	,0.13143688
	,0.10659102
	,0.17435165
	,-0.14974819
	,0.001448072
	,-0.043874852
	,-0.1411804
	,-0.10628922
	,0.017212734
	,0.017116858
	,0.058370568
	,-0.1434772
	,0.13255893
	,0.15537837
	,0.04240467
	,0.17834507
	,0.1228777
	,0.08644361
};
